     -0.3414047829
      0.8410377229
     -0.1390935680
     -0.6298803019
      0.4002271753
     -0.0814873866
      1.8545127248
      0.6271136399
      0.9343928404
      0.0430248033
     -0.3205331690
     -0.5417110979
      0.1072559580
      0.1368940551
      0.1187756958
      0.3944605208
      0.4071795895
     -1.1731374134
      0.0543549056
     -0.0246472431
      0.8076787800
     -1.2046299852
      0.6311499014
      1.1063752951
     -0.0255723368
     -0.3024781563
     -0.9554692912
     -1.0057304203
     -0.3308252764
     -0.7048682182
      0.4351837485
      0.2014552949
      0.2673608938
     -0.2873547357
     -0.1497297171
     -0.3351814850
     -1.2186985070
      0.4441526183
      0.2300492107
     -0.2926226272
      0.0797597723
      1.0278356841
      0.0988595046
     -0.1783532991
      0.3962185048
     -0.1172597910
     -0.3687438587
      0.3684073278
      0.1235575892
     -0.0731417338
     -0.6938708235
      0.1193003176
      0.3775203258
     -1.7378016931
     -1.0400361072
      1.2860332586
      0.8442003906
      0.8205183753
     -1.6511810534
      2.6713842364
      1.8632641711
      0.8777176745
      0.4418960889
      0.0209210708
     -0.2640405852
     -1.2775919955
      0.3845045986
      0.9852977342
     -1.3265979696
     -0.0085094539
     -0.9439373729
      0.8702909003
     -2.0211188693
     -2.1866418847
     -1.8832830216
     -0.0380771961
     -1.2889148217
      1.2103628725
     -1.3705115608
      1.9266851079
      0.1425241248
     -1.1935300233
     -0.0395374741
      1.0464091782
      0.3233239671
     -0.1428922754
     -0.1514752658
      0.5340394239
     -0.2736220813
      0.3705360940
     -0.4930039499
     -0.4221408281
      0.0933654130
     -0.7605251543
     -0.0455514184
      0.5705146875
     -0.0778959939
      1.1796757357
      0.1961618297
      0.8927279976
      1.0208214331
      0.0793230397
      0.5816041302
     -0.3305403141
      0.0475200199
     -0.8275090889
     -0.4268143067
     -0.3815031877
     -0.0260222210
      0.8889545403
     -0.0759275545
     -0.3795564381
      0.0581335438
     -0.3769447236
     -0.0840899133
     -0.0861755496
      0.8697839194
      0.9544833233
      0.1769006373
     -0.1779348342
     -0.5809827017
      0.3936153349
     -0.2123185129
     -0.0509801272
     -0.4617284717
      0.4209523785
     -0.2460371545
     -0.1343654299
      0.1075562568
     -0.2811225515
      0.5093281313
     -1.5595542507
     -0.1217599349
     -0.6552989057
     -0.3101713280
     -0.1714144183
      0.4220324533
     -1.0599463187
     -0.0727002566
      0.5818699590
      0.6576901932
      0.0141123188
     -0.7049772445
      0.8499374897
     -1.1220359141
     -0.4314909166
     -0.4678534129
      0.2094930116
     -0.7197041249
      0.1380480727
     -0.6473917079
     -0.3066468311
      0.5816688841
      0.2401043166
      0.8676480541
     -0.6252226117
      0.6734692346
      0.9120957583
     -0.2492932959
     -1.3769667823
      0.6696908905
     -0.8875034200
      0.4360367702
     -0.1177343902
      0.0897552226
      0.0534433797
     -0.3931655569
     -0.4980280631
      0.3258795216
     -0.7600863840
      0.2218227129
      0.3303394816
     -0.6820266395
     -0.8377152259
     -0.7512502880
      0.9277961850
     -1.1746664996
     -0.1997718018
      0.2890614327
      0.8776296178
     -0.3301725766
      0.6963347299
     -0.4436621257
      0.5529378213
      0.1658374644
      0.0646038426
     -0.8638525765
      0.1561132936
      0.0633591221
      0.4116844987
     -0.6256806938
     -0.6616522461
     -0.9377275930
     -0.0246082292
      0.6821143490
     -1.3443492753
      1.1716690433
     -1.7847621993
      0.2210765602
     -0.7267051572
      0.1259338482
     -0.0544314925
      0.6231393086
     -0.2108024579
      0.6057564061
      0.5828800016
      0.6948689750
      0.3395695728
      0.8643756813
     -0.7655717569
     -0.1831709775
      0.2415772678
      1.3151658085
      1.8401769080
      1.7372282229
     -0.5392693777
     -0.8560369489
     -0.8012998052
      0.0485033284
      0.1995734802
     -0.0664492336
      0.3559234560
      0.1034303740
     -0.2123826185
      0.2327313167
      0.1663111869
      0.1460213172
     -0.1256597854
      0.2354789467
      0.8380872226
     -0.7525509763
     -0.0590913307
     -0.9406919146
      0.5928879204
     -0.9058086136
      0.3440935354
      0.4856178801
     -0.1665726923
     -0.1497168953
     -0.2544062557
     -0.3314035412
      1.7084448442
     -0.1175689169
     -1.3150332714
      0.1012409112
      0.0609473967
     -1.3699525162
      0.4295670170
      0.2093482213
      0.0894785409
      0.1139119857
     -0.0153566122
     -0.5425173972
      0.6368465130
      0.2471022701
     -0.3991682058
     -0.6254253861
     -0.5408674926
      0.0734380386
     -0.2322878785
     -0.1712196159
      0.1459085130
      0.2854780684
      1.0337268395
      1.0421630688
      0.2665723197
     -0.1776949919
      0.4275964291
      0.5273160330
     -0.4047378265
      0.4765341286
     -1.2207127739
      0.3434698019
      0.8587991064
      0.2652316114
      0.4099669757
     -0.4862157062
     -0.5915076795
      0.4337051813
     -0.2324630473
      1.3568790177
      0.1764922875
      0.8243133929
      0.3358378891
     -0.8285509830
     -1.4015662002
      0.2980080887
      0.6343361633
     -0.6251980032
     -0.8100450821
      0.3933125462
     -0.0664525818
     -0.0831907315
      1.5315543470
      1.2348218530
     -0.2552811235
     -1.0276330736
      1.2813717855
      0.2410329194
     -0.4770960111
     -0.1517903387
      0.7670135431
      0.3312054618
     -1.6205554320
      0.1778078040
      0.5854692074
     -0.8820017843
     -0.4512548029
     -0.0062303122
      0.2678561302
     -0.5207948725
      0.7160066744
      0.2076046979
     -0.4439123665
     -1.2856580820
     -0.3378216811
     -0.0794306247
     -0.5856273057
     -0.0207004757
     -1.5125492974
      0.2408944212
     -0.3399739644
      0.0343006615
     -0.6035817262
      0.2781424073
     -0.5967666115
     -1.2498381112
     -0.6066687241
     -0.0149438621
      0.8619697531
      1.6734249207
     -0.9808789871
      0.6849526785
      0.4250230171
      1.0714228933
      1.5818514650
      1.6667093765
      0.9522403499
      2.0151710530
     -0.9978616857
     -0.9749692472
      1.5723727732
     -0.3558284820
     -1.1159899198
     -0.4402571000
      0.6838660152
     -0.0508543067
      0.5833240238
      0.0389619821
     -1.1936494571
     -0.0049830058
     -0.1815411952
      0.4889779586
     -0.2800418503
      0.6764892968
     -1.1063004287
     -0.0489821269
      0.1032030580
      0.9516911410
     -1.1209426157
     -0.6590806576
     -0.1902551280
     -0.0145355408
      0.9136263636
     -0.2775521865
     -0.1860964025
     -0.1029828008
      0.0926329962
     -0.3083505330
     -0.1851362361
     -0.6012939666
      0.2118785578
      0.2728622017
     -0.5040153808
     -0.2889219425
      0.7866756084
      0.0499632705
      0.8299815738
      0.2401778746
      0.5885687552
      0.0419209536
     -0.5535506679
     -0.2162895326
      0.2362441604
     -0.6972487606
     -0.2713581828
     -1.5077633721
     -0.3536123099
     -0.1839794611
     -0.2958678293
      0.2094131446
      0.5158064990
      0.1216304620
      0.4898856626
      0.3671962590
     -0.6484797555
      0.0294446747
      0.1990402099
     -0.3299472068
     -0.0191793918
      0.0840470797
     -1.4430518490
     -0.1896358488
      0.4044889764
     -0.2959832859
      0.3901116235
     -1.1830868797
     -0.3317008012
      0.1062812247
      0.5419475357
     -0.1842665281
      0.2670229429
     -0.1425807791
     -1.9586792810
     -1.6456521773
     -0.0120806975
      0.6329689884
     -1.2445428140
     -0.7963452283
      0.4859419249
     -0.2980089861
      0.2813007634
      1.1480165223
     -0.4707554668
     -0.3462126938
      0.2188427758
     -0.2179523009
     -0.9584868505
      0.0707447770
      0.2737811432
      0.0169752898
      0.9473842819
     -0.2699978364
      0.7048577385
     -0.2178896290
      0.2695814022
     -0.4424063503
      1.0511453174
     -0.6613686348
      0.4810346820
     -0.2771769417
     -0.3347196058
     -0.1439898597
      1.1641378407
      0.4261121351
     -0.0318930530
      0.7068373013
      0.4541159608
      0.1294466710
     -0.1353771128
      0.7800139805
     -0.8197381417
     -0.0913740248
      0.4585410617
     -1.2303750513
      0.0050608907
      1.1802588217
      1.4470577371
      0.0776180763
     -0.2827578467
     -0.2024854150
     -0.2344830786
      0.1118496399
     -0.0711773486
     -0.3509711532
     -0.0723510501
      0.9772180107
     -0.3963763048
     -0.0510686021
     -0.6455091513
      0.0435192946
     -0.0199797097
     -0.1937399594
      0.0625700193
      0.3394609695
     -0.0416675427
      0.6986267162
     -0.1460472848
     -0.1376972111
      0.6700428534
     -0.4398412520
     -0.1526336471
     -0.3360650557
      0.0697966935
     -0.1703938427
      0.4494306436
     -0.0415703683
     -1.1827104843
      0.0082715271
      0.1891247875
     -0.1805023050
      1.0119646521
     -0.1142719810
     -0.7284192418
      0.0249891041
      0.0330917057
     -1.7236182605
     -1.1750159141
     -0.1402818731
      0.0212925854
      0.2370225834
      0.4303731695
      0.2976977864
      0.1070999629
     -0.1511646436
     -0.5460748850
      0.0129101813
      0.7162046435
     -0.3929417757
     -0.4688690663
      0.2929985156
     -1.1472881431
     -0.2713785838
      0.7124044491
      0.6806468913
     -0.1021202677
     -0.4628005019
     -0.6606464232
      0.2454492701
      0.3548364546
      1.1487238711
     -0.6786710864
     -0.2660402840
     -0.0330201704
      0.6893710630
     -0.4330151744
     -0.4436231914
      1.3697439365
      0.2759972530
      0.1446689691
     -0.5919398208
     -1.4881001428
      0.3538231626
      0.7529355847
     -0.3936723587
      0.8608721128
     -1.9879989379
     -0.4152936174
      0.7174489863
     -0.9180557644
     -1.5531220028
      1.2428066381
      0.2283409859
     -0.3964300920
      0.1353635171
     -0.3646993401
      0.5547790938
     -0.6356507519
     -0.1574852869
      0.0610474310
      0.6408687403
     -1.0281936847
     -0.0763788934
      0.0942944487
     -0.2204422257
     -0.2432521429
      0.3931348407
     -0.2192353084
     -0.0035968699
      0.4647644553
     -0.0824693613
      0.1309583774
     -0.2035064030
      0.4794686084
     -0.0925562897
      0.6117374640
     -0.0001944950
      0.3085536403
     -0.6023726752
      1.1334424139
      0.3679439081
      0.6396483446
     -0.7216690028
     -0.4765680559
     -0.0712752098
      0.3542063393
     -0.5252607752
      0.3233602973
      0.6353445259
      0.3686966636
      0.2831831381
      0.0938069335
     -0.0326655795
      0.6628192469
      0.2811765326
     -0.4680638227
      0.0627930651
     -0.9428569655
     -0.1886553180
     -0.6453362844
     -0.1471466086
     -0.6557052301
     -0.1153625401
      0.1572472917
     -0.3499196416
      0.6849222143
     -0.3688256506
     -0.3642033538
      0.5906764107
      0.2960759461
     -0.0985538400
     -0.7472635303
      0.0559628443
      1.1497692915
      0.7228913200
      0.2582811826
      0.3763009989
     -0.1475905487
      0.5992799609
     -0.1123000202
      0.2507568997
     -0.0392909239
     -0.1522290555
      0.4276920402
     -0.1777062092
     -0.6232606033
      0.7877404934
     -1.2294087291
     -0.4392505868
     -0.9119424674
      0.1179253356
     -0.7977090567
     -1.0545926367
     -0.5656568536
     -0.2938638758
     -0.7321883632
     -1.4369813435
      2.0973915338
      0.6702444693
      1.2299743069
      1.0660643275
     -1.0139564741
     -1.0509730684
     -0.0712164576
      0.5206044080
      0.0662062618
     -0.2341421915
      0.5086050106
     -0.5002532509
     -0.9607070613
     -0.4471399343
     -0.2630083419
      0.3650414649
     -0.4381780044
      0.0309833909
     -0.9571648244
     -0.0261762665
      0.0753790842
     -0.5028647364
     -0.4014774554
     -0.7895483922
      0.2119459823
      0.6546799331
     -1.5255477485
     -0.9661299444
     -1.0009666662
      0.1303123249
     -1.0976176451
     -0.3780736424
      0.3032553032
      0.6832058171
     -1.5891251756
      0.4613853924
     -0.6062398577
     -0.1774802062
     -0.3543221917
      0.7772761330
      0.3368346412
      0.3685456876
      1.4561396980
      0.9218293572
      1.0270173260
      1.3850476204
      1.0185916545
     -0.0994957725
      1.5919801433
      0.2289176351
      0.6694511232
      0.9278967080
      0.6445638921
      0.2549346601
     -0.3613380580
     -0.0249263052
      0.1216415350
      0.6562691213
      0.3341106803
      2.0643898027
      0.4822900140
     -1.2032750937
     -0.0020291711
      0.2858485712
     -0.3211396492
      0.8966881373
     -1.1151079810
      0.4522470130
     -1.0482817155
      0.5196511681
     -1.4728957147
     -0.6018870829
      1.0790130757
      1.4792240089
     -1.5251176833
     -0.1142613279
     -0.7297138593
      0.6389825919
     -1.1235707812
      2.9267484022
      0.1144584964
     -0.6075637980
     -0.7723019014
     -1.5210841304
     -0.9117144977
      0.7505345863
     -1.3523732041
      0.2990438787
      0.8787537883
     -1.4671072207
     -0.6439990287
     -0.5702208066
     -0.3399996755
      0.4178009718
     -0.3062738173
     -1.4140297573
     -0.2919339129
     -0.1156630536
     -0.9406997424
     -1.6154723980
      0.2330668105
      2.0212993739
      0.5579813661
      0.5519607977
     -2.0457437819
     -1.4165865301
     -1.3898910321
     -0.8530958591
      0.0665162587
     -0.3592842456
     -1.5391906828
     -1.7942955865
     -1.7033015528
      0.0653416195
     -0.1832773815
     -0.3668882485
     -0.1104803467
      0.1425694793
      0.0369448819
      0.0792845442
      0.0965760500
     -0.0783100666
      0.0791328562
     -0.5982074317
