     -0.6592839766
      0.9699097722
     -0.3436727843
     -1.6558473186
     -1.2516563147
     -1.1058063646
      1.8325465595
      1.4456393411
     -0.1660397399
      2.7004561452
      0.4757067718
     -0.9112931483
      0.1057450689
      0.2234881079
     -0.0389747526
     -0.2347858299
     -0.6930132966
     -0.4178196719
     -0.2496375719
     -0.7267511581
     -0.0067674331
     -0.9321174719
      0.0089672542
      1.0976293633
      1.2654449046
     -0.8612354768
      0.2408699180
     -0.0186602042
     -0.1395558461
     -0.7689521431
     -0.4842553354
      0.6222975395
     -0.9273508218
      0.7225078981
     -1.8774961486
      0.4537687792
     -0.4773128031
     -0.3919900659
      0.3338453480
     -0.3390738712
      0.8535544380
      0.4828805977
      0.9344213560
      1.3639300414
      1.4989396935
      0.6416945769
      1.7253746019
      1.0122658554
     -0.9144401723
      2.2663219463
      0.3575481567
     -2.3870972105
     -0.4397991622
      2.2951718174
      1.1015630980
     -0.0615257614
      0.2800878110
      1.1477516517
      0.1758201008
     -0.3057522718
     -0.4463925366
     -0.5023094867
      1.2797547423
     -0.7804468803
     -0.0141170664
     -0.5249513632
      0.5480571555
     -0.3680209653
      0.1410770092
      0.3583528337
      0.8037764601
      0.8418765765
      0.5417079923
     -0.3655331360
     -0.2646841865
      3.5114884326
     -0.7218124551
     -0.4432840187
      1.4356982234
     -0.0147969154
      1.2573442788
     -1.3002170589
      1.0083919060
     -1.1222879615
      2.7378848594
     -1.4192747788
      0.4992591103
      0.8192406905
     -0.3141120115
      1.1185593319
     -2.2503410239
     -0.2209643405
      0.2805474399
     -1.6835263780
     -0.3099672871
      0.9563761635
     -1.8850585054
      0.5666354334
      0.7313665701
     -2.0141795964
     -0.9805119609
     -1.7614064689
     -0.2280944505
     -2.0089505656
     -0.5371210572
      0.2958416714
     -1.1645198455
      0.6928981745
     -1.0176324051
      1.2582889344
      0.8572021607
      0.0449523994
     -0.5387001660
     -0.4608347553
      0.0428181108
      0.3619952249
      0.9401997716
      0.4299803696
      0.0770262117
     -0.0371309548
      0.1790588646
     -0.0364980087
      0.3732272441
      0.1766119812
      0.9055617988
      1.0476662247
     -0.0306485709
      0.2735974200
     -1.3303398304
      0.6814985580
      0.0941366285
      1.4007318076
      0.6545035036
     -0.2960036826
     -1.2041444226
     -1.3879900876
      2.4816008289
     -0.6267788332
     -1.4129503559
      0.3138633058
     -1.1622292169
      0.6619593278
      0.5087541268
      0.1983864046
     -0.4179420873
      0.2055490233
     -1.0775785340
     -1.0001814521
      1.4272728031
     -2.6081353934
      0.3738566313
     -0.1747746456
      0.4198690655
      1.2683040522
      2.0171556335
     -0.2396385077
      0.7925676230
     -0.1519911125
     -1.1769664844
      1.0038333060
      1.5045026518
     -0.1692460347
      0.2751133691
      0.2008432736
     -0.8044537917
     -0.4311950352
      1.8994596700
     -0.3330945606
     -0.6969867426
     -0.2642494405
     -0.8152536712
     -0.5008975214
      0.8111918036
     -0.1419180008
     -0.5098512541
     -0.7351407249
      0.7865215099
     -2.0422786671
      1.4346097182
     -0.8365422372
     -0.3648323985
      2.3411441216
     -0.7024884095
     -1.0920937619
      0.8224637155
      0.3220963374
     -0.8222120280
      0.7134415641
      0.3837743454
     -0.0934136314
      0.5592396849
      0.4880746651
      0.4522160279
     -0.3744586075
     -1.2792631489
     -0.6373745906
      0.2640552749
     -0.1456828540
     -0.1182480492
     -0.6510080252
     -0.8545734683
     -0.2182287871
     -0.5027653602
     -0.1703767764
      0.6250894544
      0.3086012435
     -0.7867595405
      0.6392346529
      0.4236539006
      1.2058793233
     -0.7795742839
      1.3826864422
      0.1638688824
      0.0365970503
      0.3364361685
     -0.0307238768
     -0.4854136327
      0.0624704808
     -0.5216082185
      0.3944913586
      1.4718234632
     -2.3684522238
     -0.8490251040
     -0.4260201358
     -0.8103314494
      0.5357329548
     -1.1435458513
     -0.9533719809
      0.9159358549
     -1.0149624581
     -0.4864619490
     -0.3920929178
     -0.3009420617
     -0.7656817291
      0.5531935729
     -0.3184098086
     -1.7014030045
      0.4616836691
     -0.3715140174
      0.1424520539
     -0.3514723835
      1.2182230409
     -0.5961152378
     -0.0830156605
     -0.5935708381
      1.1174651652
     -0.8261455108
     -0.4196665503
     -0.4523246674
      0.4803372671
     -0.3462538816
     -0.3992994023
      0.4928284284
      0.1837078188
     -0.2227839452
     -1.6986525712
     -1.0894263826
     -0.2204338747
     -0.9538532496
      0.3390252857
     -1.0033835986
      0.2563763254
     -0.4721231107
      0.0421501523
     -1.4919025849
      0.6017982383
      1.1951128930
     -1.3368190278
     -1.0436529313
     -0.8287548946
      0.4074736297
     -0.3021322580
      0.5838192244
     -0.5023450281
      0.0651801627
     -0.5682909358
      0.5569017452
     -0.0732036428
     -0.5988895086
      0.0507893736
     -1.0759757885
     -0.7338352677
      1.0195597115
     -0.7581471415
     -0.0815028849
      1.3034395683
     -0.3456425706
     -0.6233199304
      0.1261334293
     -0.0092618352
     -0.5563212330
      0.5160496626
     -2.2023450882
      0.1885530851
      0.0109049732
     -0.1621122642
     -0.1833391986
      0.6137997170
     -0.8550688264
     -0.7245940691
     -0.0614011830
      0.7810320083
      0.0885018292
      0.6937477105
     -1.4616008158
     -1.5302745270
      0.9365922438
     -1.3309159603
     -1.7050694601
      0.4857594503
      0.3278714806
      0.5150322850
     -0.7758828677
      1.3847436273
     -0.0669582058
     -0.5662412701
     -1.1141659398
      1.4264580426
     -1.7737522732
     -0.0231962421
      0.6377820246
      0.6920075824
      0.8603293477
      1.1925553523
     -0.1844240836
      0.1251299018
     -0.1046903926
      0.2792995697
     -0.3389386727
      0.0873572118
     -0.5340124999
     -0.6866775667
     -0.7941730317
     -0.3336229693
      0.9949926540
     -0.2523306550
     -0.8141332410
     -0.2041607452
      1.0565206846
     -0.9562540158
      0.6966024848
      0.1192833081
     -0.9128951484
      1.2593871922
     -0.0090329549
     -0.4619044375
     -1.0986010533
     -0.5256750971
     -0.5584355076
      0.5590405529
      0.3732967729
      0.5487153502
     -1.7266963895
     -0.3104118876
     -0.5797822944
      1.1452153539
     -0.8723279750
      0.4838405410
      0.0917992325
     -0.0903535056
     -1.3364017800
      0.1403467276
      1.6688560560
     -0.0401241635
     -0.2340422769
     -0.9449386409
      0.7486053728
      1.3413121606
     -1.4883956395
     -0.7235470459
     -0.4825749431
      0.8333063389
     -0.0419973225
      0.6232930841
     -0.0531717730
      0.0832949354
      0.2179862678
     -0.5568214066
      0.1517072398
      0.0624372978
      0.1788296379
      0.8617506032
      0.7303762108
      0.8145129692
      0.3871241100
     -1.0427020400
     -0.1143453003
      2.2866416437
      0.2633409809
     -0.4120703634
      0.1732741533
      0.5703822111
     -0.6068564262
      0.1309010271
      1.0995287309
      0.4534761116
      0.2070101291
      0.8844068294
      0.5909889706
      0.5542270056
     -0.4377110782
     -0.8916859926
      0.2338798702
     -0.4302737699
      0.3048092128
      0.3137682107
     -0.6375968253
      0.4560126767
     -0.5652343869
      0.7522130094
      2.1981909193
      0.2520113877
      1.9193886969
      1.2648996465
      0.3399109089
     -1.4816513348
     -2.7393953317
      0.2905526487
      3.2613306520
     -0.1428711646
      0.1904752498
     -0.0226083947
     -0.3193155414
      0.5750343778
     -0.0200647479
      0.0123285995
      0.2358744838
      0.0963752403
      0.5102717168
     -0.6478654100
     -0.0236484047
      1.7420071597
      1.0265802283
     -0.1679385754
      1.4279287898
      1.2645838985
      0.5842208259
     -0.2851040085
     -0.5162381088
      0.8395754352
      0.2772868409
     -0.1138698598
      0.0445141234
      0.1942651449
     -0.4595792625
      0.1521298701
      0.5092421582
     -0.0707295084
      0.1382674230
      0.2309527582
      1.3161653196
      0.6916899516
     -0.7695308006
      0.4815004854
      0.0811267273
     -0.0112340520
      1.3870012072
      1.3730512310
      1.3608792455
      0.0284578420
     -0.4150017420
      0.6346823208
     -0.1175972159
      0.1806461761
     -0.3018278537
      0.3279347636
     -0.6583861656
      0.5044814930
     -0.4367240347
      0.2708277249
      1.4399856669
     -0.7289811776
     -0.6944988116
      0.2595104874
      1.0060357957
      1.0129221666
      0.4692865979
      0.2872895377
      0.1075237117
     -0.3063883764
      1.6401563113
      0.8672670717
      0.6598630964
     -0.6662800171
     -1.9217487636
     -0.2729516739
     -0.2010281501
     -0.2786131115
      0.9685040347
     -0.2109262586
     -0.6912409789
      0.6297619572
     -0.4306551899
     -1.5674977062
     -0.3677104364
     -2.0878917614
     -0.0299515927
      1.5134788746
      0.6295004202
     -1.0198944985
     -0.1836463583
     -1.1535240065
      0.6779491306
     -2.1418079126
      0.5390230181
     -0.2611598176
      0.0884193271
     -1.0425204145
      0.6931258676
      0.1938319066
     -0.1632118420
     -1.3816024907
     -0.0289090221
     -1.1180996993
      0.9427087005
      0.1286454149
      0.7159394614
     -0.0168401169
      0.5876835432
      1.3441839481
      0.3442003310
      0.5310212185
      0.6317866023
      0.9568990387
     -0.4541048309
      0.1906887209
      0.7007590147
      0.1373363586
     -0.4690660973
      0.3638416315
     -0.9082466202
     -0.4187342409
      1.3865888126
     -0.8401894352
      0.5829115972
      0.3434911736
      0.7515190089
      0.3113012081
      0.6257386024
     -0.4935430132
     -0.3815708376
      0.3118387934
      1.1659653013
      0.5889193292
     -0.0372783903
      0.0488373148
      0.7667927149
     -0.5347796600
      0.2013921399
     -0.0493128632
      0.8725305554
      1.0243965273
     -1.0464099207
     -0.5284918615
      0.8200281455
     -0.0045500769
      0.1846167319
     -0.5966588546
      1.9908304514
      0.4428715290
      0.3141593745
     -1.1558562344
      0.0410734020
     -0.0897767130
     -0.1624916703
      0.9912804707
      0.8211165981
     -1.8530712327
      0.1489753470
      0.4619152970
     -0.4973860959
     -1.5146997369
     -1.6712939893
     -1.3405116957
      0.8127704414
      0.4447665425
      1.9240282413
      1.0202901648
     -2.1334782110
      0.5359728891
      0.5878705246
     -1.4077929458
     -0.0727934291
      1.1863703653
     -1.0515418752
     -0.7293242635
     -1.4115348369
      0.6179513252
     -1.1560277964
     -1.3434924387
      0.5507444280
      0.1547966845
      0.4818268522
     -0.4579667365
     -0.6439228429
     -0.1071014870
     -1.1157044206
      1.5030045616
     -1.2600097601
      0.4270875486
     -1.2207387335
     -0.6060125436
     -2.6316379180
     -0.4932908305
     -1.2857178127
      0.2919955502
     -0.1299808673
     -0.0192697978
      0.2654352088
     -0.3216934122
      0.2575425228
     -0.7054637388
     -0.6237643917
     -0.3567813828
      0.5252802523
     -1.0098966973
     -0.4674456398
     -0.3502334799
      1.2262143404
      0.2232533220
      1.7783368044
      0.8499891951
     -0.5730541720
     -1.3938858926
      0.6561997217
     -1.0096644333
     -0.7425886214
     -0.2193684670
     -0.2692415423
     -0.6300300908
     -0.3481655854
      1.3591663083
      0.0844746838
     -0.6744657370
     -0.7918725370
     -0.0774071731
      0.9776480212
     -0.3517679891
     -0.0517712586
     -0.1029075084
      1.1166132655
      0.8262715038
      2.0589804453
      0.5420522177
      0.5428389188
     -0.6475177218
     -0.1588443920
      0.0110368989
     -0.4935732830
      0.1710821818
      1.4051430312
      0.5489945199
      0.2871711675
      0.4361146343
     -0.3891181941
     -0.0781022796
      1.1265541495
     -0.7128855761
      0.7538205642
      0.1783656381
     -0.5129337881
      0.6165360933
      0.4528260189
     -0.9583926726
     -1.4738823278
     -0.0486226640
      0.1227433899
     -0.7860118367
     -0.1725758260
     -0.7301481865
     -0.3367334987
     -0.3840145257
      0.3936314883
      1.3038131061
     -0.5854791628
     -1.5277424615
     -1.7573439531
      0.0954147031
      0.4842524415
     -2.1513250085
     -0.2840951636
     -0.2212477932
     -1.4682405670
      0.5734021453
     -0.6117069842
     -1.2753935934
     -1.6915072782
      1.7110502204
     -0.5354429747
     -1.2291241093
      0.9084280938
      0.5245199459
     -1.7840137667
      1.3834761106
      0.0835480323
     -0.4935713759
     -0.3336598966
     -0.5390321523
      1.2628458014
     -0.1400629049
      0.0132295634
      0.0267613586
      0.0066714608
      0.0831082057
     -0.0325852165
      0.0570956688
      0.0286464237
      0.0748638088
      0.0150673823
      0.1201744403
      0.0117741125
