      0.3658195721
      0.3966201291
      0.2067352554
      1.0350551669
      0.5772482563
      0.4622812726
     -0.0684840416
      0.4037758164
     -0.0767292759
      0.1158005600
      0.3282430965
     -0.3430545129
     -0.0935473138
     -0.0946114865
     -0.0814428861
     -0.9061870530
     -0.1692334347
     -0.0550335541
     -0.3289928713
      0.2101677136
     -0.0439783772
      0.1046009047
     -0.5419584296
      0.2402335495
     -0.2168576760
     -0.8604540267
     -0.4716477840
      0.3562999254
      0.0930092763
     -0.1840027201
      0.0270072844
     -0.1501304560
      0.6166434775
      0.0579421910
      0.2297905305
      0.4665765872
      0.5358461004
      0.0282144800
     -0.2985743090
      0.3108323455
      0.3408471576
      0.1421484493
      0.1875361160
      0.0355691943
      0.1519074013
      0.0716387930
      0.2284573189
      0.9540191870
      0.1782890706
     -0.1095335702
     -0.7069799890
     -0.8135311220
      1.0031154113
     -2.2214960121
     -0.7474681087
     -0.0136399069
      0.4519484232
     -1.0280974605
     -0.5111944305
     -0.3553449529
      1.4805653936
      1.4731475747
     -0.8866082286
      1.0195282553
     -1.0906181114
      1.5013931590
     -1.3333667851
      0.1484059112
      0.0176371396
      0.5812334349
      0.7551284573
      0.3715301101
      0.3932085132
     -1.8666683658
     -0.4442682646
     -0.5112126659
      0.4383866376
     -1.3210052998
      0.2927300781
     -0.0668722060
     -0.0790123459
      0.4103918777
     -0.4545970561
     -0.7420210068
     -0.2222977625
     -0.2565059744
     -0.1083328145
      1.3728191811
      0.2967704480
     -0.3340530772
     -0.1253350523
     -0.4127219481
      0.0247669976
     -0.9777966560
      0.0601588108
      0.3672955302
      1.0360937628
     -1.3059702178
      0.0410841236
     -1.1391684603
      2.0534716507
      0.6803294053
      0.7995567238
      1.4237783627
     -0.0835121798
     -0.3811967169
     -0.5132687266
     -0.4692920515
     -0.2103944591
      0.9701796128
      0.1061734106
      0.0254105703
     -0.7810301375
     -2.5465618261
      0.2583042868
     -0.0206138585
      1.2487877530
     -0.1939939928
     -0.6498417620
     -1.2223318461
     -0.2476597493
      0.4134244653
     -1.4972926974
     -1.6013421234
     -0.3798456714
     -0.0916691425
      1.1273711375
      0.5130739688
      0.2350159194
      0.6419194010
      0.1746002853
      1.3008735750
      0.3736543367
     -2.5904792931
     -0.2282009624
      0.8713594516
      0.7900148763
     -0.5817927518
     -0.8439417170
      0.7820486776
      0.8666087829
      1.2672718091
      0.5404373501
      0.3122837795
     -0.3758692647
     -0.1576952871
     -0.1126579735
     -0.0429813245
      0.0469363104
     -0.6754488451
      1.7440001626
     -0.8440592461
      0.5881997914
     -0.4199037911
     -1.8517189051
      1.4718462604
     -0.0555781691
     -1.1962116315
     -0.0644324506
      0.8161745062
      0.2103478236
     -0.8803927641
      0.1770908352
      2.0622510778
      0.8344945051
      0.7194725371
      0.7251125766
      2.1061102146
      0.3505287522
      0.5298276046
      1.4402458437
      0.4338533087
     -0.4144407683
      1.5750536706
      1.3591643852
     -1.4261333045
     -0.7242561621
      1.0197242912
      0.3484084988
      0.3444047591
     -3.0243780210
      1.3789484848
     -1.5949157792
      2.4842821925
      2.6328707762
     -1.0127576175
      1.3807151522
      0.9399810830
      0.0378840484
     -1.4925751836
     -0.2700093627
      0.0527086456
     -0.3024103261
     -1.2078139375
     -0.7480787771
      0.1484579205
     -1.6137820380
     -1.8305051405
     -0.2434177650
     -0.5658038396
     -0.4638191395
     -0.4344092193
     -0.2940343721
     -0.7760533077
     -1.9588350526
      0.3492644074
      0.4032231484
     -0.0451674088
     -0.3934274840
     -0.2535162443
     -1.1993664462
     -0.0284430998
      2.2318013663
     -0.3355873629
      0.7596640983
     -0.6823485180
     -1.8728398291
     -1.0238991918
     -5.1527877733
      0.6194619440
     -3.0706032811
     -0.4956712130
     -2.1878086184
     -0.0547962891
      0.7428082385
      1.3615719923
      4.2107421791
      3.4085313316
      2.8620470371
     -2.3230385812
     -1.4232312700
     -0.1872479822
     -3.4214547871
      0.4852945612
     -3.9608378215
     -1.6495207638
      1.7695015133
      0.2375026763
      1.0888797205
      1.1116922592
      0.8229951887
      0.1812928713
     -0.0228045370
      1.0302518862
      0.1870520622
     -0.2213214835
     -0.0100191007
      0.8362383566
      0.5509803642
     -0.0668128009
     -0.0497249421
      0.7185986221
     -0.7542185127
      2.4928912684
     -0.3678565760
      0.8588349570
      0.2828173602
      0.8121445957
     -0.2086910905
      0.2136779354
      1.6004862831
     -0.5752600545
      1.3810646653
      0.1600461871
     -0.0520845687
     -1.2627290084
     -1.0925056483
     -2.8479350803
     -1.5151724101
      0.9734233044
      4.1067798677
      0.8260216469
      2.0462102897
     -1.3468170822
      3.7858079401
      1.6079117601
     -1.9779966044
      0.9344178399
     -0.0831235366
      1.4861401382
     -0.2356481650
     -0.2175125105
      0.0903283707
     -0.4100153186
     -0.1031173497
      0.0845688118
     -0.4213421293
     -0.3151414964
      0.1633948637
      1.4402209472
     -1.3316284976
     -0.5203303178
     -0.1793443980
     -0.9914832786
     -0.2177114759
     -0.3952723628
     -0.4170179251
     -1.4477420367
     -0.1948468454
     -0.4644055972
      0.1817982114
     -0.5445485553
      0.5662421032
     -0.2510771657
      1.2838040321
      0.2642423465
     -1.1999038663
     -0.3689655355
      0.0873755626
     -0.5952855630
     -0.3359544297
     -0.8138250753
      0.6841053131
      0.1892100668
      0.1018811831
      0.5522069958
      0.4289451518
     -2.1052262345
     -0.4105867262
      0.4355457854
      0.1485421489
     -1.6491727841
      1.5099089943
      0.6905414956
     -0.8546765433
     -2.1711341788
      1.1985644463
      1.4215985167
     -2.0285106832
      1.4177959814
      0.1048178218
      0.1369830782
      0.0334524921
      1.8360012091
     -0.6912463468
     -0.2615987494
      0.0217828429
      0.9055942781
      0.5799738964
     -0.5519410102
     -1.5369722576
      0.5344183765
     -0.4443021742
     -1.1756581219
     -0.5320781502
      0.1319447849
     -1.8116632450
     -2.1668862849
     -0.3707747995
      0.8881672646
      4.4754719807
     -0.0988681519
     -1.6454574529
     -0.2086601918
     -0.3546748722
      1.9935250276
      1.9852499400
      1.0614127019
      5.2964704901
      2.1937173852
     -4.0371575584
      0.9216260636
      1.2740469869
      0.4033587622
     -4.1218604460
     -3.5165802926
     -3.1951608921
     -1.3769432650
     -4.1005577117
      0.0247159628
     -3.4651827352
      1.5035913977
      2.7919656580
     -0.2296101220
      6.6659175147
      2.0236930298
      1.2754871641
     -1.8961246740
      0.3882055418
     -5.3953363755
     -0.8730110200
      0.2338877182
     -0.6435729132
     -0.8673137260
      0.1534825267
     -0.0508668151
     -0.0612224526
      0.3522079695
      0.5699018052
     -0.6806663373
      0.7571189985
     -0.3797214882
      0.6788234188
      0.2915081813
      0.1563153364
      0.3573938962
      0.0056237220
      0.5019340509
      0.6445299012
     -0.1509575961
      0.0017209787
      0.3260511416
     -0.3195697024
      0.2974941178
      0.6080810689
      0.8231890378
      0.2192375151
      0.2701514199
      0.6006197154
      0.2173957128
     -1.5087967274
     -0.4645734522
     -1.2509011062
      0.3283560629
     -2.5677320958
     -0.4605522088
     -1.2988330532
     -2.5407957406
      1.3314166682
     -1.1686043626
      0.0330714511
      0.0971224405
      0.0054389029
     -0.1225767625
     -0.0187300969
      0.1870302024
      0.2069602005
      0.0894199621
     -0.2172341693
      0.0239355787
      1.0957921574
      1.2038866967
      0.3393457157
     -0.6209694355
     -1.2214095677
      0.1560868540
      0.5370136023
      2.3209561185
     -0.1795884548
      0.8578246005
      0.7048803067
      0.8046354086
     -0.1631801579
      0.4842802511
     -0.5368720463
     -0.9307441403
     -0.0432097001
     -0.1180222794
     -0.3200049113
      0.5765855514
     -0.1848319128
     -0.4852687407
      0.5069014026
      0.6057823254
      0.3823326063
      0.6166688684
      0.2328427907
      1.0639664744
     -0.7637829101
      0.1951033736
     -0.8743862018
      0.4327977059
     -0.1537438877
      0.5272752184
      0.6114300167
      0.9098531846
      0.0455216352
      0.2565496740
      0.2716962226
      0.1249560074
      0.3510950505
      0.0216548075
     -0.0125882874
     -0.6667358127
      0.5073983001
      0.3075045434
      0.0821573847
     -1.6275811555
     -0.3833281590
      0.7457338955
      0.0194150083
     -0.5351220610
      0.1342787936
     -0.7110047631
     -0.8334139131
      0.5956154031
      0.1628651983
      0.0960237610
      0.5753945769
      0.0203228261
     -0.1110045544
     -0.1378017567
     -0.8068957950
     -0.4054761212
     -0.4129722915
     -0.1402855041
      0.0828784712
      0.3355743930
      1.3318938887
      0.0650986068
      1.5601930299
      0.4562747151
      0.6460052752
      2.8913569732
     -0.0713013586
     -0.3841412676
     -0.1335176440
     -0.1566444444
     -0.6453990575
      0.5166350004
      1.1343632251
      0.6678254312
      0.4262786786
      0.7571663442
      1.7787913675
      0.4894850074
      0.1759281116
      0.5781432619
      0.7485396239
     -0.4658371777
      0.0421464940
      0.0969876260
     -0.1005807261
      0.0549234150
     -0.2554164763
     -0.3065403368
     -0.1406951902
     -0.4278635210
     -0.2012333166
     -0.2192135673
      1.2329814658
     -1.3009852585
      0.9000339902
      2.4900538431
      1.4748470255
      0.9419161455
      0.7643270333
      1.1488060169
     -0.2665199941
      0.3349345761
     -1.3953178912
      0.1903770238
     -0.8466515047
     -1.6300854921
      0.2995818830
      1.3067075949
      0.0097955004
      1.7035202425
      1.0971749365
      0.3030838549
     -3.0315616153
     -1.5628525674
     -0.4889405567
     -0.7875332240
     -3.8911149030
     -1.2094724924
      0.9876490107
     -2.6522171105
     -0.6124946971
     -1.0757839148
      0.0017350179
      0.1186207547
     -0.1531066897
      0.0001164109
      0.2105091482
     -0.2275024043
      0.4713107349
     -0.7785907953
      0.1514169732
     -0.4041086264
      0.7378198493
      0.3356381496
      0.3108840640
      0.4107279747
      0.0319957770
      0.0792930003
      0.1061093799
      0.0278897620
     -0.3604979988
      0.0541529258
     -0.6584568799
      0.3552535632
      0.2788556084
     -0.2075364350
     -0.4411818592
      0.0857777853
      0.0246104334
     -1.7404220750
     -0.0045726205
      0.2992809311
     -0.5032306371
     -0.3761894548
     -0.3168631116
      0.3452153445
     -0.3981573822
      0.1207171904
      0.7784609196
      1.5564782697
     -0.1111820266
      0.0230083067
      0.1137595471
      1.7144360061
     -0.6009231768
     -0.6150658554
      0.4278441159
      0.1813454027
     -0.5234433930
     -1.0834049520
      0.9421529515
     -0.4509231003
     -0.2928915137
     -0.4845211680
     -0.4241573171
      0.2500789040
      1.1706217193
     -1.0004535643
     -0.5709446849
      0.7268394658
     -0.1305769823
     -0.5251527010
     -1.0043900583
      0.1104977895
      0.2125205365
      1.2004801478
     -0.0787897567
     -1.3471404742
     -1.7918991314
     -0.5463894843
     -2.4572046844
     -0.9986375087
      1.4520743914
     -0.9916211257
     -0.5673354625
     -0.7019786571
      2.7425989079
      1.3792018045
      2.6047839678
      0.1572629977
      3.2791117371
     -1.4204208759
      0.9214751004
     -1.4064096124
     -1.5545806950
     -0.1858856859
     -4.5444850338
     -0.1885980352
      0.1745696782
      3.6037669192
     -0.4002420204
      3.3905590925
      0.1942517106
     -0.2464309417
      0.2658668283
     -0.0571836470
     -0.2658694828
      0.0565472205
      0.0418048505
     -0.5826376900
     -0.1645183898
      0.1677158220
     -1.9701710512
     -0.5634663738
     -0.7369718790
     -0.3787850559
      0.2111313773
     -0.0412408278
     -0.1973080446
     -1.1284646004
     -0.9263628922
     -0.2416302800
      0.0365556834
     -0.5240421743
      0.4985130524
      0.6734421885
     -0.3408335202
     -0.5045368145
      0.1063622516
     -0.0813806301
     -0.5212715649
     -0.0068666047
      2.4544409288
      1.2656102560
      1.2032284331
     -0.6209069508
      2.8893283531
      0.5087908994
      0.9022496858
      2.2964467732
     -1.1898897904
      1.8698626959
      0.1381594220
      0.0422201650
     -0.1550950685
      0.3375238268
      0.0921131644
     -0.4263095828
     -0.7438114751
     -0.7070148276
     -0.2183338794
      0.1898015643
     -0.4763628223
     -0.6668628225
      0.1976318503
      0.9599610488
      0.3629076950
      1.2459510725
     -0.1046999310
     -0.8835823213
      0.2578965764
     -0.4290624870
      0.8056960916
      0.6514064818
     -0.3061074612
      0.0509767391
      0.3191288707
     -0.8085503054
     -0.2409684497
      0.0235202028
      0.2139077798
     -0.2119215137
      0.1806347777
      0.1990910457
     -0.3291770918
      0.1249339451
     -0.2336255913
     -0.8326313725
     -0.5942519911
      1.0457702971
      0.4092635753
     -0.9024476275
     -0.2311553309
      0.0415174879
     -0.2493986539
      0.6493036134
      0.3728514237
     -0.6228753504
     -0.5273848458
      0.6007229535
     -0.3464097504
     -0.1618443963
      0.4888401533
      0.3785320269
     -0.1517575524
      1.8136590708
     -0.4200071108
      0.6480351750
      0.0750472100
     -1.3370426512
      0.1524895232
     -1.1950013611
      0.4210725489
     -0.6200060914
     -0.7764901830
      0.7963540710
      0.1009448555
     -0.6311034997
     -0.5851212646
      0.3485774763
      0.0049568931
      0.1695507405
     -0.2387200739
     -0.2151884721
      0.5402736755
     -0.0935179905
      1.0535278007
      1.4708966708
      0.9459752653
     -1.4706983662
     -0.1034429179
      1.1650814607
     -0.1269942957
      0.4794888835
      1.4241504121
     -0.0004070641
      1.3376945373
     -0.7786545086
      1.1622657804
     -0.1864554421
     -0.4601790000
     -0.6066557118
      2.2508497018
     -0.2192908616
      0.3313692888
      0.4763053287
      1.6273592184
      0.2307136529
     -0.0205814036
     -0.9821265409
      0.1865559475
     -1.1150235528
     -1.7019122657
      0.3408843120
      0.3756557066
      0.0170201643
     -0.4763038501
      0.9401694356
      0.0798836587
     -0.4782146602
     -0.2662428919
     -0.5702158984
     -1.0584895151
      0.0006373793
     -0.4919474379
      0.4049756588
      0.4787376312
      0.5920020543
      0.6933076111
      1.1773918076
     -0.0911663576
      1.3177525286
      1.6154030560
     -1.1566581757
     -0.9905179219
      0.5221696157
     -0.2367262991
      0.4823566854
     -1.9661141213
     -0.3443330184
      0.1260254689
     -0.2945089510
     -0.0021678269
     -0.7432761675
      0.5056919866
     -0.8614659414
     -0.8046467513
     -0.0196826373
      0.7711293336
     -0.0954824839
      1.8079149501
      0.6720929493
     -0.5048700782
     -2.0973193480
      0.3572405158
     -0.5641430102
      1.1657045544
     -1.2601510990
      3.1010016721
      0.9213119618
      0.9502832836
     -0.5723231031
     -1.5108041226
      3.1107466052
      0.2341962474
     -0.9594619452
      0.9997370427
      1.0990825608
      0.5290401698
     -0.4979005354
      0.7979779014
     -1.0621129101
     -2.8781122183
      1.2586299492
     -0.1150044713
     -1.1929937763
     -1.2772128325
      1.1819401610
     -1.0914583338
     -0.9362378494
      1.5295284267
     -1.1191988413
      0.0149825554
      0.0166152856
      0.0688207337
      0.0786263867
     -0.0380224582
     -0.0287815980
      0.0138325308
      0.0378498187
     -0.0321972369
      0.0647070813
      0.0900702310
