      0.1505210583
     -0.0375430989
     -0.0711278366
     -0.0582382239
     -0.3231912898
      0.7257666513
      0.1004678739
     -0.0803139813
      0.9209376343
      1.1583784327
     -0.5944498948
      0.0793118793
      0.0822724802
      0.1153156737
      0.5337686018
     -0.5317519046
      0.1905186102
      0.5730377275
     -0.6590839518
     -0.3948211438
      0.3140908616
      0.2265444246
     -0.1269445064
      0.4568833475
      0.2281862344
     -0.2204847879
     -0.0964156819
     -0.0759310326
     -0.4329263558
     -0.5926075630
     -0.0876408397
     -0.2586817013
     -0.3123875079
      0.2414122603
      0.7532644648
      0.4551871214
      0.1271791242
      0.1401823237
     -0.5865800318
     -0.7996448666
     -0.0613936332
     -0.1549185565
     -0.4780117289
     -0.0966652666
     -0.7539248159
      0.4588804162
      0.2389388888
     -0.0543026291
     -0.5006879668
      0.6339006586
      2.0542421401
      0.1263400990
      0.0019421164
     -0.5514980365
      0.2703962511
      0.0964550478
     -0.0712888647
     -0.3256606699
      0.2261323843
     -2.4950595874
     -0.4501291526
     -0.8340020272
      0.0489578127
     -0.4384465662
     -0.2775055767
     -1.4047652247
      0.0425298627
     -0.4015351120
      0.6484332403
      0.1196962683
     -1.1504969827
     -0.2104046304
      0.6969247359
     -1.1852950705
     -0.9400115689
     -0.4906653929
     -0.7592861092
      0.6009559913
     -0.5921092305
     -0.2284688373
     -0.4610580520
      0.4348988508
      0.3736400787
     -0.6480251820
     -1.6686044280
     -0.8196254691
     -0.2502049948
      0.3627927516
      0.6510927863
      1.2833448015
      0.0922936278
      0.4963989072
      0.5252022106
      0.4467482566
     -0.1600052937
      0.6713442052
     -0.2489770845
     -0.5486681217
      1.0524764305
      1.2322137015
     -1.2828368750
      0.3041003201
     -0.9250881222
     -0.7527210326
     -3.2103870844
     -3.8154187758
     -0.7583563356
      0.9317165430
      0.9126290985
     -1.5141176688
      1.1514486631
     -0.8845180257
     -0.0295253636
      0.0150481935
     -1.2304802299
      1.8391585757
     -0.7331440710
     -0.5531133644
      0.7370393947
      0.9817211202
      0.1735534193
      0.8542980054
     -0.1692845270
      0.2957536509
      1.7447387717
      0.2408417125
     -0.4151841534
      0.6193064992
     -0.4930559933
      0.5416995273
      1.4224707703
     -0.5563447989
     -0.3041339483
     -0.2830333548
      3.3858811292
      1.9239298970
     -0.5586833969
     -1.2686834847
     -0.2690525300
      0.4577710309
      0.3195761885
      0.4582699946
     -0.5034854823
      0.1778777157
      0.0279545726
     -0.3460189806
      0.0834500776
      0.0414648207
      0.6486177423
     -0.7640944403
     -0.6716186598
      0.9914545421
     -0.0596875761
      0.2753526987
     -2.0547005434
      0.6962710530
      0.3966294449
      1.3918173819
      0.4512591305
      0.7333461949
     -0.5679598244
     -0.0042132814
      0.3200638971
     -0.0135198375
      1.0352821862
      0.2287468535
      0.2311343881
      0.1106979140
      0.0401508858
      1.0425868559
     -0.7019391701
     -1.5196047793
     -1.1218522325
      0.7111130280
      0.9174025630
      0.9761876767
     -0.2527372624
     -1.9628660261
      0.8807410460
      0.2663443418
      0.3202251539
      0.3767810618
      0.2355710843
     -0.0790781417
      0.7137246625
     -0.1801360865
      0.0311729286
      0.7379355997
     -0.9652602924
      0.6996283388
      1.2706723834
      0.3869034255
     -0.7307850342
      1.4605444267
     -0.6283489112
      0.0704936571
     -0.8265702370
      0.6698955196
      0.3596494402
     -0.1140738913
      1.4690449674
     -0.0182971694
     -0.7497329170
      0.6947436479
      0.8002703670
      2.1443727106
     -0.5928896388
     -0.9086495555
      0.7373309715
      1.6104504697
     -1.5992146199
     -0.9978232551
     -0.2100141093
      1.1758908551
      0.0857514797
      0.7283792707
      0.9015617856
      0.0843324917
     -0.7395231992
     -1.1369699917
      0.1844919335
      0.0392362168
      0.0164363431
     -0.1661293949
      0.7978003860
     -0.0647149062
     -0.4583160800
     -0.0684577727
     -0.2473998155
     -0.7380071877
     -0.4809828901
      0.1831221973
      0.1470636501
      0.0697426392
      0.9260532620
     -0.3059523457
      0.8618937024
      0.5936889744
     -0.9495038720
     -0.4173480870
      0.9451229407
     -0.1711896647
      0.4238558363
      0.5295692039
     -0.2475596662
     -1.6092063970
      0.4225416882
      0.1072320458
      0.6631178035
     -0.0806203454
     -1.3921094539
      0.2064113890
      0.3053013816
     -0.3449107658
      1.2232723202
     -1.1869654727
      0.8858439580
      0.1728353309
     -0.4316842055
     -0.7160122914
      0.0896971921
      0.2664936567
     -0.9882874155
      0.0446614199
      0.4335787201
     -0.4034010587
     -1.3178330943
     -0.1918969999
      0.2839567183
      0.3427283383
      0.0594482232
     -0.4361184194
      0.4703326085
      0.8776518024
     -0.1394611945
     -1.7156227705
     -0.8133460232
      1.0234597797
     -1.8374054082
     -0.0367964937
     -0.8098088206
      3.0806381351
      0.5439600732
     -0.0440068354
     -1.4011392103
      2.9522134944
      0.1328311664
     -0.6523895237
     -0.5313313324
      0.0048360456
     -0.4724731647
      0.6753228041
      0.2629138626
     -0.2223296633
      0.3609867197
      0.9196092086
      0.6078234663
     -0.8510318858
      0.3507911319
     -0.3501665013
     -0.7578414662
     -0.1636336204
      0.3694879522
     -0.3457228968
      0.0213034957
     -0.1206950398
     -0.9680290234
      0.3652462530
     -0.2346032575
     -1.8633489186
      0.8352839411
      0.2160890076
     -1.0590221282
     -1.4721558664
      1.8220905708
      0.0294195184
      0.5933279771
     -0.1409228040
      0.3641443174
     -0.0273493125
      0.0428910564
     -0.4496313050
     -0.4823618863
      0.1560316390
     -1.3874326949
      0.3237461095
      0.2440461509
      0.1930907461
      0.1007740645
      0.2270057608
      0.1809562234
     -0.3157092672
     -0.6123400733
     -0.0072638848
      0.4756276885
      1.4647823335
      0.0459768608
      0.0741711117
     -0.0448452106
      0.0801300271
      0.9647565230
     -0.1557647257
     -0.5222942641
      0.2809236006
     -0.7963962372
      0.1422420827
      0.2260611982
     -1.2394413551
      0.3053345631
     -0.1011397412
     -0.3265260689
      0.6755377451
      0.4471537597
     -0.5788105753
     -0.5834286968
     -0.3793573441
     -0.2724888977
     -0.6938126009
     -0.2536708446
     -0.7117787120
     -1.5388882194
      0.0308840079
      0.2240296203
     -0.4264169457
      1.9817422686
     -0.1900121860
      0.3715375401
      0.5842586477
      0.3987446038
      0.6750462484
      1.0942463799
      0.3004624544
      0.0282578735
      0.1448447796
     -1.3891577481
     -0.6330049541
     -0.5276034210
     -0.3452551005
      0.0940672116
      0.4519597958
      0.2164040509
      0.0867320064
     -0.6741628008
     -0.8428910829
      0.3791190684
     -0.1196535078
     -0.1251278675
      0.4898531829
      0.0616827560
     -0.8745777091
      0.0578347253
      0.4797735389
      0.9078323093
      0.2101010098
     -0.1315822378
     -2.2248866120
      0.2697875123
      0.5478932985
      0.2201389446
     -0.7161470689
     -0.0990448711
      0.5144304162
     -0.0638830293
      0.9758759572
      0.0020517991
      0.1655330227
     -0.7469847883
      0.3394278064
      0.0026899086
     -0.3993058534
     -0.5842995258
     -0.3416843859
      0.0621158605
     -0.1911743243
     -0.8680370845
     -0.4452701108
      0.4633867961
      0.1562527227
      0.4344390890
      0.0925685905
      0.5433118161
     -0.3382161574
     -0.3681900537
      0.0479419773
     -0.7944646256
      0.3586184425
     -0.0567140766
      0.2860629407
      0.0214682056
     -0.2962621055
      0.7301632897
     -0.0039018633
      0.2468156269
      0.1952624401
     -0.2456616178
      0.1825451816
      0.6220661826
     -0.3901829101
      0.3840173846
     -0.7681032878
     -1.4850488850
      0.3869765363
     -1.0880943818
     -0.7521943599
     -1.0940315488
     -0.4466310823
     -0.1928420538
     -0.3675119674
      0.1419708746
      0.6267077735
      0.2957187809
     -1.2729119293
      0.3620910136
     -0.1109097858
      1.1109593778
     -0.1140197591
      0.5323850270
      0.2543868777
      0.5751442502
      0.4230786885
      0.1717506752
     -0.3440757392
     -0.1499349410
      0.1865735865
      0.8718434458
      0.2962242992
      0.1839852036
     -0.2298557526
      0.5434596680
      1.1224878355
      0.6875586811
     -0.0784639883
     -0.3637165471
      0.5084225090
      0.5136744963
      0.4324179835
      0.1623193977
     -0.2956477459
      0.4806781047
      0.6575597617
     -0.1478313425
     -0.2090494587
      0.8708968142
      0.6818596837
      0.1985124367
      1.0387277717
     -0.1033889184
      0.5347271025
     -0.6700408032
      0.3739575503
      0.3680481793
      0.1254199420
     -0.0164957654
      0.1006658182
      0.6192130308
     -0.9008863014
      0.3876118269
     -0.3032243727
     -0.1789419018
     -0.7073943861
     -0.0007662371
     -0.3368285149
      0.4319858204
     -0.0148511037
     -0.7902642829
     -0.9487159816
      0.6932354068
      0.0845789543
      0.3784433520
      0.9814339667
     -0.7960902101
      0.0296494216
      0.5756228844
     -0.0789736925
      0.5252786367
     -0.5748593922
      0.5480943665
      1.0052318182
      0.1687615859
      0.9974705502
      0.1243647829
     -0.6030427231
     -0.0953031991
      0.0654512146
      0.5628737650
      0.5873957486
      0.6183271414
      0.3119531581
      0.5760585527
      0.5562157696
      0.9769305116
     -0.4020963260
     -0.0033994793
      0.2048022495
     -1.3827296336
      0.7021835434
      0.8058435920
     -0.4433024679
     -0.3733392943
      0.4593204006
     -0.6951353363
     -0.2753716553
     -0.1578825904
     -0.0397785522
      1.0644469776
      0.8766044533
      0.4011881724
      0.0028473278
      0.5545888163
      0.1626196835
     -0.5791644775
      0.1300573695
      0.6832013623
      0.6280261255
     -0.0332631421
     -0.6377689746
     -0.5071393504
     -0.2503914430
     -0.2148097919
     -0.8049377736
     -0.9020294049
      0.3856812113
     -0.2916413912
      0.6163565007
      1.2099270136
      0.6805117567
     -1.1670764531
     -0.9689676559
     -1.5099362585
      0.4483864228
     -0.0391604781
      0.1977917532
      0.4333865949
     -0.3460216499
     -1.8325313291
      0.8272041260
     -0.5450488917
     -0.4696707854
     -0.7701088179
     -1.0811246680
     -1.6028102805
      0.8967760769
     -0.3622125287
     -0.7986613363
      0.5479059186
     -0.7259113952
     -0.3948583353
      0.8344887927
     -0.6697683780
     -0.5676834129
     -0.8839427155
      0.9135946628
      0.0699237620
     -0.8827388359
     -0.9795282137
     -1.2129325891
      0.3300770809
     -0.4278600857
      0.7684595881
     -1.9337516291
      0.2662181935
      0.5106549807
     -0.0077483981
      0.1574219310
      0.5156647229
     -0.0484318096
      2.0273645289
      0.6666516412
      0.8859208092
      1.1002035708
     -1.2789175816
     -0.8213628277
      0.6076223876
     -0.0881432503
     -0.3889147748
      0.2932854365
     -0.1856173101
     -0.8294967472
     -0.6638324557
      0.2152632689
      0.0543178985
      2.0491174001
      0.1722362692
      0.4068815653
     -0.2213558374
     -0.2992266591
     -0.1522002929
      0.0758913872
      0.4184355895
      0.2753350200
     -0.6607653999
      1.9833725786
      0.9195473696
     -0.4307621052
     -0.0160339068
      0.5385172047
     -1.3229765810
      0.9811053085
     -0.1324021778
      0.3291072685
      0.0577032145
      1.0557389095
     -0.1797853207
     -0.3198795065
     -0.2648656058
      0.9270481080
      0.4111294845
      0.0259465686
     -1.2260683194
     -1.0549489892
      1.2009267716
     -0.9511887318
      1.2434530338
      1.1066955076
     -0.7377571578
      0.5472469850
     -0.7282611905
      1.5312862639
      0.9816304487
      0.2722750053
     -0.7432199295
     -1.1420331261
     -0.2558553503
     -0.7418169415
      0.0038993530
     -0.3043171493
      0.0781032743
     -0.2060380469
     -0.6928832689
     -1.0847238010
      0.0500539715
     -0.1023476570
     -0.7189545828
     -1.3546808601
      0.0018081608
      2.8257914174
     -1.5959537660
      1.1130346875
      0.7139835303
      1.3651391258
     -0.1282859425
      0.0414025699
      0.2225708988
      0.1876126080
      0.8830577851
     -0.1188015514
      0.1030490037
      0.2209051709
     -0.1740225792
     -0.1529422561
     -0.1290671134
