      1.3945251067
      0.2875891943
     -1.7697629030
     -0.8005000229
     -0.0269859392
      1.2037265541
     -0.1745346204
      0.5452288658
     -0.7221177025
     -0.1175784518
     -0.8591184890
      0.2062119665
      0.1405979012
      0.4506715054
      0.7598624123
     -0.3319143606
      0.5932311895
     -1.4892617934
      0.5067617035
     -0.1930529512
      0.4467121609
     -0.0549559406
      0.1804707423
      0.2166723317
     -0.4477143473
     -0.0108874110
     -0.0685759001
      0.5423638280
      1.2221479614
     -0.0374228528
      0.4993127186
     -0.8881188943
     -0.6507153051
     -2.0553559435
     -0.8648336209
      0.0460523161
      0.8194713933
     -0.3814971695
      1.3983823326
      0.3431050001
      0.3932326551
     -1.2850836010
      0.4937547117
     -0.6012337539
     -1.1876868790
     -1.0627508227
      0.5550542312
     -0.2937164272
      0.6732524726
     -0.6693042255
     -0.5642012910
     -0.6779027662
      0.6872586867
     -0.0964599757
     -1.2410623340
     -1.2272919033
     -0.4918052014
     -0.4599802604
      0.1641845039
      1.1839618279
      0.5349091535
      0.4360921089
     -0.5095431656
     -0.2232975967
     -0.6158201247
      0.1579388184
     -1.8354333073
      0.7820219139
      0.0790959946
     -0.5367726970
     -1.4497886871
      0.1523063668
      1.0109846092
     -2.6769007124
      1.4435879123
      0.3765541291
      1.7143435231
     -1.1150797040
     -0.8952650698
     -1.0005053106
     -1.2190276106
      1.2850814750
      1.0663171024
      1.7210249112
      2.3287052599
     -0.8576492108
     -2.3554173998
      0.2481905736
      1.3292156934
     -0.0585563334
      0.1419443931
      1.2849776537
      0.3626615895
      0.8748621931
      0.3380704026
     -0.1640042703
     -0.6966302330
      0.3394086877
     -0.1251635930
      1.2255127567
      1.5392941034
     -0.0260245731
     -0.4975220020
      0.1498306788
     -0.3180835874
      1.0639466939
     -0.0601696295
     -0.4898308645
      1.3185965841
      1.3312300051
     -0.9310236695
     -0.6571510301
     -0.5842825665
     -0.7797251737
     -0.1219849104
     -0.8366397162
      1.5674808769
     -0.7717617454
      0.3324727769
      1.3729653219
      0.0280989885
     -1.6068159200
     -1.0239927611
     -1.7801218329
     -0.0768545587
     -0.9160523567
     -0.0151799425
      0.6217823294
     -0.5219991055
     -1.1180403244
      0.5131353477
     -1.0606915772
     -0.8239274522
     -1.5313082843
     -1.2595809325
      1.6064925350
     -0.0305188212
     -0.7328671619
     -0.0475325603
     -1.4720065822
     -1.0349022864
     -0.2639801652
     -1.5930252871
      0.1913822616
      0.5047199006
     -0.2429977529
      0.1944924519
     -1.4072624725
     -0.2170601308
     -0.6755546765
      0.1528571356
      0.0975512611
      1.1726376841
     -0.2111757489
      1.2165051774
     -0.1760664181
     -0.0770028018
     -0.6423910466
      0.9424985901
      0.0281112177
      1.1729448155
      0.4789659363
      0.5838179749
      0.0046999492
      0.1934842504
      0.2427271614
     -0.3507953343
     -1.1361694157
      0.9875511476
     -0.7948256671
      1.2686071657
     -0.6679090199
      0.5989621537
      2.1660234265
     -0.2498682997
     -0.0780323395
     -0.6694328524
      1.0475141028
     -0.3373169735
      1.5679449984
      2.0221085875
      1.2464174895
      0.7348456160
      0.8342843395
     -0.2221995472
      0.6177413602
      3.5747278467
     -0.5053648270
     -0.9216127775
      2.9393684511
      0.8482934026
     -1.7089957752
     -1.0893416806
     -0.4765761946
     -0.3191987215
     -0.0762391191
      1.5752588887
     -0.2335762212
     -0.1284251265
     -0.8448686835
      0.6777777536
      0.2220094516
      0.7766981811
      0.4832050036
      0.1205527225
     -1.4364068628
     -0.7072026898
      0.5449420967
     -0.5850761469
     -1.0322687442
      0.3441033324
      0.1307561124
     -0.0662051836
      0.1091552482
     -0.7905827057
      0.4242613484
     -0.0756724685
     -0.7148484504
     -0.4239683324
      0.1783961764
      2.6875236300
      0.4292452478
     -0.5890208294
      1.0578022274
     -0.1837467918
      0.7478774749
     -0.5737838775
      0.0131627796
      0.1848872276
     -0.9839837775
     -2.3581884372
     -0.0601013492
     -0.2905810506
      0.7350679251
      0.6416677757
     -0.5465021149
      1.3507774977
      0.2061671539
      1.1483084705
      0.1002703920
      0.1945538845
      0.3211154090
      0.3253006578
      0.6380443158
     -0.2433411122
     -0.0943461950
     -0.1917480462
     -0.8111670053
      0.3280766534
     -0.2959452795
      0.8901132397
     -0.1356521773
      0.0365943653
      0.2443545828
      0.2336748649
      0.1034048748
      1.2024955682
     -0.6644871614
      0.4095488695
     -0.0431245347
     -2.0680262045
      0.0000157480
     -0.3494437634
     -0.3696506313
     -0.4660601257
     -0.2822272357
     -0.8245466799
     -0.4658580539
     -0.1924754671
      0.1890270159
     -1.0872027494
     -0.3936942058
     -0.4373311931
     -1.9100790061
     -0.1101970738
     -0.2475782484
     -2.1192078087
      1.0640687167
     -0.5568757417
     -2.2811501319
     -2.4559175727
      1.6999157962
      1.9338849390
     -1.1120595654
      0.5619721582
     -0.4530761104
     -0.9604362499
     -0.4054426830
      0.1175861161
      1.5751692625
     -1.5417512921
      0.2983433273
     -1.0945991489
     -0.0802313151
     -0.8848396233
      0.2386447643
     -1.6708452747
     -1.1793631681
     -1.1494118058
     -2.3186178877
     -1.2754748044
     -0.3828270290
      0.6818737675
      0.2544092555
     -0.4369409407
     -0.5313218749
      0.8452138618
      0.5575836733
     -0.4362441668
      0.1430860828
      1.0741585808
     -0.9596863908
      0.7018393198
     -0.4428407631
      0.2609346821
      0.5825332051
      0.4519182974
     -0.6593660663
     -0.7135539334
      0.6807246899
     -1.0232011956
     -0.5002807142
     -0.8019842350
     -0.3509079894
     -0.7163928455
     -0.7825959123
     -0.5127216962
     -0.5648306593
      0.4025020602
      0.8892531130
      1.0698018449
      0.2412211432
      0.1198100161
      0.0652604212
     -0.3818417047
      0.6683113457
      0.2243980388
      1.8500021154
      0.0508413396
     -0.2351871327
      0.1736995508
     -0.2088396912
      0.4760363599
     -0.2341839895
      0.6592373321
      0.0742313706
      0.2606570712
     -0.1641449631
      0.7682921903
      0.2909035601
     -0.6895322382
     -0.3179469229
     -1.0284359620
     -0.0333508331
     -0.1555942082
     -0.0801403511
     -1.1094081616
      0.8442738088
      0.6210590608
      0.1815722556
      1.4748123593
      0.3648865303
     -0.1320948031
     -0.0490100607
      0.6095764266
      0.2996546416
     -0.4719367878
     -1.1719738950
     -0.1877715652
     -0.6120707108
      0.2959643604
      0.0755620341
     -0.3535590814
      1.3133113168
      0.0163084353
     -0.1829452936
      0.7994842335
     -1.7884619232
     -0.7670657263
     -0.3051421434
      1.2126758101
     -1.0562710732
     -0.9975150016
      0.9439413495
     -0.2176263012
      0.8590160872
     -0.1009786513
      0.1473231741
     -1.5100888086
     -1.3314462407
     -0.5566311433
      0.9263986579
      0.0066990034
      1.2954065506
      0.4343555563
      0.0466187888
     -0.5655839543
     -0.5284445125
      1.4589047428
     -0.8339565599
      0.0025089505
     -0.5970174974
      1.8953936620
     -0.0960719734
     -0.5297606575
      0.9431666763
      0.5646580768
     -0.2218063490
     -0.2406092986
      0.1806343798
      0.4896758417
      0.6246102123
      0.3922220292
     -0.0868585018
     -0.2034260961
     -0.3906397218
      2.7043672995
      0.6002950331
      0.5889275481
      0.5172341938
      0.9109091074
      1.6053815647
      1.3248003787
     -0.3047989646
      0.0904459641
      0.7557753153
      0.1828404940
      0.6442312263
     -0.8496743324
      0.2889564571
     -0.5536312689
     -1.6437793630
     -0.0270423544
     -1.2881931686
     -0.3038844991
     -0.1458053067
      0.0742330953
     -1.4943553141
     -0.6096813602
      0.5458759553
      0.2584507561
     -0.4789520566
      0.9767501151
      1.5445418752
      0.6929567036
      0.9204326589
      0.3553258558
     -0.4055303495
     -0.4587352405
      0.5392537708
      0.3817200932
      1.6308646470
     -0.9763815003
     -1.6743596382
      1.1117002853
      0.0195910826
      0.3708592960
      0.1359346485
     -0.4086615693
     -1.2633727246
     -0.4395668988
     -0.0863835579
      0.6319345020
     -0.2853382469
      0.4093366209
     -0.2857605393
     -0.1330483622
     -0.3759883237
     -2.2938876208
      0.2934983987
      0.3011617244
     -0.6031668490
     -1.2693174220
     -0.0165234419
      1.5994941173
      0.0188558795
     -0.5699833926
     -0.0919580154
      1.0474252181
      1.0880464755
      0.6376840289
      0.9188461781
     -1.1808166784
      0.0119571270
     -1.1829032027
      0.2274296009
     -2.1075320656
      0.5476784335
     -0.5824051079
      0.3900686539
      0.4030808610
     -1.8011073393
     -1.6047515429
      1.6946650095
     -0.8215977297
     -1.0306155205
      1.3253461394
     -1.4657316748
      0.0000335131
     -0.7708194191
     -0.2810294699
      1.3628279857
      1.0908898417
      0.5781642496
      0.5804259636
     -0.0352010355
      0.2605135318
      0.2390511039
     -1.0645636911
     -0.1277396384
     -0.0379121101
      0.7426117789
      0.0245459023
      0.0760725653
      0.0020003781
      0.1006105781
     -0.0138293309
     -0.2066309786
      0.0618167780
      0.0101020191
     -0.5490390382
