     -0.4945579649
      0.6824914984
      0.2206587862
      0.4069911522
      1.2042930069
     -1.4052669667
     -1.4555605844
     -0.2277039407
      0.6483954604
     -1.2302955540
      0.6211837330
      0.0389259061
      0.3873652607
      0.6829011729
     -0.8415648377
     -1.2667293369
     -0.1383440947
     -0.2184547721
      0.7129872619
      1.0216641411
      0.2537897842
     -0.8927956938
     -0.3522584823
      2.7198758310
     -0.4430696876
      0.8232490994
     -0.0302761956
      0.1398335803
     -0.7603832778
      1.4656566752
      0.7422620855
     -0.6116239354
      0.3741656944
      0.6588327884
     -0.3445006763
     -0.4873898255
     -0.2928512430
      0.0438900803
      0.6255595320
      0.1310212794
      0.4771584604
      0.3786089837
      0.1470436923
      0.7131406368
      1.1606780722
      0.0051871967
     -0.1278761572
      0.0141003447
     -0.1434465430
     -0.1531714235
     -0.4908299019
     -0.0134876792
     -0.1891512935
     -0.6664088232
      1.8694645474
     -0.1541411036
     -1.0448381780
      0.2444250039
     -0.2654359644
      0.5385676022
     -0.9952344571
     -0.3839481052
     -0.7704609100
     -0.3166922761
     -1.5800259975
     -0.4233274849
     -0.1256500944
     -0.8924222530
      1.9834829012
      0.1456795075
     -0.5839553156
     -0.2274912517
     -0.5156435290
      0.1393020478
      0.0824900354
      0.3270630713
      1.1086774393
      0.3016176983
      0.1651184244
     -0.3046118136
      0.7893883577
      0.3306410176
      0.6395681067
      0.2972599574
      0.9268274263
      0.3891506944
     -0.3041340949
      0.3262657386
     -0.7603964511
     -0.5290551955
     -0.6418366067
     -0.3430948566
      0.2354723926
     -0.3251920337
     -0.2639667512
     -0.1720684088
     -0.4006566499
     -0.1777713859
     -0.5304439926
     -0.0001348167
     -0.1243989978
     -0.5269709561
     -0.5753464476
     -1.7380845276
     -0.3303337961
     -0.7142154253
      1.1704471718
      0.0474412759
     -0.4300353491
      0.5025054059
      0.1946044851
     -0.0794196369
     -0.3924159452
     -0.8519805324
     -0.3070853124
      1.6984458903
      0.5165878323
     -0.0144189591
     -0.1483960817
      0.4062509541
      0.9776411927
     -0.9298367192
      0.2658586794
     -0.8035208031
     -0.4657530510
      0.2777139307
      1.2200465818
     -0.6532552455
      0.3759819648
      0.2293270457
      0.2576254426
     -0.1942214920
      0.2800100041
     -1.3502015144
      0.5207140888
      2.1175074881
     -0.2713305337
     -0.4488146675
     -0.2461646810
     -0.8863939876
     -0.1674273322
      0.0048299645
      0.2727274287
     -0.1370116501
     -0.0558292706
      0.0517280576
      0.1112421535
     -0.1574707230
      0.3503065950
      0.0329315193
      0.1460709346
     -0.1927820008
      0.2249091084
      0.0317562577
      0.0837946738
      0.2346809485
     -0.1137398296
      0.4294923990
     -0.3163994854
      0.3572893932
      0.2271999162
      0.4013244419
     -0.2595493339
      0.1318205045
      0.2088081691
     -0.2570208012
     -0.3941935876
      0.4057286952
      0.1596557095
     -0.1328820874
      0.1087103876
      0.4546708110
      0.2219823099
     -0.6523654699
     -0.9890512724
     -0.3891344541
      1.0793862621
     -1.2099510186
      0.6288922466
     -1.1630427362
      1.6614475854
     -1.6405887201
      0.7699155254
     -0.0914331296
      0.1415079620
      0.4419424555
      0.7718352199
     -0.2996289936
      1.9965958076
     -0.7568842083
      0.6010957096
     -0.4674152433
     -0.3094797881
      0.5471335225
     -0.3785256492
     -0.0654141965
     -0.0491568059
     -0.2136137344
     -0.3754418133
     -0.5677678853
     -0.1279420751
      1.5630899077
      0.2705869454
     -1.2160906699
     -0.3568735527
     -0.0099064996
     -0.0469213867
     -0.0979288699
     -0.7470727903
      0.0174451248
      0.3862966366
     -0.0724678405
      0.4712959830
     -1.5928276137
      0.8944487044
      1.1154279074
     -0.2229254495
     -1.8830993932
      0.1221191902
      0.3116509518
      0.1032021549
     -0.3124295717
     -0.7584136925
     -0.2969510987
     -0.4203146724
     -0.4599912934
     -0.4678483031
      0.6906680453
     -0.1991399911
     -0.3227783973
      0.8018331295
     -0.0068171819
      1.0900940411
      0.9795983312
     -0.6686907995
      0.0343129365
      0.5568435104
     -0.2409823625
      0.2404342937
      0.2700312557
     -1.1412443890
     -1.2945441913
     -0.7958807246
      0.8234334247
     -0.1228447800
      0.7007614287
      0.8859491601
     -0.4457764352
      0.2968650423
     -0.6826553749
      1.0934283551
     -1.5088911546
     -1.5613144634
      0.2385794210
     -0.6776286329
     -0.4272660882
      0.8441549952
      1.2508890437
      0.0852725290
     -0.6667969861
      0.8435833492
      0.0067978184
      0.1137750860
     -0.2550365304
     -0.7399281038
      0.3850009010
     -0.7679685025
     -0.2327846081
      0.3975914627
     -1.4570285892
     -0.8993716853
      0.2051217228
      0.8399484920
      0.1344044110
     -0.0119954060
     -0.0412954319
     -0.2302634851
      0.0279350797
      0.2529463543
      0.4340760259
     -0.0968952931
     -0.3344064737
     -0.3762555432
      0.3715643673
     -0.5179196797
     -0.3031859289
      0.4771952035
      0.2108371827
     -0.3644329657
     -0.0721252056
      0.6792184464
      3.0409545668
     -1.2784897727
      1.6638156490
     -0.0375791164
     -0.6440008208
     -1.1522478951
      1.8815920088
      0.1040745900
      2.4632956474
      0.0408316220
     -0.0133859060
     -0.1198051590
     -0.1840550427
     -0.0047345354
      0.0416979239
      0.0073462520
     -0.0727225241
      0.2157372346
     -0.1402357420
    -12.0000144643
