      1.4507519586
      0.8374006134
     -0.0628259254
     -0.1498008913
     -0.4466097108
      0.9713688158
     -0.0103850627
     -0.0425827549
     -1.2641221483
     -1.8019627793
     -0.3942540571
      0.6028539883
      0.6607484246
     -1.2652378111
     -0.3180671719
     -0.4696561542
     -0.2560790152
     -0.3942703174
     -0.0217989635
     -0.1435102756
     -2.1782462905
     -0.2778814481
     -1.0277254095
      0.1445106983
      0.1766644919
     -0.2900890547
      0.2069376688
      0.1168282705
      1.5800280876
     -1.0395441886
      0.3470808425
      0.3719048096
     -0.3480433068
     -0.1735054780
     -0.4123226928
     -0.5364614082
      0.1708248670
     -0.1070459580
      0.1355588827
     -0.1121488056
      0.3383985591
      0.3196867279
     -0.4680651684
     -0.4655662788
      0.7124723301
      0.5390392130
      0.7803782224
      0.3080382414
     -0.0861677800
      0.4879508015
      0.4545741631
      0.2977432018
     -0.5752051047
     -0.7278762395
      1.5164033439
      1.0626659300
      0.4635070822
     -0.8413137474
      0.3899182943
      0.6142171786
      0.8230119704
     -0.5763479957
      0.0980002730
     -0.2914041115
      0.1051697728
     -0.2616228817
     -1.0456511084
      0.4038422066
     -1.2635584817
      0.4524649317
      0.2674090761
      0.0023906113
     -0.6876895862
      0.4415646324
      0.2395634990
     -0.6287847298
     -0.3058358030
      1.0809299380
     -0.3716406460
      0.1509888086
     -0.5703661722
      0.1894314612
      0.5499773785
      0.2852574461
      0.4970906066
      0.4131881444
      0.3559231198
     -0.0896971438
      1.1168925159
     -0.3805827801
     -0.2137776164
      0.3404296244
      0.0700168312
     -0.1145900072
      0.3136322132
     -0.1225459071
      0.2660596433
     -0.6617661503
      0.4371747556
     -0.3164540600
      0.8271578101
     -0.2586584796
      1.2680039657
     -0.1295554001
     -0.3761306889
     -0.2900128259
      0.4750965212
     -0.2298324282
     -0.5031330829
      1.2175854992
     -0.5870675624
     -0.4617157331
      0.3198961285
      1.0495858721
     -1.1875086653
      0.6891423056
     -0.0660524989
      0.6039589751
     -0.4035334496
     -0.2546003457
     -0.0497137229
     -0.2574189765
      0.1646263876
      0.0825245968
      0.0531746752
     -0.0061079426
     -0.0032956208
      0.4041054699
     -0.4937631160
      0.7427213255
     -0.0362819726
     -0.0518612776
      0.2660084089
      0.7302122485
     -0.0088575713
      0.3660871901
     -0.1308208205
      2.3866815145
      0.0678449449
     -0.6385955715
     -0.1259144479
     -0.1026013636
      0.0855480038
     -0.0987021288
      0.2322778895
      0.0052682939
      0.0277987656
     -0.0586323099
      0.0763377355
     -0.1295682985
     -0.3184635087
      0.1226689100
     -0.2757800597
     -0.1118810273
      0.2601238096
     -0.2326238853
     -0.1482907484
      0.2992045598
      0.3184800164
      0.1790834110
      0.0760177404
      0.0231214602
     -0.0298691306
      0.1825132312
      0.0108712004
     -0.1317158723
     -0.1404647971
     -0.2775757606
      0.1461797277
     -0.0496767035
     -0.0656806533
     -0.4809098823
      0.6489679528
     -0.5165963576
     -0.2447589146
     -0.3632610281
     -0.1268204154
     -0.5943850351
     -0.0727555179
     -0.1837923287
     -1.1126912137
      0.6987170459
      0.9812800364
      1.3335270726
      1.2199052151
      0.2314074672
      0.9980993661
      0.6486660085
     -0.1429590397
     -1.4319513588
      2.3510398344
      0.6865286199
     -0.8643797510
      0.2791319866
     -0.0589715270
     -0.9744503894
     -0.5323222262
      0.1060715790
     -1.0190416449
      0.9711686328
     -0.2028971124
     -0.2197939703
      0.8601782380
     -0.6611365651
     -0.3266160048
     -0.0410333906
      0.6875851624
     -0.7810982415
     -0.1189465722
     -0.1629710846
      0.6425149057
      0.7259818179
      0.1494422417
      0.5161619362
     -0.2879083104
      0.0940807968
     -0.2320979444
     -0.7593535010
      0.0002693733
      1.1547878865
     -0.7291357261
      0.6362033409
      0.5279389882
     -0.0625906201
     -0.7260691312
      1.2193528348
     -0.4552656590
      0.8484381029
     -1.2109243528
      0.0235402229
      0.1319604439
     -0.7553768813
      1.2332836895
      0.3530937963
     -0.4372093788
      0.1756927173
      0.0110629653
     -0.0453367559
     -0.4888544588
     -0.2664442234
     -0.4512671556
     -0.4457566240
     -0.4354284566
      0.6918752732
     -1.0089276859
     -0.2928561727
     -0.6850339809
      0.7044529522
      0.6805263015
     -0.8353388498
     -1.8752743013
     -0.3746038850
     -0.6327286947
     -0.1667340017
      1.6159485655
     -1.3528270337
     -1.3497172240
      0.2030220810
     -0.6512860322
     -1.4976685393
     -0.6745220016
      0.8067905818
     -0.6433540469
     -0.1934925822
     -0.0813823213
      0.3829857005
      0.1857840255
      0.9172170115
      1.2268767111
     -0.1361240466
     -0.4157272897
      0.5953093485
     -0.1363339191
      0.9407966937
      0.7463698830
     -0.3766809651
     -0.4951497469
      0.1783631111
      0.0924196554
     -0.6080484696
     -1.4458586971
     -0.5199884025
      0.2874793060
      0.0244479022
      0.6721125738
     -0.5879495805
     -0.4996617197
     -0.4770986784
      0.4209282040
     -0.7441403317
      0.2730088049
     -1.7063534837
     -0.3612359351
      0.0270299525
     -1.0567061213
     -0.9253172814
      1.6894962584
     -0.4015876814
     -1.1960028394
      2.0036998112
     -0.1482278222
      0.2534887397
      0.1170259089
      0.0944964704
      0.0982845706
      0.2653654535
     -0.1682537329
     -0.0341959443
     -0.1860719636
     -0.0894039201
    -12.0467968191
