      0.9321716299
      0.7998791193
     -2.2037581747
     -0.9922152363
     -0.5553941567
     -0.8293458718
      1.6927609229
      2.4207778402
     -2.0356668345
      1.1664370252
      0.2525962377
     -1.0869818988
      0.7820463972
     -0.4572371968
     -1.3488969837
     -1.1588266719
     -0.1853239570
     -1.6551058253
     -0.2779296982
     -1.7005576099
     -1.8709357873
      0.0116477083
     -0.4214667924
     -0.4900251078
     -1.3576576013
     -1.4696230740
     -0.9923629446
     -0.1674228001
     -0.1952839265
     -0.4939448077
     -0.4619654328
     -1.6018900038
      3.0324286995
      2.1837027394
      1.8451913124
     -0.9662698562
     -3.1690332913
     -3.1618976940
     -0.1425104504
     -1.8156391234
      0.0235901166
      0.4622932145
     -0.4748169750
      0.0532801908
      0.1025152950
     -1.3296803744
      0.1785751538
      0.2919131628
     -0.5643155360
     -1.3090276179
     -0.2172222498
     -1.5070416928
      1.4487968194
     -1.1672365788
     -1.3484955412
     -1.2802290716
     -0.6255988318
      0.1346060915
      0.1632376656
      0.0069603600
      0.6395994097
      0.5512165579
     -1.0653355568
     -0.2681440264
     -1.1716681987
     -1.4750810575
      0.7275504003
      0.5028272330
     -0.9676413469
      0.1559384988
      1.0155244510
      0.3245701097
      0.7954693798
      1.3526740645
      0.5100798305
     -0.4011400687
     -0.2983065660
     -0.5615818412
      1.5866596111
      2.1100325328
      0.1369568927
      0.6376985509
      0.6106064811
      0.1289232377
     -0.0437110374
     -0.7077218203
      0.4646419166
      0.5170913510
      1.8184981804
      1.0748759964
      0.3046848708
     -0.0957699509
     -0.0147500888
      0.1941270271
      0.3172600189
      0.8813000134
     -0.2540776423
     -0.1252703477
      0.3745847861
     -0.1666091868
     -0.9426634340
     -0.5702537636
      0.2276448915
      0.7761435310
     -1.1937167172
     -0.2015910609
     -0.3559940198
      1.5355068301
     -0.4652678002
     -0.2520634731
     -1.0247825153
      0.1717849544
      0.1252768373
      0.5117420353
      0.0348259635
      0.9170794472
      0.4710396095
      0.2169766478
     -1.0821120503
      0.8113029728
     -0.1834940738
      0.0052854423
      0.0404788072
      0.0787632484
     -0.2149217778
     -0.4133511405
      0.0934581018
      0.1107619308
     -0.1494193892
      0.1775587541
      0.0470654437
      0.2207562695
     -0.2576596878
     -0.1711764314
      0.6573624565
      0.1499788124
      0.7247753924
     -0.6420589882
     -0.2572282066
     -0.3261694881
      0.6475418258
     -0.1924729942
     -0.2228358236
     -0.3995693108
     -0.0477061065
     -0.9188720942
     -0.2136026022
     -0.2246260972
      0.9298750500
     -0.7922626484
     -0.6053225316
     -0.4974756781
      0.2051137712
     -0.7457270584
     -1.0158009571
      0.2315389664
      0.0523976341
      1.3000805916
     -1.2430437982
     -0.4522076056
     -0.4906011683
      0.8936260227
      0.2530727048
     -0.1836046599
     -0.5673510919
      3.1595660257
     -0.2313451851
     -2.9788678040
      2.3064803201
      1.0640618666
      0.2237059202
      0.0338999578
      0.6091347619
      0.0081028241
      0.1386617720
      3.4672612845
      1.3503475799
     -1.0051187032
      3.1579020672
     -0.8954177951
      0.4091787763
     -0.9066826305
     -0.5797860996
     -1.6263101932
     -0.0698289088
     -1.7030892328
     -0.0284754954
      1.8905896177
     -2.0383895638
      0.9545839439
      0.3161647700
      0.0887667660
     -0.4778886022
      0.1242248585
      0.4966491413
      0.0912391822
      0.4347210631
     -0.3160280413
      2.0333840418
      0.9452362552
      0.6533867096
      1.7478236887
     -0.4289947035
     -0.0803630135
      1.4589961535
      2.2710421790
      2.0200415603
      2.7164977355
      2.1285968388
      1.1442352465
     -0.7098195424
      2.0348577859
     -0.1683557303
      1.2395050667
      2.2457389606
      1.1711789059
     -0.3058950195
      1.1143898642
     -1.7202686931
      0.2532405195
      0.1131826808
     -0.0219787324
     -0.5583837920
      1.3011940284
     -0.2799525253
     -0.6988733175
     -0.5741597845
     -0.7984089077
      0.1351306506
     -0.4729076908
      1.0752486296
      0.1715566667
     -0.1263985366
      0.0786036464
     -0.2161255670
      0.1613414716
      0.2593151397
     -0.6678056205
     -0.2288880362
     -0.1798840201
     -0.4213985088
      0.0848352252
     -0.0306697677
     -0.0646658332
     -0.2506400713
     -0.2503433110
      0.0418914440
      0.2786348420
      0.7780490410
      0.2833401069
     -1.0513850958
     -0.5219410173
      0.1861459090
      0.2080040573
      0.7381709111
     -0.9203095501
     -0.7708495606
      0.7760709266
     -0.4600087208
      0.3576452022
      0.3919391995
      0.0397296713
     -0.0855301226
      0.2464649682
      0.1029019240
      0.4615461677
     -0.0733754347
     -0.4935697084
     -0.1962996220
     -0.5281356407
     -0.6403034413
     -0.1801107535
      0.0885773401
     -0.0832091128
     -0.9174000335
     -0.8448234655
     -0.3074493997
      0.1346815156
     -0.5146075155
     -0.5787755762
     -1.0828413103
     -0.2099224844
      0.2826031145
     -0.3979372328
     -0.8769803508
      3.2998725948
     -2.8122769434
     -2.1345548310
      0.5424651113
      0.9019340733
      1.5943463421
     -0.3956979091
     -0.2838924460
     -0.8109920028
      0.0232188057
      4.3501284068
      1.5330399471
     -1.5520603874
      2.8858973965
     -0.9722222869
      0.7735780158
     -0.0251880114
      0.2431852117
     -1.0871210052
      0.6699636154
      0.1691016069
      0.8349951546
      1.4200453695
     -0.8739607907
      1.1365563348
      0.4955764865
     -0.1605612184
      0.2885294843
     -0.5629211840
     -1.1502245932
     -1.3627845651
     -1.2245011651
     -0.9934727608
      1.1426369502
     -0.5107296896
      0.4889652027
      0.3288822864
      0.3498762661
      0.2303436685
      0.8073975133
      0.0754767508
     -0.3262157598
      0.9155012961
     -0.4418367729
     -0.3739544112
      0.6055181208
      0.8484883101
     -0.9453105091
     -1.1435254213
      1.0239797525
     -0.6833032305
     -1.0692041297
     -0.2034603767
      0.9316094994
      1.2657535458
      1.2727381254
      0.8405988409
     -1.5799716622
     -0.4340075702
      1.0885630118
      1.7076111736
      0.3396262408
     -1.5337747871
      0.2363923237
     -0.2678467608
      0.4225492964
     -0.9827844734
     -0.7391660038
     -0.8662135767
      0.0735513009
      0.2920884938
     -0.7728576829
      0.7964110669
      1.4493607947
      0.3481539412
      1.4659786135
      0.0467765837
     -0.5004253966
     -1.3011427315
      0.1279783143
      1.0336491978
      0.1823721562
     -0.6603501354
     -1.3675362889
      0.7689938629
      0.2165521226
      0.1408306975
      0.0791111611
     -0.1589206789
      0.8088624215
      0.6925925123
      0.2279280013
      1.4103878624
     -1.0214313722
     -0.5765505656
     -0.4696411634
      0.7522572994
      1.1124279811
     -1.2648138356
     -1.4309873874
      0.1018951715
      1.0913764851
      0.0798933151
      0.3024252307
     -0.9261962012
      0.9869447123
     -0.3416288910
     -0.5826058288
      0.5057198240
      2.4078903554
     -1.2440464654
     -0.2925536986
      2.4201541892
      0.0489768929
      0.3124120788
      1.0813316792
     -0.9450319063
      0.3558744262
     -0.5021797317
     -0.6407138300
     -0.5497018939
      0.2861086414
      0.4900158084
      0.1026774925
     -0.0918806972
     -0.4215037823
      0.0249050514
      0.2581556881
     -0.0922565631
     -0.7388933765
      0.2388749197
     -0.6366227644
     -0.6850041829
      0.1033924565
     -1.3581145707
      0.8580351412
      1.3420010431
     -1.5186158743
      0.1697149485
     -0.5183277154
      2.3355593314
     -1.1000762838
      1.2397131320
     -1.3541809473
     -1.6173702227
     -0.0261539155
     -0.0376496048
      0.0491013690
     -0.0333873967
      0.0161597879
      0.0791923701
     -0.0595681708
     -0.0043827600
      0.0026943010
      0.1157926013
    -11.9046776289
