     -2.1784643883
      0.5167118946
     -0.4147852094
     -0.8994093869
      0.6562247116
      0.7816392153
      0.6734178733
     -2.0976960193
     -0.5859314328
      0.9474642703
      0.4958195799
      0.3582692497
      0.4207834938
      0.3262497457
     -0.3668081969
     -0.0442407393
     -0.2991590487
      0.9231692183
      0.7842512870
     -0.1192379355
      0.1254297126
     -0.3564028170
     -0.1927873033
      0.5340346249
     -1.0972564113
     -0.2200146993
     -0.4421618082
      0.6860256493
      0.9556844972
     -0.2205583928
      0.3619496107
      1.4513611558
      0.2369861318
     -0.4991900085
      0.7614386540
      0.0093150515
      0.5083057635
      0.5242578486
     -0.5570172641
     -0.2795153005
     -0.0249004781
     -0.6807399848
     -0.8323163663
      0.9268741646
     -1.0461680599
      0.6943908696
     -1.2142343204
     -0.6703431562
      0.8136526794
     -0.3809734429
      0.9393876075
     -2.7716278113
      1.5696605454
      0.1478305519
     -0.9494311658
     -0.4723950911
     -1.1184954172
      0.8187782770
      0.8951214143
     -1.3629001062
     -0.0179954275
      0.1557172285
     -0.9019395083
     -0.5899587534
      0.7058378460
     -0.3057099704
      0.7307294589
     -0.5430482472
     -0.4042883121
      0.7193584425
      1.1274445611
      1.2796883019
     -0.1699512999
      0.0768042636
      1.1737344123
     -0.0235712820
      0.1172379413
      0.4652610520
     -1.4831850038
      0.7097418022
     -0.4130455041
     -2.4147797763
     -0.3687283358
      0.7639729381
     -1.1211840870
      0.3983497652
     -0.6061147716
     -1.4075089220
      1.5938765402
      0.7195003446
     -0.7840504673
     -1.6494436384
      0.5941551941
      0.2548892443
     -1.2281087743
     -2.0728788837
     -0.8519601842
      1.0138160416
     -0.5021288153
     -0.4911722735
     -0.5427194687
     -1.3069840113
      0.9321954938
     -0.4421494049
      0.7817340204
     -0.8648721899
      0.9424061825
      0.6677515253
     -1.0583771394
      0.3814972588
     -0.0894343831
     -0.2181898172
     -0.2651428124
     -0.0843486455
      0.4189409970
     -0.6215962002
     -0.3693119394
     -0.9952611023
      0.6476002385
     -0.8941220470
     -0.7053856476
     -1.8180024720
     -1.2176413952
      0.1231953706
     -0.0634919424
      0.4934313324
      0.4299271386
      0.7836949381
      0.3217077422
      0.5522309202
     -0.5671391947
      2.7721682007
     -2.6766821120
     -0.3329046075
     -0.0205724810
     -0.4661771499
      0.6138828704
      0.8074854508
     -0.2939297368
     -0.5292456542
      0.6385153986
      0.6363731968
     -0.1989084188
      0.5681566196
     -1.0992138027
     -0.3524086758
     -1.0325644334
      1.0334888534
      0.6907820704
     -0.1025301161
     -0.8408678102
     -0.6803422722
      1.2926833371
     -0.0725688778
      0.1367202887
      0.6505977562
      0.3665491951
      0.4635500907
      1.1091767969
      0.5453911882
     -0.4724377074
      1.1631724753
     -0.0148558594
      0.4155497588
      0.5021190445
      0.8104517670
      0.9156276797
     -1.0499946655
      0.3723098717
      0.5533884521
      0.0131017169
      2.8387569415
      0.6792723604
     -0.4668090619
      0.4792693905
      0.0154446790
      0.6796465191
      0.5652617830
     -0.2056243215
      0.1835097855
     -1.3907957225
      1.8895058320
      0.3701948197
     -0.9031903521
     -0.1715848121
      0.2495369480
      1.2807820910
     -1.5009588147
      0.4033589758
      1.8682795876
     -0.1874130917
      0.6197161297
     -0.6274187569
     -0.2487654375
      0.3495936506
      0.0842741727
     -0.1851178417
     -0.9985545038
      0.4127096245
     -0.4853910131
      0.6100270161
      0.3592931075
      0.0614383243
     -0.8790278031
      0.1459672251
     -0.6498972354
      0.1002539424
      0.8017430469
      0.0759531457
     -0.4325081653
      0.2917503122
      0.3017472545
     -0.8853611310
      0.2883929512
     -0.0199888545
      0.4328774233
      0.4956932280
     -0.1414462800
     -0.2549930721
      0.4682329659
      1.2618282645
     -1.6129767231
      0.3762117233
      0.0804985284
      0.8119408039
      1.0098579182
      0.8896171770
     -1.4604739172
      1.1004042286
     -0.8683447526
      0.0220853978
      0.7876474316
      0.6860831506
     -0.6559505438
     -0.1112115982
     -0.3504406185
      0.0001343354
      0.9601286243
      0.4077003032
     -0.5402087294
      0.0074640725
      0.4912561037
      0.2737983532
      0.3326126681
      0.1808597038
     -0.2008949352
     -0.3362254363
      0.1009441775
     -0.4739046673
     -0.5908229238
      0.8139431747
      0.5163050752
     -0.1514573841
     -0.2573194941
      0.1345776009
     -0.0108574000
      0.0103711076
     -0.5096863254
      0.3692525575
     -1.7028222865
     -0.9349748196
      1.0279698019
      0.6750949801
     -0.3934313784
      1.0152498998
     -0.2999028815
      0.6130529083
      0.4408487651
      0.0071490753
     -0.7073384214
      0.5721510618
     -1.1438828740
      0.0583971630
      0.1901999261
     -0.0266086812
     -0.1517310225
     -0.0219696368
     -0.9269567107
     -0.2030425190
     -0.6759096704
      0.6335307391
     -0.9428903602
      0.0459782041
     -0.8253691367
      0.0845711103
     -1.2000650248
     -0.9912336543
     -0.0996336091
      0.1625940913
     -0.8332098213
     -1.4671059669
      0.1398335422
      0.2342455317
      0.6059808592
     -0.9819273887
      0.3749053240
     -0.1010695187
     -0.4277471824
      0.0600635400
     -0.4570127825
     -0.2602810522
     -0.5884654742
      0.2543516711
     -0.5716305028
     -0.0860803865
      1.3574092271
     -0.9603062938
     -1.6245516346
      0.5615850096
      0.7202480333
     -0.2434680521
     -1.2857384309
     -1.2330772364
     -0.1971963241
     -0.2545474799
      0.5118321163
     -0.4411435240
      1.0328497108
     -0.0908952709
      0.3172794762
      2.0548598162
     -0.3808147092
      0.2241001170
      1.2313028389
      0.8415604707
      0.1982531589
     -0.2150127139
      1.4114992248
     -0.1506822771
     -0.2444703525
      0.6232790662
     -0.1557682249
      0.4384848197
     -0.3457550953
      0.2795468983
     -0.4009273491
      1.3361263359
      0.8483697443
     -0.5640990333
      0.3802288058
      0.0227735552
     -0.0423499453
     -0.2037157986
      1.3300899509
      0.1048004502
      0.9944595972
      0.4821798378
     -0.0043817917
     -0.7383266025
      0.4759767766
     -0.5394948407
     -0.4538462592
     -0.2459226041
     -0.2947848401
     -0.3393975833
     -1.0909180757
     -0.2008175267
      0.4582943342
     -0.6119110687
     -0.7310689455
     -1.6847524005
     -0.1919185713
      0.4259293376
     -0.2919319330
     -0.8552501195
     -0.3880633180
     -0.9683626920
     -0.5875194934
     -1.0114357888
     -0.0486594311
      0.1326232915
     -0.3195620141
     -0.2613951150
      0.2799744207
     -0.1185351736
      0.2054421482
     -0.2292463330
     -0.5034845343
      0.5939802327
      0.0620434103
      0.4183522153
     -1.1801403295
     -1.0637330129
     -0.7265756680
     -0.9527716635
      0.0542513556
      0.3393655891
      0.0820645845
      0.9643892749
      0.8808442881
     -0.2874344647
     -0.2050669823
     -1.1380633404
      0.0247075528
     -0.5094872024
     -0.2755828780
      0.6764783792
     -0.1615388664
     -0.7211691081
      1.1811068239
     -0.3413635618
     -0.4897436536
      0.6606061763
      0.0675239441
      0.0643896985
     -0.0571547651
      0.1557842641
      0.2214089397
     -0.5006309499
      0.1291430855
      1.2610730541
     -0.1907969218
     -0.3656976302
     -0.0466234106
     -0.5111121355
      1.9928633374
      0.4216193560
     -1.1561456562
      0.3571754135
      2.4417992312
     -0.9756143189
      1.6917667361
      0.7179187538
      0.1902024703
     -0.3032355377
      0.3646701572
      0.0416909400
      0.9013329069
      0.6956238086
      1.2041041314
     -0.4311098045
      0.5400173356
      0.5145472440
      0.0340750749
      0.2247433490
      0.4014424359
      0.5539860848
      0.0818108736
      0.4541950951
      0.9190677292
      0.2364420428
     -0.7889939161
     -0.7385293492
      0.0265412123
      0.2483034105
      0.0606389543
      0.5729946314
     -0.2439900260
     -1.0939740531
     -0.2054144222
      0.3082744313
     -0.0992532097
     -1.1950046410
     -0.7268910923
      0.2895282189
     -0.3961758105
     -0.3321428688
     -0.4274640965
     -0.9797662221
     -0.1733677743
      0.1514751592
      1.0893849881
     -0.4897723823
     -0.4313106270
      0.0386396098
      0.0754820229
      0.0028170941
     -0.0582731309
      0.3029892458
      0.0345166478
      1.0446812558
     -0.5093205586
      0.2416746331
      0.2074043174
      0.6761800586
      0.1588057875
      0.8470881526
      0.5719758899
     -0.7067439931
      0.0917221096
      0.7176642246
      0.7114329810
     -0.5801346731
      0.4191992537
      0.4004292123
      0.4307252212
     -0.8035700385
     -0.1444887716
     -0.5280051164
     -0.2395633899
     -1.3841940205
      0.3196881509
     -0.0355835618
      0.9467817303
     -1.4648458631
     -0.5823751194
     -0.1488137898
      0.4480016059
      0.2033447834
     -1.0916776067
      0.5310850282
      0.4210166878
      0.9484123532
      0.4784796040
      0.1882304285
     -0.5362034122
      0.4545666674
     -0.9134715355
      0.0613024665
     -0.4054882345
     -1.4479652313
     -0.2512010254
     -0.6951574875
     -1.1179659809
     -0.3483313306
     -0.7121509182
      0.3743981806
      0.0324878480
     -1.2508639152
      0.1846268124
     -0.6039842903
      0.2853074904
     -0.3564172337
      0.3924349090
     -0.2771217452
      0.3014272103
     -0.3547303549
     -0.2523990147
     -0.0132245709
      0.2510795398
     -0.1875672695
     -0.4099949531
      0.4573540487
     -1.1503495584
     -0.1245972145
     -0.8394439907
     -0.2940826970
      0.2148173495
      0.2842695101
     -0.0902933416
      0.1639433436
      0.0074655075
      0.7794104805
      0.1660136648
      0.3031226535
      0.5043240661
     -0.2212930173
     -0.4455687904
      0.1464976465
      0.3796082760
      1.4338628403
      0.7256509634
     -0.3283197373
      0.1539241269
      0.4575163219
      0.0302167370
      0.9006410251
      0.6394889541
      0.2428503504
      0.0337702238
     -0.4518066934
      0.4348787404
      0.4224557305
      0.4910300115
      0.6569767017
     -0.0845643637
     -0.8843051784
     -0.3133590829
     -0.4914775018
     -0.7293808178
     -0.1895601597
     -0.6269720304
     -0.3592230308
      0.1510604973
      0.2607982149
     -1.7401556562
     -0.4979147140
      0.6256766404
     -0.8156681407
     -1.9076365987
      1.0481418697
     -1.3379121832
     -1.3494414772
      0.4893735657
     -0.8935480876
      1.0235562421
      1.0036103079
     -0.7603201750
      0.4380551227
     -0.9646172103
      0.7920681742
     -0.0388211105
      0.7555872724
     -0.6338901236
      0.7700263400
     -0.1063214319
     -0.3891096118
     -1.4266997559
     -1.1590015210
      0.9033264957
      0.7121923756
      1.4126642535
     -0.3373454518
      1.2681729666
     -0.1001255886
     -0.7144227978
     -0.2307961510
      0.1992209620
     -0.5598230628
     -0.6299879117
     -1.4326661412
     -1.2728256433
      0.4234964340
      1.0930274943
     -1.0735982565
      0.6537986433
     -1.5031128432
     -0.4516492998
     -0.9776635453
      0.6276517478
     -0.0109806205
      0.2404348141
     -1.1315011005
      1.5900445592
      1.3242466582
     -1.4288143763
      0.3262908715
     -0.3339834755
     -0.0172335136
      1.1071455357
     -1.2312293592
      0.0486428044
     -0.3939556680
     -0.1944545978
      0.2944094575
     -0.1403934734
      0.3328276788
     -0.7654151589
      0.1984853951
     -0.0513710830
      0.2116137829
      0.7389149400
      1.0726616642
     -0.5601190497
     -0.4648651071
     -0.0480218234
     -0.0136645313
      1.5092619501
     -0.6057743251
     -0.6569400201
     -1.0501666093
     -0.7321834626
     -0.5205040467
     -0.8667704114
      1.1384225204
     -0.3628305287
     -0.0595368687
     -0.6543932608
     -0.4883605126
      0.0776386240
      0.8964848245
      1.5033445897
     -0.5456521868
     -0.2475494667
      1.2618849837
     -0.2358966120
     -2.0008841107
      0.2263427382
      0.6538935350
     -0.5151817656
     -0.6104428146
     -0.5021302895
     -0.5556913404
     -0.0744306254
      0.9719205276
      0.5618856196
      0.2081279489
     -0.6533662552
      0.6987771325
      1.0237854530
      0.8555729610
     -0.7732290584
      0.0585734807
      0.3347614970
      0.6064150413
      0.3776860566
      0.3576440860
     -1.2335934673
      0.1992678597
      0.1525083483
     -0.4414852205
     -0.1464589422
     -1.5957364712
      2.7156324264
     -0.7596153339
      0.9613160199
      1.8107068105
      0.3139881482
      0.7155577962
     -0.7441252523
     -0.0677494672
      0.0360469646
     -0.1241092320
     -0.0355771637
     -0.0904744198
     -0.0663559822
      0.0543242870
     -0.1369369623
      0.0818647583
     -0.0191910655
     -0.1442667034
