      1.5323207926
     -0.2818783781
      0.3408348874
     -0.0512239102
      1.1110078565
      0.3790962929
      0.2841886263
      0.0907168224
      0.1294600180
      0.5871215586
     -0.3417379485
      0.1048407610
     -0.4428621368
      0.1943343747
     -0.4844778410
      0.1185070980
      0.0245832907
      0.1828704958
      0.1090322837
     -0.6703687581
     -1.7558847685
      0.2209546232
     -0.7656307396
      0.2586219019
     -0.5991245257
      0.2433896391
     -0.1377241692
     -0.1550334042
     -0.2992365979
      0.6147536245
     -0.3010544378
     -0.0427904394
     -0.0088773920
      0.2043675478
     -0.5689546686
     -0.2417450550
      0.1200357504
     -0.3379877548
     -0.1605648866
     -0.1440557854
      0.3620409748
     -0.2466518838
      0.1527897508
     -0.0398186036
     -0.1809600094
     -0.2545146405
      0.3642536552
     -0.1725283143
     -0.0649143124
      0.2183651292
     -0.8932591763
      0.4296721353
     -0.2103422682
      0.5170547555
     -0.7340776759
     -1.8701021036
     -1.4026868515
     -0.9929014601
     -0.1186348917
     -2.4580692622
     -0.8729164014
      0.6120848799
      0.8151395789
     -0.1824245348
     -0.5685406484
      0.0456319971
     -0.9325025314
     -0.1698393307
     -0.4360229669
      1.2039449181
      0.4169991924
      0.4753296132
      0.9092644221
      1.2239525410
      0.0754001076
      0.1819517122
     -1.7106363393
      0.0628416482
      0.0595592847
     -2.4263916958
      0.5391883844
     -0.1745930136
      0.4228114198
     -1.0232314776
      0.1123295781
     -0.2549437860
     -0.3713788522
      0.4672449114
      0.3179012654
      1.7688499258
     -0.3148090304
      0.8213442439
     -0.5229139851
     -0.0790790447
      0.3233494196
      0.2829174743
     -1.4777930241
     -0.1115005805
      0.5213006351
      0.7739044625
     -0.7687614439
      0.2706985451
      0.2229513531
      0.4843759512
      0.1944267051
      0.8620395350
     -1.6012286234
     -0.6122740757
      0.1208786403
     -0.4066833795
      0.6290057991
      0.1627567622
     -0.3267084005
      0.4341720689
      0.0199583057
      0.2921398485
     -0.0249854064
      0.2368634776
      0.0131890508
      0.0603553303
      0.1468030220
      0.8235386840
     -0.7033003907
     -0.6317633483
      0.2440357093
     -0.6253976176
      0.4925179637
      0.4927103935
     -0.1261088050
      0.9665866042
      0.5669943311
     -0.1438087203
     -0.1438034681
     -0.3123360189
      0.0832191622
      0.0576069007
     -0.4849911720
      0.1936994562
      0.2304765563
      0.9579945483
     -0.0205979232
      0.4859174566
      0.1429484400
      0.3834044788
     -0.1989514393
      0.2020039861
     -0.2292191359
     -0.3493534095
     -0.0423246101
      0.7585529401
      1.1773091007
     -0.4351172082
      1.4727747897
      0.3400319450
      0.5605763763
     -0.2765059804
      0.6830298750
      0.0967590433
     -0.8023075088
      1.3578573133
      0.4661725199
     -0.5005584430
      0.7734680488
      0.6556167110
     -0.2878284497
      0.3760454622
      0.1827334838
      0.2527151094
     -0.1675302857
     -0.2204831657
     -0.3636914702
      0.3884501671
     -1.3160120441
     -0.3594112343
     -0.5313072507
      0.5732917831
     -0.2454336398
      0.0186932942
      0.9054332548
     -1.1399315371
      1.4746507823
      0.0899256323
      0.3299022678
     -0.1636834005
      0.4323383700
      0.3045242519
      0.2168849681
     -0.2936589209
      0.2392903275
      0.4618526311
     -0.9211005430
      0.0013266129
     -1.3142033040
     -0.0209324699
      0.6724824972
      0.8156391703
     -0.3285654928
      0.7489119166
      0.4799015488
      2.3319589665
      0.5390421291
     -0.5836469125
     -0.6774133673
     -0.1874294662
     -0.0003248680
      0.4328046609
      0.8700864721
     -0.4713809966
     -0.2457430105
     -0.3772538494
      1.0381589930
     -0.7930865825
      0.0441918282
      0.4864974284
      0.1735926232
     -0.5549354391
      0.0402598352
      0.0462557380
     -0.8549086353
     -0.4539733755
     -0.8959497929
     -0.0502234172
     -0.5794692653
      0.1388922664
      0.2696825553
      0.3422639806
      0.0239624883
     -0.3374288357
     -0.3795379081
     -1.1275527632
      0.2114688445
     -0.5352043740
     -0.0258170211
     -0.4367194093
      0.2980300982
      0.0498537874
      1.4847068955
      0.3292534559
     -0.1097570815
      0.0627717510
     -0.6167202887
     -0.3673543499
      0.8712127520
      0.8465116407
     -0.3334649811
      0.4260339979
     -0.3244097065
     -1.2531655076
      0.0279275842
     -1.5026417289
     -0.8341188214
      0.3078154855
     -0.9421941439
     -0.0458853303
     -0.0524189135
      0.6454353823
     -0.8097327443
      0.0584021198
      0.7006494459
     -0.2591080296
     -0.1558097552
     -0.1786658212
      0.0167161163
     -0.5848185301
      0.1298167245
     -0.4229387946
      0.3942355414
      0.3515317441
     -0.1898816154
     -0.1161466621
      0.5870653422
      0.0995536534
     -0.5226218127
     -0.3141874200
      0.2803010907
      0.3290673696
      0.6607283302
     -0.1973846685
      0.3760917389
     -0.1157651543
      0.2557353187
      0.4617523287
      0.4166112094
      0.2150491090
      0.1882861231
      0.1994135369
     -0.0896918141
      0.5679424155
     -1.3424026932
      1.0303820199
     -0.3928799717
      0.1917805931
     -0.2687267253
      0.1089772753
     -0.4181671416
      0.2782922383
     -0.3946214604
     -0.0395849716
     -0.1353052794
      0.1366961485
     -0.4933461463
     -1.4712133170
     -0.1949108521
     -0.1024196958
     -0.4143367305
      0.0488506551
      1.8543264955
     -0.2840842570
     -0.8887590162
     -1.9032648732
     -0.4699664887
      0.2171498681
      1.7254451021
     -1.0887722083
     -1.2842839286
     -1.0849158617
      0.8936385331
     -0.0503788687
      0.8519831809
      0.2909986212
      0.4705135565
     -0.7553394308
     -0.4417156265
     -0.2852414277
      0.1149388702
     -0.8013049814
     -0.0883806510
     -0.0601445534
     -1.0699091843
      1.2663369523
      0.3737462882
     -1.7775372258
      0.0081948671
     -1.0251954651
      1.0053312365
      2.3162418899
      3.4678630334
     -0.9657568915
      0.5252904486
      1.0592186723
      1.4634562610
     -0.0950599053
     -0.2444649631
     -0.3734517761
     -0.4673021040
     -0.5943639026
      0.9480800023
      0.5197100954
      0.1874066618
     -0.3792050969
      0.1448633008
     -0.3787916982
      1.2494494891
      0.1379295348
     -0.6582021438
     -0.5396567109
      0.0841065921
     -0.2787026405
      0.3401586967
     -0.2712069855
      0.0836035953
      0.9551416110
      0.0843947713
      0.0039322851
     -0.6485393905
     -1.2107756792
     -1.0833249770
      1.3762229564
     -0.2711969708
      0.9651794559
      1.1438977459
     -0.1383581835
      1.7019541989
      0.6136340797
     -0.4228832308
     -0.6293771030
      0.7238047750
     -0.1165752959
     -1.0618553303
      0.3927089553
      0.2146085529
      0.0661121389
      0.1905010659
      0.0505362724
     -0.7442828963
     -0.3427817527
     -0.6313020980
     -0.0534929104
      0.4858436099
     -0.6830155038
     -0.5265939010
      0.2715529822
      0.8678492177
      0.6057135938
      0.2992500254
      0.1482168754
     -0.7715530597
      0.1431911260
     -0.0494316544
      0.3768466401
     -0.2794624836
      0.4054750528
     -0.8346298184
      0.0750476528
     -0.8972810565
     -0.1405882353
     -0.4244069467
     -0.0436017230
      0.0239401115
     -0.1735897179
     -0.3242845520
      0.2734484719
     -0.0280092669
      0.0863675368
      0.5902173022
      0.1814521694
     -0.0614835289
      0.3405552573
      0.1527641280
     -0.0679715804
      0.4625160203
     -0.5130828482
     -0.6228738627
      0.4243859151
      0.2185783478
     -0.9464820530
      0.5540256997
     -0.5653959307
     -0.2326764783
     -0.5033968780
     -0.1605906418
      0.5824656561
     -0.5828042684
     -0.0488429581
     -0.2895067917
     -0.0188380177
     -0.2550175898
      0.3168580890
     -0.1217914525
     -1.3864934346
      0.0977295197
      0.3580621360
      0.1429834717
     -0.3128954088
      0.8720941019
     -0.0320753075
      0.0535992343
      0.5182152077
      0.8758850998
      0.7505707315
      0.0387566432
      1.0264907000
     -0.2357655731
     -0.2959924356
      0.1324567897
      0.4525425078
      0.2337955232
     -0.0239258698
      1.3044383842
      0.4615665534
     -0.0320119157
      0.0430986791
      0.3189071258
      0.2970985215
     -0.0775298665
      0.1364407383
     -0.0600910187
     -0.1178589826
      0.0606358054
      0.3847757918
     -0.7693928046
      1.0182230440
     -0.1982135703
      0.0358640557
      0.9790451099
      0.5042535594
     -0.9100018445
      0.2719042332
      0.4137091881
     -0.7610093822
     -0.8013379506
      0.2114762665
      0.4911251556
     -0.3095003618
      0.1826309335
     -0.3522053704
     -0.0327362712
      0.6002446848
      0.3678183641
      0.1704757183
     -0.5610573398
     -0.0856325260
      0.5262610730
      0.4765590059
     -0.1810491737
      0.1093548775
     -0.1442353968
     -0.1474182210
      0.3113773659
     -0.6387225172
     -0.3475840436
      0.1707296222
      0.4651684968
      0.6276972411
      0.1947878309
      0.3779586239
     -0.3013057442
     -0.0382116470
     -0.4124885402
      0.2429608414
     -0.4741788895
      0.4561303038
     -0.4590646903
      0.0154187331
     -1.2773539984
     -0.4270298975
     -1.7309843796
      0.2456746829
      0.9798913983
      0.6958870900
      0.0215231486
      0.0141109519
     -0.0961643923
      0.2001972010
      0.4884675723
      1.0589326543
     -0.5838743056
     -0.0013594525
     -0.1472513227
      0.5641013268
      0.0626266388
     -0.3844566153
     -0.2926656083
      0.3035503525
      0.1751145669
      0.4733400945
      0.9201644489
     -0.2412948936
      0.6266162486
     -1.0568745099
      1.6813378237
      0.2865059158
      0.6388641472
      0.3757639435
     -0.3996549505
     -1.7110847319
     -0.6036827412
      1.0251146317
     -0.3455186773
     -0.1950523865
     -0.7239881978
      0.0857376356
      0.0524174700
      0.1929461266
      0.2131526896
      0.3115925628
     -0.3649250098
     -0.2466584277
     -0.0978717564
     -0.3409168769
      0.3198235996
      0.0802324522
      0.3122776326
      0.1556894134
      0.2073198113
      0.1101205245
      0.2476056140
      0.4095789186
     -0.2962612928
     -0.9831528094
      0.5632598451
     -0.4747464047
     -0.4634479092
     -0.5590627469
      0.5687693486
      0.6720681542
      0.8818371664
     -0.8930416234
      0.4766746329
     -0.9607725204
     -0.3356392830
      0.0813579798
     -0.8389728452
     -0.2888546531
      0.6338461737
      0.2110618493
     -0.2967615298
      0.4165747671
      0.6492471479
     -0.5014897781
      1.2604024952
     -0.1627777575
     -0.6447641050
     -0.1019593522
     -0.3942998123
      0.0169299716
      0.3884075303
     -0.3068155956
      0.2325588349
     -0.4389099785
      0.9214554012
     -0.1940365248
      0.0115324687
     -0.0978705397
     -0.3936809985
     -0.2508366174
      0.2689093719
     -0.1364197420
     -0.0353932724
      0.4035466423
      0.2691700473
      0.6848219133
      0.8392247212
     -0.4186698027
     -0.5132626149
      0.3533206922
     -0.9397004206
      0.1941683560
      0.2526847851
      0.9506396497
      1.5452671361
      0.7406840024
     -0.2375003137
     -0.4505452399
      0.7121210427
     -0.0259674237
     -0.8111820877
      0.2831581584
      0.5571574954
      1.4752358291
     -0.6975564346
      0.6390544431
     -0.1386395861
     -0.0850190976
      0.0676185008
      0.3713035061
      0.9542762140
     -0.9544422337
     -0.8059192821
      1.2654227799
     -1.6759555629
     -0.2521662495
     -0.3592458752
      0.3085211965
     -1.1798691514
      1.7905064145
     -0.4396655692
      0.1607556294
     -1.0493838663
      2.0447843626
     -1.2047160814
      0.0068365399
      0.4461411563
      0.0714905290
     -0.6046223276
      0.7584309851
     -0.0170707578
     -0.5254420556
      0.0807055916
     -1.0041236914
      1.1594862568
     -0.2936905890
      0.4088436236
      0.5795436258
      0.2757895949
      0.5902526462
      0.2678201676
      0.0179884645
      1.0141570907
      0.6964300575
     -0.1040368172
      1.0260013049
      0.1111457116
      0.1386054492
      0.2925380088
     -0.9039033481
      0.7680431099
      0.8681179809
     -0.0963790629
      0.1233630614
     -0.4745249698
     -0.5156603346
     -0.6585006600
     -0.5940173541
      0.2949724757
     -0.6088279986
     -0.7993042475
     -0.5948056016
     -1.0108255583
     -0.5114294459
      0.4280750696
     -0.3321090906
     -1.2060550903
      1.3332343380
     -0.4087860341
      1.0009453704
     -0.2161746867
      0.0252787882
     -1.7373851091
      0.5666984400
      0.3223501916
      0.0211971149
      0.9402183312
     -1.1048060635
      0.4655079980
     -1.5565435023
      0.9860583438
     -1.3388219580
      1.5712947272
     -1.0841440668
      0.8170374163
      0.2230871597
     -0.2841114011
      1.6660403621
      0.2807750672
      0.7701441113
      0.3692625912
     -0.9113139747
      0.6536666701
      1.2466493917
      0.7324606996
      1.1132572324
      0.6840589380
      0.1704729992
      0.7488142947
     -0.3778498119
      0.5659406313
     -0.8659532212
      0.3728668751
     -0.8018298427
     -0.7166679144
      1.3876897491
     -0.3663560479
     -0.7068043668
     -1.0050031735
     -2.7200309308
     -0.0706224893
      2.3705675814
     -1.2754200391
      1.4426068938
     -0.2883189668
     -0.5968994920
     -0.2206359053
     -0.0943429427
     -0.0898060587
      0.2953623653
      0.2114325261
     -0.1163030953
     -0.0506315333
      0.3959029758
     -0.1027008606
