      0.2121902178
      0.0294784154
     -0.1409100958
     -0.0180384365
      0.6905290108
      0.1944171967
      0.0993659344
     -0.1789519166
     -0.1974037152
     -0.0445471031
      0.3696661858
      0.1849278064
      0.2001574739
     -0.0835055849
     -0.2455214240
     -0.3890439914
     -0.5097543269
     -0.4082515321
      0.0061431112
     -0.0586150806
     -0.1250341875
      0.3919631713
      0.0325576102
      0.0535733745
     -0.8253452733
     -0.2290859964
     -0.0053761899
      0.0616232278
      0.0415305015
     -0.3364036057
      0.0008607134
     -0.1443477616
      0.3583349679
     -0.2269021602
     -0.4323840219
      0.4998095264
     -0.1322677953
      0.0901803936
      0.0849462358
     -0.2702658651
      0.6449285455
      0.5441811976
     -0.1758391374
      0.2212940544
      0.0886061020
      0.0062203244
      0.0982575021
     -0.2713863050
      0.0653497538
     -0.1762419019
     -1.7082626910
     -0.0961067954
      0.3345163890
     -0.7319678685
     -1.1755176939
      0.1602184415
      1.6058881148
      1.5907036076
      1.0654622962
      0.4902335203
      0.1677989586
      0.3567438648
     -0.7586105593
      1.2864730618
     -0.8753986033
      0.3399763166
     -0.4194450440
      1.2831380075
     -0.4405480781
      0.2707644701
      0.5684808467
     -0.7303635877
     -0.1028994886
     -0.2189353173
     -0.4628067150
      1.3902317207
     -0.8467197311
      0.1437430030
     -0.1136868186
      0.3099512864
      0.8757036675
      0.6053531108
     -0.5525468050
      0.2333322258
      0.4066009522
     -0.9717460633
      0.3463644999
     -0.2883441413
     -0.0043986113
      0.1977348509
     -2.0412886801
      0.4839931876
     -0.5215188089
     -0.0520143770
     -0.0149266870
     -1.0216343470
     -0.7754789288
      1.4193621373
     -0.3021840940
      0.6400469410
      1.5107286213
      1.6741837279
     -1.9268996382
      0.2531216980
     -1.0541351642
      1.1564276564
      0.1912664983
      1.1082680483
      0.6987302457
     -0.9374936786
      0.0720892925
     -0.7802683188
     -0.5805302077
      0.6058906422
      0.0724808838
     -1.1985168351
      0.6196910307
     -0.7924806225
      0.8049018525
      0.3195737290
     -0.3542625462
     -0.0900192678
      0.4601070063
     -0.4745772911
      0.9837063866
     -1.0600273000
     -0.0423060247
      0.8928882641
      0.3078753955
      0.3711919893
     -2.2104525016
     -0.5916598894
      0.8920361298
      0.2404405005
      0.5893603796
      0.0704381719
     -0.8828437056
     -1.5842773513
     -0.0645752027
      0.4559103664
      0.6955117925
      0.2349010507
      0.6415956983
     -0.0578403514
      0.2774852899
      0.5895032901
     -0.4118280045
      0.8299835040
     -0.2931463582
      0.3170855961
      1.9468510292
      0.1840737941
     -0.0723298369
     -0.4913038031
      0.4341428537
     -0.2923264491
      0.5913140665
      1.1658424671
     -0.0749179593
     -0.2284966808
     -0.6274769136
      0.0108873693
      0.1990545302
     -0.7569668566
      0.6056476629
     -0.4057892729
      0.9769845572
     -0.1947663311
      0.0192013132
     -0.2740517030
     -0.0612147944
      0.3487216409
     -0.0323381111
      0.2657458703
      0.3467921824
      0.5940964770
     -1.7841658278
     -0.7168630452
     -0.2636579715
      0.4295895906
     -0.4313481100
      0.5181845075
      0.0193212455
     -0.1390030813
      1.0655902234
      1.0513485546
      0.5012832221
     -0.3281910136
      0.0883275005
     -0.1686132701
     -0.7155695574
      1.2158776057
     -0.2319425286
      0.3107481016
     -0.4547186950
     -0.9040973701
      0.5636079031
      0.6619093056
     -0.3748654897
     -0.5238916815
     -0.6044706251
     -0.0676005636
      0.8984342826
      0.6741571731
      2.3264879679
     -0.8013561537
     -0.4362763189
      0.1745352155
     -0.0619418800
     -0.4161022863
      0.4258393205
     -0.1796160168
      0.6006591048
     -0.8173776379
     -1.0594187061
      0.3978957869
      0.8938788855
      0.3184207738
     -0.4114608100
      0.5368697965
     -0.2966573719
      0.1146708707
      0.2703156488
     -0.2186844495
      0.0122488769
     -0.1651871520
     -0.6349398766
     -0.4324850979
      0.3718373752
     -0.5598611445
     -0.3470363200
     -0.4391853145
      0.6235150424
     -0.3239768894
     -0.9253098424
      0.0804841161
     -1.1437019483
      0.2679728958
     -0.0904240057
     -0.0011674015
      0.2369061707
     -0.0231252895
     -0.8203253987
      0.6445697801
      0.6654690764
      1.0456325939
     -0.6519276443
      0.1152242195
     -0.1580510499
     -0.2253745405
      0.0569138972
     -0.9406861653
      0.3470623312
      0.2935917534
      0.0367533321
      0.8957329603
      0.1300040861
     -0.1839872278
     -0.3486393177
     -0.3992121177
      0.7497446748
      0.9050580339
      0.0573328063
      0.9557697021
      0.1750104226
     -0.7317463408
      0.1670192885
     -0.4449379280
      0.1596073350
      0.1558177438
     -0.2804214280
      0.6315624090
     -1.3425826445
      0.6674974111
      0.0663464218
      0.3624685189
      0.6738653445
     -0.2235381613
     -0.4630801281
     -0.7939579014
      0.4219869222
     -3.2328609271
      0.3506372502
     -1.6042093574
     -1.1636967793
     -1.7930769740
     -0.8050421120
      1.9826715158
      0.7377949845
      0.2700120580
      0.0722553554
     -0.8520476355
      0.0278019352
     -1.6337492994
      0.0133813974
     -0.1337191011
     -1.2770592013
     -1.4147095720
      2.0289816337
     -0.3962538361
      0.0840171181
     -0.3177428598
      0.0961707307
     -0.4019798957
     -1.4725592005
     -0.3188266233
      0.0346552510
     -0.7811877606
     -0.2843438588
      0.5487904515
      0.5125507543
      0.1697239660
      0.8505837798
      0.2072350160
      0.1081052067
     -0.7596004444
     -0.6411212616
     -1.0801702653
     -0.1895644940
      0.2872931193
      0.7664692701
      0.7927287124
     -0.1481932188
      0.2271717718
     -0.6234084517
     -0.0567823821
      0.5641258920
      0.3442303703
     -0.2775075481
      0.4511820765
      0.1355207294
      0.4794011276
      0.0326366411
      0.6462418079
      0.4726806449
     -0.7590914151
      0.5486650973
     -0.2887398768
     -0.1500420673
     -0.0705619088
      0.1444340329
      0.4227517012
     -0.3154995796
      0.0415179903
     -0.1360349768
      0.6261944169
      0.8725269118
     -0.0910120599
     -0.1576510207
     -0.0678959491
     -0.8886861684
      0.5468487180
      0.6621108025
     -0.7144932347
     -1.1016408368
      0.2909423683
     -0.5089140232
      0.7500308534
      0.6309102785
     -0.9022766328
      0.1890863383
     -0.1312622683
      0.4497709095
      0.8356047377
      0.6811768439
     -0.6586229177
     -0.3841759979
     -1.4917710343
     -0.7927532277
      0.0589105069
     -0.3955987555
      0.8492092072
     -0.5821150144
     -0.4977007588
     -0.3429448513
     -0.9751776445
     -0.4220127134
      0.0781703605
      0.1628164170
      0.7065621070
     -0.3264613771
      0.0956013952
     -0.4346675207
     -1.2261450263
      0.1183215064
      0.5335110474
      0.3156583227
     -0.5928259192
      0.1512695394
     -0.8074746158
      0.0719113667
     -0.3148789651
      0.5069143657
      0.1742211336
      0.5670939973
     -0.2376099521
      0.9422518895
      0.5291761844
      0.1292093430
     -0.5556464275
      0.4075817448
     -0.5325798101
     -0.2199843353
      0.4069944275
     -0.3582414774
     -0.7501161157
      0.5426132597
     -0.4350822673
     -0.6076527508
     -0.1863963799
      0.4743007540
      0.2602302216
     -0.9607416595
     -0.2185595683
     -1.1945285551
      0.7934682037
      0.6946727004
     -0.1536421730
      0.1104540512
     -0.1835397609
      0.4148852066
      0.3545048689
      0.0461786505
     -0.1386724007
     -1.4959714190
      0.5617854161
      1.0937229011
      0.2766340735
     -0.0970817594
      0.1653593706
      0.1966376267
      0.0863580821
     -0.3410177284
     -0.2381678374
     -0.9638788395
      0.5825764354
      0.4554040923
     -0.0912526115
      0.0903411208
     -0.1873560489
      0.2768031125
      0.1408178269
      0.1188179368
     -0.0973959910
      0.1413030309
      0.1996702617
     -1.5792748089
      0.1998318895
      0.0786743072
     -0.3342389777
     -0.3576694039
      1.3634670641
      0.1592970607
      0.3569306372
      0.2625705983
      1.3026754121
      0.2513143462
     -0.9323014921
     -0.4550954017
      0.0718183296
      0.1376446124
      0.3577899699
      0.2542559703
      0.4719808328
     -0.5231346124
      0.4546987523
      0.5694034401
      1.1736420751
     -1.1302221375
      0.7047808949
     -0.3352893226
      0.1427589553
      0.2878362123
      0.4265528251
      0.8184558303
      0.0794711923
     -0.1843097581
      0.5288380239
      0.1754949447
     -0.4868031258
      0.6793271556
     -0.5107761852
     -0.2158932009
     -0.1495801313
      0.3645218436
      0.6314301581
      0.9666695843
      0.4483341992
      0.3745750206
     -0.4840111681
     -0.2410503193
     -0.4711193362
     -0.3664939841
     -0.0771785683
     -0.1247534171
      0.4799635915
     -0.0525071797
     -0.2323428919
      0.2253876629
     -0.2594507025
      0.0436082042
     -0.8572031937
      0.2226806339
      0.0217511131
      1.4662288403
     -0.1459634453
     -0.1391049396
     -0.2911058282
     -0.1819670074
      0.6919680253
     -0.0396122260
     -0.1926724335
     -0.0394344612
      0.4130553867
      0.9191164683
     -0.9772246147
     -0.3755605018
     -0.2849078871
      0.1678668236
      0.3100918318
      0.5410064473
      0.4009798863
     -0.0682037922
      0.4184696618
      1.1634836506
     -0.2827325345
     -0.4977008076
     -0.3262001307
     -0.9952739110
      0.6731507876
      0.0029926889
     -0.1320091964
     -0.4337879491
     -0.3140022324
      0.5661170320
     -0.1455437239
      0.8496867687
      0.5985005467
      0.6299857733
      0.2201602178
      0.2909409591
     -0.5191717911
      0.5241113488
      0.3104994307
      0.2655069475
      0.4123394411
      0.3035676049
     -0.2291374473
     -0.3320467824
     -0.2848268844
     -0.0766599010
     -1.0756646812
      0.3289074616
      0.2828814812
     -0.9774932461
      1.4875377441
      0.1341121750
      0.4280901400
      0.1025780971
     -0.3964148677
     -0.9052362391
      0.6339007088
      0.7346507933
     -0.3140858417
     -0.7388768720
      0.3101310076
     -1.1217453509
     -0.9729386997
     -0.3807948885
     -0.5126332802
      0.0638586969
      0.9111029463
     -0.8350442799
     -0.1596855126
      0.6806491715
      0.9401647735
      0.2139298006
      0.4987873190
     -0.9325712538
     -0.3140595461
      1.8920053016
      0.3478799582
     -0.3675488310
      0.0065948401
      1.7371667172
      0.2215347946
      0.8321304025
      1.1333780020
     -0.7177675087
     -0.2020551211
     -0.4029777202
     -0.0400497590
      0.9308053172
      0.5206378791
      1.0967993179
     -1.6128237562
      2.1576374791
      0.5234158440
     -0.8227168309
      0.1725402549
     -0.2833211834
     -0.1602541655
      0.8949426103
      1.0820382229
      1.2015343812
      0.8775855487
     -0.6417052203
     -0.4526790537
     -1.0499048576
     -0.4138748667
     -1.0587057887
     -0.2798445470
      0.3826367025
     -0.7989099080
     -1.0081242678
      0.1966968188
     -0.0228792949
     -0.2273797422
      0.2356628554
      0.2245692656
     -0.3794673691
     -0.2062245936
      0.8742161824
      0.2560381860
     -0.2707671350
      0.5568816131
     -0.2169588631
      0.0163704758
      0.9358390864
      0.5622357445
      1.1063254151
      0.0936085341
      0.7566312872
      0.7246740690
     -0.1496951481
      2.0179022979
      0.0168804999
      0.4420213704
      0.6206825214
      0.5550869173
     -0.9844886203
      0.4389857730
      0.9856512207
     -0.1215213450
     -0.3903508405
      0.4785060249
     -0.6160199450
      0.9129846889
      0.4985056700
     -1.7310598636
      0.9040117041
     -0.5345029878
     -0.8981849478
      0.6280462006
      1.1812232673
     -1.0560835616
      2.6076773980
     -0.8594840668
     -0.2112029107
      0.4146893104
      0.8609094826
     -0.3298663957
      0.4699600786
      1.4012498789
      0.7754081145
     -1.2481168010
      1.2420943759
      0.2356578253
     -0.1572849857
     -0.4858640356
     -0.6659437969
      0.8607230519
      0.5359908979
     -0.5840904158
     -0.2313928941
      1.4790501779
     -1.8744839229
     -0.6593667130
     -1.2742685112
     -0.6777875820
     -0.1435472734
      0.1373961799
     -0.1928936047
      0.1179640650
     -0.0966524151
      0.0223877743
     -0.0829235941
      0.1479003603
     -0.2251185741
     -0.0492416514
     -0.2367443467
