      0.2703940416
      0.1372984404
     -0.3677061236
     -0.4295886936
     -0.6592664893
      1.3117905638
      0.6457269232
      0.1082172698
     -0.3917686728
     -0.1558852992
      0.5705102451
      0.0615488829
     -0.0332830803
     -0.1490416738
      0.0268948115
     -0.3619772597
     -0.6385492205
     -0.5545260537
     -0.0176358547
      0.0440894877
     -0.0391751709
      0.3484857464
      0.0865094266
      0.0218242445
     -0.2239829052
     -0.5385180051
     -0.3099408516
      0.5600665881
     -0.1257849590
      0.1329251456
      0.0316256019
      0.1726186232
     -0.0650592874
     -0.1627047769
      0.2592633200
     -0.8817472037
      0.2713969983
     -0.0002817246
     -0.3552047509
      1.0817628269
      0.8637649145
     -0.0487364782
     -0.0931120992
     -0.3567017180
     -0.0526474970
     -0.2440525086
      0.0317546185
     -0.4682339678
     -0.3222456178
      0.6155475707
     -0.1755893041
     -1.0447983940
      0.5340912542
      0.5906499985
      1.7640062258
     -1.4191124770
     -0.4493431944
     -0.9176479693
      1.4502096868
      0.0203839804
     -2.5603364200
     -0.8254879106
      0.5798408321
      0.9868197069
     -0.4072376812
      2.2533259035
      0.2369748899
      0.9520759730
     -2.5343575190
      0.5593941506
      2.1408124018
     -1.6122348789
      0.5515954716
      0.6799106225
     -1.5349147378
      1.8174634615
     -0.7136911168
     -1.7833226511
      0.3936549021
     -0.5109688542
      0.3503443864
     -0.2157428720
      0.2127554561
      0.0705706600
      0.4049337805
      1.4172517812
     -0.5417870317
     -0.0656896907
      0.2721081055
     -1.6064891602
     -0.8020017858
     -0.3493034683
     -0.4108454716
      0.9110551461
     -0.2279092468
     -0.1365223734
     -0.5580879141
      1.2570100639
      0.4772045005
     -0.2329193667
      0.6509458111
     -0.6772469716
      0.1160260387
      0.1027408742
     -1.0168658115
     -0.7260925651
      0.1642850322
     -0.2527294793
      0.0547102181
     -0.1851821259
      0.7019577170
      0.4793316486
     -0.7749796444
      0.7755178059
      0.5192999023
     -0.4686512031
     -2.6135805324
      1.3842394943
     -0.3926317575
     -0.0714475138
     -0.1399997898
      2.8194306692
     -0.4494702560
      0.8920765059
     -0.3855696736
     -0.0442129094
     -0.9300413781
      1.4451457392
     -1.0485880025
      0.6440605301
      1.3148097131
     -0.0012305344
      0.0603675341
      0.7131811862
      1.2209969346
     -0.5789219805
     -1.1728073763
      0.3814059229
     -0.1940118704
      0.5327811504
     -0.9852787338
     -0.2600073670
      0.4533214118
     -0.4767542031
      0.5705478777
      0.2258875727
     -0.1558269687
      0.5879608809
      0.5080629143
      1.6537015776
      0.1944954339
     -1.1529575672
      1.8311263886
      0.3230906052
      0.7383514629
      0.8654093191
     -1.2708962912
      0.3989960637
     -0.6254686231
     -0.5632006527
     -0.0374944580
     -0.8017392267
     -1.0718889126
     -0.2232793006
      1.4222693790
      1.1860396230
      0.1272164231
     -0.9550192235
     -1.3255800944
     -1.1839348917
      1.0152049200
     -2.4261245584
     -1.5015958292
     -0.9220477350
      1.9571152577
     -0.7975315051
     -0.6083187706
     -0.3946405402
      0.1595587472
     -0.7687132598
     -0.9773897373
      1.9968646540
     -1.4119602301
      1.1098760543
      1.1002892632
     -1.7901331466
      0.8065061872
      0.7521172630
      0.0486399776
      0.8611197871
     -0.0539176365
      1.1448303684
      0.6787740183
      0.0183263343
      0.3105460101
     -0.4680194997
     -0.0985312015
      0.9481941617
      0.6442426000
      0.8016575338
      0.2770670387
      1.0212724282
      0.2342888201
      0.9238441642
     -1.1801130852
      1.3423312988
      0.0032111914
     -0.1308511762
     -0.5028240480
      0.2225602080
      1.7960179318
     -0.9123159860
     -1.9456354606
     -3.0350576839
      0.5939356532
     -0.8690422562
     -2.9251439172
      1.2676249865
      1.1637006757
      1.1565543217
     -1.9074077820
     -0.7824884693
     -1.1669635809
      2.5073623502
      3.4784388011
      1.0302788668
      1.7519030278
      0.7008370053
     -1.5084310489
     -0.4336776028
      1.5873525172
      3.7145644199
     -0.4342918331
      0.4638348303
     -2.3714578668
      1.0783781972
      2.2871072088
     -2.2219225158
      0.3341657361
     -0.0015905464
     -0.0206056256
     -0.6427126977
     -0.0175615089
      0.2170455240
      0.4244624563
     -0.0140732950
      0.0873321280
     -0.4258344551
      0.0189638466
     -0.1487591265
      1.4706067309
     -0.2935183906
     -0.1496388086
      0.4070857856
      0.4145210600
     -0.3206563809
     -0.2635910908
      0.0385273537
      0.3386702551
      0.8453567560
      0.8253318867
     -0.2735193551
      1.0815567133
     -0.6357609112
     -1.4646338658
     -0.1851361328
     -1.0675672024
     -1.1696092283
      0.5714316728
     -0.3917777937
      0.5263485587
     -1.3483290406
      0.6630929533
     -0.4133861009
      0.4049917263
     -0.6454366840
     -0.2360265150
      0.4885088911
     -1.2190531048
     -1.4261004624
     -0.5475356761
      0.9130974628
      0.7823852366
     -0.9276002722
      1.7983124767
     -1.1304777689
      0.7948362081
      0.2921222013
     -0.4381426363
      1.5002371698
     -0.4812666378
     -0.3581965021
     -0.4068730280
      0.1381985402
     -0.7117437397
     -0.2287160362
     -0.0693097427
     -0.3732091658
     -0.2350394097
     -0.2782987010
     -0.7283479346
     -0.7848390554
      0.6135178862
      0.4617249785
      0.4301441925
      0.4996313391
     -0.6975582236
      1.0610616370
     -0.9172657939
     -0.4116858450
     -0.2864029671
      0.3440918258
      0.1439798106
     -0.2313042189
     -1.0928505089
     -0.2134337949
     -0.1359989653
      0.6703637180
     -0.2343486044
      1.1651645682
      0.4597278586
      0.5873591659
      1.3696252883
     -1.3206942761
      1.5271722824
     -0.2659512224
      0.6418470654
     -1.5184370401
      0.0938786876
     -1.6962109357
     -0.3603904936
     -0.8288354057
     -0.8096131179
      0.8519454158
     -0.1036651367
     -1.1990038785
      0.4700131269
      0.3343829130
     -0.2447824992
      1.8338769801
      1.2206371828
      0.2302756909
      0.8111591660
      0.4770021041
     -0.1705600363
      1.1542829782
     -0.3344230208
     -0.2167856946
      0.5033744461
     -0.0476482448
     -1.3980812821
      0.4525580220
      3.1690938444
      3.7682426188
      0.2035266441
     -1.3880598792
      1.0875156043
     -0.6105463019
     -3.3222815908
     -1.7066224933
      3.8537928383
      3.0939781785
      0.2482674058
     -3.6965035874
     -3.4729261265
      2.6018170615
     -0.1940120074
     -4.8938909972
      6.3085775951
      2.6904971821
     -4.0562570711
     -3.6426849987
     -4.3243798145
     -1.7382493795
      3.1099261336
     -3.5724295582
     -1.4322268731
      1.0073186794
      2.5678702382
      2.9660117602
     -0.0914249372
      0.7835436513
     -0.8529062049
     -0.6110715022
     -0.1740581320
     -0.8362990098
      0.0683281496
      1.3526668382
     -0.0165529245
      0.3172396327
     -0.3150004471
      0.5640154878
      0.0402040695
     -0.4033742744
     -0.9004819166
     -0.1128271442
     -0.1577814302
     -0.2252836070
     -0.3295359525
      0.0336987319
     -0.5461725945
      0.0276691083
     -0.1698501578
      0.1610475124
      0.6874297152
     -0.6706053975
      0.4969294562
      1.0609627445
     -0.4936021238
      0.1190071436
     -0.0345502404
     -0.7661668459
      0.6765475215
      2.0610974174
     -0.9117537006
     -0.9116660215
      1.0340224102
      0.6438663573
      2.1219390195
      0.3782518925
      0.4465349966
     -0.3395784273
     -0.2661616903
      0.4036621568
     -0.8620513849
      0.5517708013
     -0.2548675082
     -0.6491351677
     -0.1462018451
     -0.4212820136
     -0.0549701628
      0.9048402472
      0.3296625378
     -0.5368207249
      0.1885776259
      0.0230465185
      0.1094076034
     -0.4149629222
      0.4219972415
     -0.0544257277
      0.4817498523
      0.3336804217
      0.1675356716
      0.0970035789
     -0.0305259485
      0.1334337390
      0.6577696398
     -0.2831653093
      0.3449955423
      0.1368793778
      0.3927010053
      0.0504089530
      0.1895202922
      0.1275551006
     -0.3677790353
      0.6523247409
      0.1399243234
      0.3260101344
     -0.5138264489
      0.6700506496
     -0.9146456018
     -0.6509278780
     -1.1364813990
      0.5353392799
      0.1903702726
     -0.0159860105
      0.3860202923
     -0.3170289282
      1.0631982264
      0.3211831847
     -0.1020625019
      0.5235167114
      0.5563015668
     -0.3789613848
     -0.0082281667
      0.4978592886
     -0.3217745173
     -0.3313876957
      0.3068730628
     -1.4561182781
      0.7267859994
     -0.4029071125
     -0.2190535622
     -0.7268534422
      0.0107395920
     -0.4991729276
      0.0879574086
     -0.7366577412
     -0.9595180315
      1.0820523085
     -1.5536133078
      0.8816988929
      0.5136049934
      0.7742525111
     -0.2223159312
      0.4529473571
      1.2457598239
      0.1438404679
     -0.0558492271
      0.2029462438
      1.4320342610
     -0.1687319696
      0.1552714670
     -0.1068637637
     -1.5852165325
     -0.0881786417
     -0.8361305221
     -1.3721015826
      0.5307208552
     -0.4746888426
     -0.0551325840
     -1.3668017306
     -0.3710525041
      0.0133160568
      1.1543445593
      0.2688054932
     -0.5505095934
     -0.5193858254
     -0.9404002228
     -0.2683344695
      0.4241170188
      0.0650999927
     -0.1560399404
     -0.5176459372
      0.3686049927
     -0.2260596131
     -0.1906276552
     -0.0077607851
      0.6881591829
     -0.6981632894
     -0.3206304697
     -0.7500932045
     -1.0833719001
     -0.1818472787
      1.1075806764
      0.9463736825
     -0.3309995516
     -0.3503734862
     -0.2298762709
     -0.2448323171
     -0.2989996498
     -0.1843360783
     -0.6184576466
      0.3745912989
     -0.1374954155
     -0.7254133030
      0.1442616529
      1.1456334922
     -0.3610126072
      0.1376935133
     -0.1991487349
      0.6734604660
      0.7065240175
     -0.7477180427
      1.5658788321
     -2.4236384997
     -0.3376186775
      0.1841848696
      3.5067041431
      0.1022195142
      0.5226170328
     -0.3237139625
     -0.9563920967
      0.6936927672
     -2.3140789219
      0.2912640183
     -0.3880178769
     -0.3946713346
      0.0564899023
     -0.2468733240
      0.1077402374
      0.9068319092
      0.4381084677
     -0.3741563373
      0.4562579113
      0.1933152669
      0.5242191899
      0.0477752695
      0.4917760398
     -0.4792668629
      0.0828263917
      0.5919153363
      0.3990070444
      0.0877112517
     -0.1745884545
     -1.5968439949
      0.8235077654
      0.0951529257
      1.5039891761
     -0.0617732759
      0.3169506933
      0.1220353618
     -0.3277293938
      0.1811346047
      0.4186224190
      0.1227696679
      0.4902120334
      0.2264155352
     -0.2596450190
      0.3694575503
     -0.8464856323
     -0.0748820035
     -0.1526135340
      0.6216985704
     -1.2272877304
     -1.1515697782
      0.0049839923
      0.2944406476
     -0.1198304199
      0.5685667169
      0.2910357567
      0.9149350420
      0.4872087048
     -0.8673210076
     -0.7747766499
      1.4766688352
     -0.2431980777
     -1.1245349392
      0.3065770814
     -1.7625629398
     -0.0088072048
     -0.5719560581
     -0.9483649726
     -1.3714540374
      0.6663918024
      1.5134943642
     -0.5668098752
      0.8108696569
      1.1319153080
      0.3550366996
     -1.8303944876
     -0.9185141902
     -0.2679004399
      1.7899892224
      1.6173826950
     -2.5572995984
      1.1507794179
      2.0375552170
     -2.4741048339
     -2.3437679481
      1.9002290668
      2.1199570190
      2.3770218182
      0.4566740005
     -1.9826614539
      3.0880700731
      0.8326696306
     -1.5456359221
     -2.3689092622
     -1.6746908218
     -0.7362094768
     -0.3732318835
      0.6772857115
      0.5005547615
      0.4195736505
      0.2619391081
     -0.0259105955
     -0.1669896543
      0.2090287380
     -0.4202653376
     -0.2039687259
     -0.4728077972
     -0.0398059420
      0.4680176895
      1.1148741960
      0.8915229540
      0.4376051685
      0.5200648756
     -0.7724587364
      1.1605505542
      0.2288303244
     -0.3428678888
      0.5009835825
      0.0875819501
     -0.3690953821
     -0.2768283564
     -0.3486337417
     -1.3482474911
      0.2903072361
      0.2555035188
      1.1787981559
     -0.0454497481
     -2.0617459670
     -2.0320884469
      0.3334307456
      0.3320888091
     -1.1408271240
     -0.3910269712
     -2.1364658790
     -0.6924673778
      0.1069810206
      0.1928390315
     -0.0823318941
     -0.4088934365
      0.4880535012
     -0.0326106965
     -0.0647713391
      0.2031430587
      0.0853789089
      0.1319845054
     -0.3140722432
     -0.1341443309
      0.3193017847
      0.4808527946
     -0.6155184579
     -0.7356502461
      0.2049812412
      0.0576178096
      0.2927277671
     -0.5420948271
      0.2188426820
     -0.0280723869
     -0.6360626862
     -0.1078795946
     -0.1221880996
     -0.0566243772
     -0.2361347420
     -0.3124449152
      0.3931650233
     -0.4637034195
      0.4012637342
     -0.3302008196
     -0.4708908944
      0.1405530191
     -0.3862157888
      0.0467955812
     -0.0110879186
      0.1465431869
     -0.2211307372
      0.8395352097
     -0.7560017710
      0.3507415777
      0.1451399839
      0.3166933933
     -0.0538636285
      0.5770605342
      0.3103959162
      0.4654075941
      0.3465661509
     -0.2450076121
      0.2202129804
     -0.2094744560
     -1.0952236185
      0.4700856490
      0.9465982280
     -1.2985562894
     -0.0322707895
      1.1206292392
      0.4662310006
      0.6632015559
     -0.0100712691
     -0.6451848051
      0.2069211841
     -0.2123399388
      1.2766138402
     -1.6392760154
      0.0069476019
      0.7270917753
      0.4472044788
     -0.4638390229
      0.4631810141
     -0.1946252064
      1.0558526017
     -0.4897731577
      0.3846975815
      0.0688555626
      1.4043996451
     -0.1877185878
      1.4448967137
     -1.6858295668
      0.7130889677
      0.2968135804
     -1.9237299020
      0.7302178780
      1.2047417014
     -1.5683009072
      0.1635734929
      1.9490954621
     -0.0371795993
      2.5088118668
      0.3257149919
      0.4151185424
      1.6724959597
     -1.7383336878
      0.8141860266
      0.2637681113
      0.6371692664
      1.5290238917
      1.6944258242
      0.4404507565
      0.3706339655
      0.2575354489
      0.2848205662
     -1.4830617497
      0.1402774123
     -0.0807600582
     -0.4730541335
     -0.2067341765
      1.0798447112
      0.1690106245
     -0.3574460770
      1.1875939245
     -3.0797666452
     -0.2110963582
      0.0344929463
     -0.0221379568
      0.4945501014
     -1.8099909920
     -0.0635725189
      0.5141631291
     -0.9018054569
     -0.7978111175
      1.7956535013
      0.3258030485
      0.9654925849
     -1.3050953736
      0.2025376602
      0.2337963719
     -0.1887106577
     -0.8895786472
      1.0257229170
     -0.2059399440
      1.3053384354
     -0.3381192298
      0.7847093885
      0.5512609508
      0.7843975892
     -0.1140918831
     -0.0298100686
      0.3860572548
      0.2952540752
      1.4311273291
     -1.6857291998
      0.7516679517
     -0.3050897430
      0.3421347659
      1.6383641284
      0.3628925693
     -0.8957435931
      0.8163840841
      0.3410133099
      1.3553592162
     -1.6875737270
      0.4723097344
     -1.0345617006
     -0.6442075235
     -0.0258392558
      0.0135329310
     -0.6299191859
      1.5935451501
     -2.2174706064
      0.9552908781
     -3.4114972004
     -1.0647625107
      0.3909315979
      1.0640082660
     -2.5417068814
      0.0403819539
     -0.0271839690
      0.4364088400
      0.0718875789
      0.0563797068
     -0.0067817614
      0.2896662273
      0.0407401236
      0.0641297208
     -0.0489928027
     -0.0130488593
     -0.0314876386
      0.0098856022
      0.3369053239
