      1.1696601377
      0.8518436464
     -0.6923330908
     -0.4544477824
      0.5434917479
      0.2027566010
      0.8908874305
     -1.2208864534
     -1.3543005430
      0.3452176460
      0.7043729151
     -0.6754172677
      0.7237653294
      0.7732904808
      0.2312349955
     -0.8433984591
     -1.1527752595
      0.2257363803
      0.3061464092
      0.0689092394
     -0.0785801260
      0.2881671543
     -0.1705821067
     -0.5969440123
     -0.0453709543
      0.7717536380
     -0.5991314402
     -0.1089336200
      0.4113360835
     -0.3889692512
      0.7931283207
     -0.8886294077
     -0.5978228745
      1.1608878318
      0.6593593592
     -1.2303392768
      0.0665583513
     -0.6125414876
     -0.6306330925
      0.7988764387
      1.5702839680
      0.0083545386
      0.4876298424
     -0.9767394218
     -0.3128327531
      0.0776240112
     -1.9320978883
      0.1267162939
      0.7141578464
      0.2827124963
     -0.2109393777
      0.8361680820
     -0.2424991229
      1.1664259281
      0.3313842378
      1.2122924239
      0.1193362628
      0.6985606343
      0.6238920877
      0.5065741791
     -0.9039486811
      1.3877136424
      0.3265028608
     -1.3267484459
     -0.7007442953
      1.6867243121
      0.4341958046
     -0.5951468608
      0.4233252780
     -0.8259495440
      0.3274101667
     -0.9068726107
      0.2484611432
      0.4939129919
      0.0220672661
     -0.4514582280
     -0.6515318443
      0.0976322037
     -0.4681872220
      0.1901192959
     -0.7929476585
      0.7469208303
      3.7424698815
     -1.1776447176
     -1.3933216749
      1.1784417980
      0.7663306773
     -0.8168456627
      0.6343142089
     -0.3188341922
     -0.9495362895
      0.6089254515
      0.0202074175
      1.2914545636
      0.8417465366
      1.3065704051
      0.1525398811
      0.6635441615
     -0.1743864575
     -0.2267722901
      0.0424590102
      0.6257734817
     -0.2988123360
      0.5364664805
      0.4838924483
      0.3488068124
      1.1917956819
     -2.0452367424
      1.1364600427
      0.3122874579
     -0.0030305461
     -0.8192871191
      0.5671436219
     -0.1437657934
     -0.1087613675
      0.3172586099
     -0.5007827468
     -0.9135657292
     -1.3848015743
      0.3263481453
      1.1118538757
     -0.8931558844
      0.3979891638
     -0.8325318191
     -0.4122035362
      0.2027557590
      0.3498051744
     -1.2333898580
     -1.0659238381
      1.1253351111
      0.6027859506
      0.1846833401
     -0.2611026892
     -0.8214033869
     -0.2405314540
     -0.8174119342
      0.7842652328
     -0.3440921365
     -1.0824001374
      1.8085698428
      0.4830432968
     -1.1872881877
      0.1138950652
      0.4316730039
     -0.1494908807
     -0.2579472479
     -0.7254114612
      0.7466625870
     -0.3973650204
     -1.7638430425
     -0.5910319187
     -0.8871363869
      0.8585282274
     -0.6600160098
      0.4947477754
     -1.4561775959
     -0.5620653974
      1.1005477123
     -0.3172079904
     -0.1230602275
     -0.9557382361
      0.8361021580
     -0.4180890919
      0.3313725087
     -0.7413448550
     -0.2343846058
      1.3147385184
      1.4516394057
      0.2300347837
      1.1170000198
      1.3551783898
     -0.5237199194
      0.3484808879
     -0.1206019450
      1.1662018545
      1.3610784762
      1.2993086739
     -1.2157903888
     -0.0528056397
      0.9768851565
      0.7537500923
      0.8674086566
     -1.7343823049
      1.4658222602
      3.0161490178
     -0.8511834939
      1.2081154594
      1.4175266339
      0.4567872127
     -0.0992914557
     -0.2625785574
     -0.4361533378
     -1.1049688788
     -0.8971610441
      0.8743577886
     -0.4196125175
      1.1751327997
      1.0077105829
     -0.2435080204
     -0.9260426335
     -0.3758534784
     -0.0845933178
     -0.0563833320
      0.1027065429
      0.4321664251
      1.1386765618
     -0.5403705133
     -0.3655335113
      0.1271611657
     -0.3154078109
     -0.1299925998
     -0.3032337438
      0.0806179951
      0.7663518267
      0.2893840506
      0.4892426009
     -0.2929403045
     -0.3371545434
      0.0269427008
     -1.0002425629
     -0.2200845811
      0.0053734344
     -0.2333022222
     -0.6326530440
      0.5705402000
     -0.3179970412
      0.5038958069
      0.1338363074
      0.1385151210
     -0.2703334205
      0.1666597651
     -0.7520303182
      0.6630272643
      1.0741719690
     -1.1281102283
     -0.9930486115
     -0.2856422894
      0.1376701083
     -0.5752274969
     -1.3061542981
     -0.4142250535
     -0.5741118857
     -0.5739405668
      0.1698600927
     -0.2356183119
     -0.8324166635
      0.4499600585
     -0.3597045873
      0.0284541949
      0.6001586745
     -0.1172939405
      0.1028008650
     -1.5736648259
     -0.0585784145
      1.5693775036
     -0.2949328485
      0.2502075213
      0.1715082315
      0.6947701573
      0.4360277783
     -0.0308061015
      0.7438283459
      0.4943497435
     -0.1728372384
     -1.7395718815
     -0.8906090378
     -0.2131975942
     -0.6744120713
     -0.5963654249
     -0.1808061654
      0.4266709684
     -0.2675635916
      0.4754360416
     -0.5301873940
     -1.8344658628
     -0.2584407835
     -0.0663420913
      0.0982901107
     -1.6127757528
      1.2716398353
      0.7668266849
     -0.9475201870
      1.8772203082
      1.8897468936
     -2.4035090172
     -2.3034947361
      0.8997151495
      0.4841994064
     -0.8556045057
      0.1753742701
     -0.1919543101
     -0.6188724696
     -0.9749542084
     -0.3024808273
     -2.2093335914
      1.8287269904
     -1.5241161589
     -0.0068275988
     -0.0223192933
     -1.2335662558
     -0.5228082059
     -0.1112912404
      0.2604784340
     -0.2263948180
     -0.6782578565
      0.9320575404
      0.3710625603
     -0.2379984762
      0.3245218420
      0.0855046106
     -0.1315471228
     -0.0656205752
     -0.5328315724
     -0.4555752428
     -0.0206431073
     -0.7676333576
     -0.1901827405
     -0.6752694749
      0.3147420512
     -1.1772638903
      0.2363172392
      0.8806593438
      0.0157336260
      0.4611124060
     -0.5604374665
     -1.1085183350
     -0.3779768630
      1.6022910974
     -0.2989432220
     -0.4692857861
     -0.3099611782
     -0.0838869417
     -0.7533917966
     -0.8092032568
      0.3139366895
      0.1504995611
      0.2706556262
      0.3410066085
      1.2111162548
      0.1379213035
     -0.7244569351
     -0.0847648896
      0.4967466763
      0.3613475750
      0.2741030039
     -0.2818367044
      0.3758119943
      0.5106059453
     -0.1369781138
      0.6411206845
      0.6702757265
     -0.0620659686
      0.9075453079
     -0.3021252848
     -0.7153587202
      0.5152240944
     -0.0682325425
     -0.1959361015
     -1.1551015288
     -0.5281482231
     -0.9584266733
      0.1325448861
      0.2130021072
     -0.3152567697
      0.8741893972
      0.5088935249
     -0.0690535217
      0.4056443300
      0.0449553768
      1.0114645637
     -0.7141203055
     -0.1831950660
     -0.5647089575
      0.0896053594
      0.2637161484
      0.6112030830
     -0.8515602289
     -0.3244969670
      1.3895026287
     -0.8560018704
     -0.7252808118
      1.3217328780
     -1.4294369381
     -1.6672987315
      1.2694769653
      1.4798280672
     -0.6814275866
     -0.2077577661
      0.5791924740
      0.2118229259
     -1.3379422829
      0.8782180263
     -0.6613947375
      0.7063924328
     -0.5047940485
      0.3319017497
     -1.3691204157
      0.9060363324
      0.4360557058
     -1.2471585945
     -0.3614288102
     -0.6353597014
     -0.1367159247
     -0.5579187297
      0.5310184337
      2.6522981054
     -0.4018414832
     -0.4759753982
     -1.5672589900
      0.4616323699
      0.4989199723
     -0.5241407963
      0.8839339946
     -0.7645308108
      0.2674734997
      0.7462000462
     -0.0262451775
     -0.3038056919
     -0.1082447626
      0.8933253012
     -1.0105688885
      0.7605612375
      1.1961109263
      0.4780470925
     -0.2954656524
     -1.6501397591
      0.6867977575
      1.0593103501
     -1.3751777051
      0.1345223935
     -0.5835215799
      1.1219745527
     -0.6303356043
     -1.0153894577
      0.4635739489
      0.6112603985
     -0.6415276513
     -0.3488483953
     -0.3250095868
      0.6102229747
     -1.0436624418
     -0.3802570324
      2.3101833944
      1.2276451565
     -0.8157486737
     -0.5841870335
     -1.0328117572
      0.2033794692
      0.5353781825
     -1.4773372631
      0.4532719281
      1.2724437783
     -0.8911379826
     -0.5139223410
     -1.3423548832
     -0.6861057159
      0.4159841588
      1.1612852736
      0.4106276747
     -0.1490227767
      1.0267274446
     -0.0135117520
      2.6853741337
      1.0792932964
      0.5047510181
      0.4211467481
     -0.6357577060
      1.1531907747
      0.6832548617
      0.1659988904
     -0.7797402983
     -0.1841634942
      0.5723789810
     -0.4254882631
     -1.1880306314
     -0.7282645654
     -1.6930848603
      0.5221108552
      0.5243570690
     -0.6853250188
     -0.4739604815
      0.7027050249
     -0.8077969938
      0.3639639859
     -0.5064484958
      0.3933188589
     -1.3163285293
     -0.0531600121
      0.7062196922
      1.6768491754
      1.0854140234
     -1.3030235681
     -1.0194832738
     -1.3920036027
     -1.3749831217
     -1.5151123650
     -0.3224070366
      1.4936257145
      0.3055924827
      0.2747911392
     -0.2325118272
      0.4196236060
      2.0891216796
      0.7822711689
     -0.9691145935
     -1.4024474084
      0.3973706417
     -0.0148476013
     -0.7227317723
     -2.2203070613
      0.0385122430
      0.1430316121
      0.0093605805
      0.1385118346
     -0.1056225182
     -0.0434697202
      0.0052269132
     -0.0065193057
     -0.0354005520
     -0.0358917965
      0.0536853871
