     -0.2662240873
     -0.5263380072
     -0.2214079183
      0.9158386155
     -0.2125161249
      0.7214454419
     -0.6684374518
      0.3896630595
      0.8728606781
      1.7408254399
     -0.2421879642
     -0.0344084614
      0.0091609267
     -1.0303764826
      0.3005468320
     -0.4043967669
      0.3740064302
      0.0409127422
     -0.7998489785
     -0.4300240053
      0.5472837539
      0.1986141769
      0.1548497174
     -0.1945588781
      1.0944318920
     -0.4555382995
      0.7422250571
     -0.0879302057
     -0.2909023913
     -1.4476843592
      0.4113088149
      0.3274112521
      0.4080043788
     -0.0259592972
      0.2582209478
     -0.2640027984
      0.8131183456
      0.7452106642
     -0.5359946873
     -0.7621771376
     -0.0890736243
     -0.0166499146
     -0.4802170094
     -0.1032836337
     -0.8506010314
      0.1852405968
     -0.4994803172
      0.1477001758
     -0.2256449421
      0.6037541225
      2.4409089009
      3.1076303773
     -1.0555698922
     -0.9924188480
     -1.6139102482
     -0.4004301469
      0.4598184533
     -0.3182506708
     -1.2874905831
      0.3875830986
     -0.8210008729
     -0.7590990598
     -0.1521075776
      1.2007878103
     -1.8540044027
      0.2411372827
     -1.4125481399
      0.0466418259
      1.3685018278
     -2.6872060567
     -0.2221594942
      1.1357109107
     -0.0942341083
     -0.9606941723
     -1.2554810567
      0.9346850969
      1.2994539099
     -0.1971460925
      0.6884254198
      0.2111939858
      1.1598694096
      0.4378854970
     -0.4860479941
      0.3761873318
     -0.5604410000
      0.0955694106
     -0.3531446415
     -0.3319378649
      1.2869374807
     -0.1685977415
      1.0286412072
      0.3793454285
     -0.8677242103
      0.3198235394
      0.0696267106
     -0.5654026017
      0.1685225467
     -0.6521322277
     -1.0105104101
      0.3228211941
     -0.5511986317
      0.9093139841
     -0.7759619051
      0.0510704714
      1.0164679412
     -1.6481447314
     -1.0068200318
      1.2198461892
     -2.2882838461
      1.9018280075
     -0.1602360571
     -0.2706010656
      0.2171370693
      0.3823809552
     -0.7922840076
      0.2001438576
      0.0162968373
      0.1696338338
     -0.6793902690
     -0.2385855301
      0.2209325068
      0.3956575596
      1.5569832956
      0.4530026712
     -0.1863794250
     -1.5622500264
      0.0607725085
     -0.0620059292
      0.0530379352
     -0.5186245894
     -0.0794767635
     -0.4512628693
      0.0568724773
      0.3442871510
      1.0190396116
      0.9729082019
      0.2515200052
      0.6827238464
      0.0343816528
      0.0431099055
      1.5201919548
      0.1048881531
     -0.6135348455
      0.0085962769
     -0.2299356155
     -0.0734657234
      0.8875283033
     -0.0333162473
      1.2857915172
     -0.5178805307
      1.8038953721
     -0.0575524981
      0.1269821561
      0.9593761106
     -0.5269304478
      1.5672422944
      0.1128496960
     -0.8204790698
      2.6906391897
     -0.9802310490
     -0.2943490722
      0.5758134214
     -0.7608439954
     -0.3118386368
     -0.9793533856
      0.7732329736
     -0.1532389233
     -0.5840302305
      0.2418915586
      0.4071190560
     -0.7591190352
      1.4697383200
      0.0680041137
     -1.1154188926
      0.4562670909
     -1.5454538350
      0.4739255484
      0.9462382613
     -0.0120888416
      0.0269279391
      0.0742927382
     -0.6692563878
      0.1879464174
     -0.0525738280
      0.4844924316
     -0.8047966863
     -0.1905584613
      0.5221043710
      0.0716114338
     -0.0016136676
     -1.4553622173
     -0.1098361401
      1.0009671298
     -0.3622856155
     -1.9710043747
      0.3525719317
     -0.3842244710
     -1.9285416405
      1.3696664557
     -1.2804892354
      0.4143898180
     -0.3064887524
     -0.6674777001
     -0.1527848440
      1.9483778582
      0.0771018422
     -0.2655954957
     -0.3400460853
      0.3695049626
      1.8237769108
     -0.8731256589
     -0.6741745085
     -1.5436904144
      0.5600722628
     -0.5846754761
      0.2475358538
     -1.9614395060
      0.3764649263
     -2.4112319075
      1.1007060260
     -0.6684355155
     -0.1632622309
     -0.7498962254
      0.8353863786
      0.6094345114
      0.3312829998
     -0.9131411052
     -0.0643414884
     -0.2575996443
      0.9353228034
     -0.4564180109
      0.5302037232
     -0.0814181024
     -0.6082860146
      0.4555648022
     -0.0919711030
     -0.4008253332
     -0.0751486824
     -0.0617836891
     -0.5673307134
     -0.1112381684
      0.1069156881
     -0.4752466098
     -0.2058990585
      1.4372966505
      0.2111401846
      0.1927575179
      0.4536667658
      0.2543281472
     -0.1268003208
     -0.4858074941
      0.2742922376
      0.0714609968
      0.3142569555
     -0.0691004442
     -0.2764554448
     -0.1000339053
      0.5009227877
     -0.3761481253
     -0.3956250428
     -0.4771546708
     -0.2819294367
     -0.5735936744
      0.3257342021
      0.7070735758
     -0.2944360686
     -0.4097522675
     -1.1011156898
     -0.3035937033
      0.0166694817
      0.2683933884
     -0.2093272548
     -0.7999926855
     -1.1414551796
     -0.6626953772
     -0.8890842348
     -0.5277244238
     -0.9599399147
      0.2635207546
      0.0305530270
      0.1648840678
     -0.1116534499
      0.8307503067
      0.7008554454
      0.5638930063
     -0.4457440938
     -0.0690112879
     -0.9220999695
      1.0818362268
      1.0325307831
     -0.4539692424
      0.1966223868
      0.8539675862
      0.4797539272
      1.1229907378
     -0.7922835436
     -0.0699106622
     -0.4588032902
     -0.0778830763
     -0.6450456216
      0.1255135124
     -0.6154499964
     -0.4748861216
     -0.8552429485
     -0.2442441660
      0.4473470275
     -0.4173785767
      0.3562458097
      1.2720448832
     -1.6636174473
      0.5227462222
     -0.2977482412
      0.0439889001
     -0.9475050402
     -0.8374723753
     -0.4979281657
      0.6591220280
      0.1267076118
     -0.7197039727
     -0.2997638860
      0.7383091721
      1.0600629796
      0.8490239894
      0.6323226694
      0.9536758314
     -0.2415931019
     -0.2649383085
      0.1513912659
      0.0024099691
      0.6821713900
      1.3983056047
     -3.2808639178
      0.3588039377
      2.5094235179
      0.5909353386
      0.2503758630
     -0.2645015152
      2.9721696047
      4.0030441608
     -0.6199628226
     -0.6099034510
     -0.8041083693
      0.9071060318
     -0.0340591446
      0.0098763804
     -0.2472852996
      0.6731354967
      1.0560542710
     -0.4364156224
     -0.7977928891
     -1.0897668186
     -1.5354197468
      1.1206744049
      0.4263658938
      0.0489579452
      0.4792924134
     -0.6490385251
     -0.7014934303
      0.9710688690
     -1.0542696561
      0.0278596442
      0.4143791234
      1.3372053875
     -0.3137405862
      0.5308133118
      0.6755396749
      1.3235332836
     -0.8333220478
     -0.6563689542
     -0.4299493027
      0.6565991964
     -0.7375277092
      0.1388425412
      0.2974140780
      0.7460689153
      0.1176558769
      0.1264926425
     -1.0476275178
     -0.2931516250
      0.7399455147
      0.2233540693
      0.7888368096
      0.7262999878
      0.0243289455
      1.4052238797
     -0.2874043719
      0.7613317736
      0.2349927208
     -0.4178633828
     -0.4846151338
     -0.5470379000
      0.1004014630
      0.0575579997
      0.5713993506
      1.3112135752
     -0.0836170851
     -0.4679888489
     -1.8351001382
     -0.2651141650
     -0.2667402734
      0.9003609221
      0.1837667955
     -0.1156990588
     -0.0292981078
      0.4441515963
      0.4475759884
      0.8252830805
      1.6889397774
      0.6109899332
      0.1693981479
      0.5947376110
      0.0482606512
     -0.8786925683
     -1.1234378796
     -0.8863146670
      1.1270473098
      0.1882258855
      0.5340170202
      0.1448848021
      0.2368438092
     -0.1421263189
     -0.0147378676
      0.3732038544
     -0.0242988811
      0.2895378589
      0.4698234327
      0.3701680195
     -0.2986979176
      0.1780208311
     -1.0095971624
     -0.2526336836
     -0.6365701370
     -0.3587113734
     -0.2952397439
      1.7316292192
      0.1570891220
      0.1027231768
     -0.1189658127
     -0.2240310521
      0.1625179891
      0.0573986241
      0.1210246465
     -0.4248963632
     -0.2325593159
     -1.7382741814
      0.0145308754
     -0.0381670159
      0.1865947493
     -0.5637635593
      0.4398677675
      1.3564415501
     -0.0337732741
      0.2633885302
     -1.2914228834
     -1.1171660191
     -0.1771479375
      0.6966022614
      1.3144590293
      0.8626316880
      0.4220644770
      0.0973667429
      0.4189327747
      0.0331456310
     -0.5409903769
     -0.9611144525
      0.7148177669
      0.4300555181
      0.6779029138
      0.2051415524
     -0.0714380090
     -0.1078147547
      0.0247939711
     -0.1382616921
     -0.4445910906
      0.3238401893
     -0.3293974529
      0.3926793661
     -0.1419718624
     -0.8184117662
      0.8925935883
     -0.4533639164
     -0.0600391894
      0.4504466871
     -0.3691091641
      0.5700924709
      0.1776822231
      0.3983396739
     -0.3921502631
     -0.4559308440
      0.2807491695
     -0.2244487366
     -0.0252307731
      0.0757449745
     -0.0637427901
     -1.0279478864
     -0.0855804047
      0.8057662660
      0.3648825575
     -0.6086736885
      0.1354415216
     -0.3538376543
      0.1508343371
     -0.2635886938
      0.1646067294
      0.6095188968
     -0.1796716556
     -0.5550230389
     -0.9132613046
     -0.4432258124
     -0.0764346334
     -0.4025840964
      0.0488580364
     -0.2906729951
     -0.1201213868
      0.1571559305
      0.4835659026
      0.2074318616
      1.5026705690
     -1.0224566903
      0.3219132611
     -0.3739105103
      0.4179326785
      0.0014275534
      0.6279238278
      0.4373690835
     -0.2522769695
     -1.4143855754
     -0.2784966394
      1.1356950619
      0.0079644938
      0.6877988273
     -0.2183047945
     -0.1619029258
      0.2667262926
     -0.5437950467
      0.3322325402
      1.5732303372
      0.2902106306
     -0.2689658049
      0.6336958286
     -0.8395557407
      0.3830921946
     -0.6006820170
     -0.4274411652
      1.2299976021
      0.4048321374
     -1.3363836161
     -1.2156417003
     -1.3863475750
     -0.1708666327
     -0.0154348133
      0.2606946004
     -0.0426832318
      0.0592243600
      0.4737822555
     -0.0810318254
     -0.0900717230
     -0.5455202914
      0.1210619821
      0.2324164111
      0.2025375109
      0.5321026383
     -0.0629639284
      0.2090710739
     -0.1349750749
      0.3403298021
      0.6446134928
      0.3263009107
     -0.2570776477
      0.8778761393
     -0.2207651673
     -0.3133491375
     -0.8224910257
     -0.3737601213
     -0.3020246370
     -0.4750759290
     -0.7372737141
      1.2487763932
      0.3286543092
      0.0706828084
     -0.3362285094
      0.4649643547
     -0.3376976724
     -0.5270357782
     -0.7541623953
      0.2267022669
     -0.0495665793
      0.4530625373
      0.4711144219
     -0.1317246879
      0.8056870228
      0.1243858705
     -0.4723937893
     -0.5361046355
     -0.5471265466
      0.1923300057
      0.5293032784
      1.2513809999
      0.2764869982
      0.0715981670
     -0.5752259745
     -0.3577803569
      0.1316688569
      0.7411218996
      0.2023096969
     -0.3983447081
     -0.5964679669
     -0.9677303005
     -0.0976959573
      0.0373689373
      0.1701763181
      0.5081734689
      0.6821324428
     -0.1425074819
      0.5819501407
     -0.3498111736
      0.7980980458
      1.0092800870
      0.2080985581
      0.0570311298
      0.7030581849
      0.6374061964
      0.8870097492
     -1.2645793054
      1.9335065806
      0.8017673279
      0.6036030534
     -1.2884942399
      0.5624726551
     -1.3319618619
     -0.3797879829
     -0.3521540439
      1.0483676902
      1.0503322689
      1.0291874398
     -0.2890350062
      0.4887305862
     -1.1928435890
      1.1909416445
      1.1480015216
      0.6168951573
     -1.8955812676
     -0.1892146857
      1.0598195362
     -0.2512411817
     -0.3717848469
      1.8658339252
      1.5530964497
      0.0759818146
      0.9078518837
      0.8587148267
     -0.6579608890
      1.1602050869
      0.9514012844
      0.8146901877
     -0.9991592254
      0.2168137366
     -0.5256092492
     -1.7169739794
     -1.3467989988
     -0.9787489878
      1.1041969127
      0.4635483350
     -0.9376455827
     -0.5106463928
      0.9124400147
      0.6219648193
      0.6192521139
     -0.0225669756
     -0.4242819236
      0.4714230516
     -0.6812395611
     -0.6101175782
      0.6512304305
      1.2642402133
      0.0576469217
      1.2689255279
      1.8709819457
      0.2240754586
     -0.0983749810
     -0.1290519123
     -0.8342636278
      0.3984360870
      1.0379563978
     -0.4525126642
     -0.7481445947
      1.2790799482
      1.0256367788
     -0.6182623573
     -0.7088506445
      1.1049058624
      0.8127338622
     -0.5956549739
      0.0055805210
     -0.6880767504
     -0.3516700755
     -0.4863439893
     -0.1215413744
     -0.9141379606
     -1.3818460873
     -0.6256137906
      1.0988082256
     -0.4964356318
      0.4400916769
      0.8468151978
      0.3839590108
      0.6976171603
      0.0972151369
      1.5903687639
     -0.1191158107
     -1.0898680922
      0.3395266091
     -0.8856079377
      0.0823136283
     -0.8195879224
     -0.6799314951
     -0.2428872291
     -0.8266017697
      0.3383926831
     -0.3846855011
      0.6158462025
     -0.3630302645
     -0.9465204400
     -0.0113257271
     -0.0244151589
     -0.4347704385
     -0.5199966083
      0.6289824974
     -0.5458633193
      0.1915003126
      1.9778709560
     -1.1733316627
      0.4812516383
      1.6715225805
      0.6288021481
     -1.5392473081
      0.8885061011
     -0.2168639994
     -1.6448350800
     -2.6769452859
     -0.1984757622
     -0.5861905052
     -0.3554608905
      0.0971806106
      0.4138995159
      0.2807063392
     -0.7207992569
     -0.0502682824
     -0.6243328897
      0.3502453632
      0.1708834342
