      0.9634859418
     -1.6863013158
      0.5760733804
     -0.7366273712
      0.2168105217
      0.2512888020
     -0.5359733576
      0.0192242729
     -1.0184963241
      0.2358698840
     -0.7960856365
     -0.2309884653
     -0.6921512473
     -0.0400417982
     -0.0147952581
     -0.3231434326
     -0.9567105519
      0.5828536530
      0.5753481822
      0.3260987269
      0.7336155646
     -0.0366215593
      0.1866086432
      0.3246760014
     -0.2308509022
     -0.1407495527
      0.2527199638
     -0.7657788742
     -0.9050206384
     -1.0329688148
     -0.8068085465
     -0.1109588985
      0.6184440779
     -0.5934724762
     -0.6186239547
     -0.4880643765
      0.3856654700
      0.1797800000
      0.1487413692
     -0.5187195430
      1.9003401032
      0.5818980381
      0.0706318438
      1.5463892087
     -0.6001902923
      0.9548471512
     -1.1191546266
     -0.4724769837
     -1.3638048367
     -0.3062394239
      1.0152445299
      2.4956850266
      0.0485386279
      3.7114970103
      0.1221881739
      0.4537952467
      1.6042693655
     -1.3022494097
     -0.0132382421
     -0.1765630005
      0.5874425591
     -0.6183431918
      0.5393296778
      0.4436820379
      0.4742178840
      0.3935595575
      1.6920650975
     -0.1701562710
      0.0173626203
      0.2457121702
     -0.7954721316
      0.9610713174
      0.8814092022
     -0.3195460432
      0.3035255380
     -0.5676104416
      1.1518066724
      1.3568684716
      1.6155693498
      1.3998621591
      1.5047929406
      0.7673178773
     -0.4016677046
      1.6131858789
      1.3108384931
      0.0593282072
     -0.0650504716
      0.0504308974
      0.2832564589
      0.7541359851
     -1.6337181433
      0.7627347538
      0.2989620508
     -1.4069587911
      2.0121903724
     -0.2731164164
      0.9243323470
      0.0305270706
     -0.2882239517
      1.0719592338
     -0.2108247760
      0.1700101202
      0.7155397629
     -0.5199257575
     -0.6597386022
     -0.4269663048
      0.5941471571
      0.0871932822
     -1.1085705105
     -0.1092093245
     -0.2992588920
     -0.6672434542
      0.7670229092
      0.4694584065
     -0.0550262718
     -0.0987554401
     -0.5851828390
     -0.0692422091
      0.2832486673
     -0.0446546530
      0.2523557521
     -0.8288306168
      0.5814105589
      0.6065559587
      0.6035111550
     -0.9558583746
     -0.3535862669
     -0.6042157231
     -0.2233699209
     -0.3337229588
     -1.3872404254
     -2.1592078725
      0.5981185546
      1.1260036487
     -0.9484385298
      0.7009063224
     -0.7937782119
      0.3960099320
     -1.2363638720
     -1.5231045194
      0.1613817239
      0.3134386167
     -0.9575363586
     -0.6933416058
      1.4585664450
      0.6335616077
      0.1059232332
      0.7146425947
      0.1230945441
      1.3795808067
      0.3053323011
     -0.8301969902
      0.3811438010
      0.6166514435
     -0.4057472666
     -0.2264813481
     -1.0828189013
      0.0065037502
      0.2014455227
     -0.8084772392
     -0.1324090914
     -0.1294258746
     -0.3539043533
      0.5046564204
     -1.2831408423
     -0.1876504904
     -1.3610232088
      0.6461829126
     -0.3192973485
      0.5353030873
     -2.3452663407
     -0.6012927095
      0.1328730966
      0.6324698433
      0.2111585801
     -0.8405423594
     -0.5623983623
      1.2257180866
      0.8077906223
     -0.6368447926
      1.1605307311
     -0.5791865958
     -0.5547709984
      0.3912681602
     -0.4719976342
     -0.0551525320
      0.0889310844
     -0.4948811713
     -0.9362054560
      0.5866919455
     -1.1390428811
     -0.0254019391
     -0.6233594911
      0.3869955205
     -0.1854098650
      0.3230306855
     -0.0543894504
      0.2497518328
     -0.1424838854
      0.6439500391
      0.4671870509
     -0.0425935154
     -0.2597532541
     -0.4387041313
      0.5872488722
      0.2525282443
      0.5170301504
     -0.3506672558
      0.0454945914
     -0.2436311087
      1.4367516367
     -1.6543715928
     -0.5260920824
     -0.3457225579
     -0.9235133702
      0.9055096895
     -1.0590096096
     -0.2872131451
     -0.0559870548
      0.1301832603
      0.9395488792
     -0.5171011311
     -0.2775451720
     -0.1318384153
     -0.0742947901
     -0.7958637553
      0.7205811630
     -0.0248302772
      2.0695839662
     -0.5430586234
      0.1926841217
     -1.1788695184
     -0.4562757807
     -0.2012717456
      0.5312575050
      0.4697824614
     -0.3204831413
     -0.1172634594
     -0.0634128216
      0.0373497025
     -0.0948686387
      0.0079344346
      0.0610461283
     -0.0320198145
     -0.6567461468
     -0.3787054369
      0.4580916484
     -0.0188829935
      0.1204600821
      0.4943176523
     -1.1864763977
     -0.5811808426
     -1.0755498605
      0.1879436586
      0.2157017186
     -0.0615808358
     -1.2412532273
      0.2616684143
      0.1580596164
     -0.4096678785
     -1.3593179171
      0.0874508980
      1.0301601767
      0.2193081761
     -1.1400163797
     -0.9442670493
     -0.3765253876
     -0.8535986424
      0.0273627472
     -0.2165109131
      0.4243017494
      0.0363729996
     -0.7717421080
     -0.2442849357
     -0.7010189009
     -0.7111191806
     -0.6827404302
     -0.1547513855
     -0.6949371349
     -0.3759270867
     -1.8573826892
      0.4622263060
      1.2458125424
     -1.4529204929
     -0.2563115107
      0.1361253474
      1.1270210424
     -0.2662184835
     -0.8614559507
      0.3480654177
     -1.1100999917
      0.1793762161
      0.2330345588
     -0.8365931478
      0.5026396692
     -0.4710503314
     -1.2120778057
     -0.8462030115
     -0.5112913509
      0.4224949814
      0.1763821514
      0.1505859734
     -0.6380209313
     -0.0004618886
     -1.2067295502
      0.7065174259
     -1.2221576441
     -0.0265486773
      1.1836223595
     -0.6333301579
      2.1576306462
     -0.1384757053
     -0.9494745194
      0.1121972990
      0.9991223571
      1.1850958366
      0.5476499268
     -0.9317260448
     -0.4950436508
      0.6793548202
     -0.1268264785
      0.2735212724
     -0.7665491573
     -1.0926367849
      0.5354978469
     -0.5327305450
     -0.4344098274
      0.8374449215
      0.8398738545
      0.2113622602
      1.1773089637
     -0.0912480151
      0.1557126504
     -0.6026563840
      0.3036668922
     -0.5459648041
      0.3397361467
     -0.1465251171
      0.5015700505
     -0.3859381998
      0.0895032081
     -0.0013743087
     -0.3160587574
      0.6173061887
      1.1419244057
     -1.9952814565
      0.7754097147
      0.4197330149
      1.7319304124
     -0.1631801527
     -0.1996714268
      0.0751340609
      0.1040870296
      0.0438146225
      1.1541804207
     -0.2015192660
     -0.2490135859
     -0.1113585233
     -1.2768527821
      0.5786927129
     -0.2195578205
     -0.1227870139
      1.5345577481
     -0.3753023607
      0.0310739382
      1.0758680967
     -0.5598103654
      0.1557769634
     -2.5898304043
     -0.0851232736
      0.4449384711
     -0.5221172705
     -0.0502731133
     -0.4511242995
      0.1395137940
      0.0610998119
     -0.8856756338
      0.3428270930
      0.0598557845
      0.8971704770
      1.0623498499
      1.4580098159
      0.2348332547
      0.2875901650
      0.7107628887
      1.4103506692
     -0.2676513479
     -0.7021187311
     -1.0280647026
     -0.6529571653
     -0.2104245216
      1.4923793648
      0.8046480604
      0.3412986035
     -0.2989729763
     -0.1794474363
      0.9357657229
     -0.1779441963
      0.4767036036
      0.5525380659
     -0.3021847863
     -0.0617616682
      0.2121211665
     -0.7506931607
      0.0110647166
     -0.1430796750
     -0.6254210672
      0.1023966283
     -0.1835650805
      0.1896471722
      1.6670379961
     -0.9146590272
     -1.6584366827
     -1.2134034960
      2.2737756931
      1.1329727493
      0.8352556224
      2.7758250323
      1.6126412820
     -0.4898574935
     -0.6594841644
      0.4695640431
      0.4521748315
      0.7956263687
      0.6864820141
     -0.1953582763
      1.0879716167
     -0.0728082024
      0.9629200345
      0.0230069483
     -0.9379187765
     -1.0534465080
      1.7531080412
      1.1308546796
     -0.4137952030
      0.0113682897
      0.6507945992
     -0.2173024627
     -0.9426709503
     -1.3362118828
      0.3703846939
      0.0960012579
     -0.5766891350
      0.0449851265
      0.3081301606
     -0.1664614627
     -0.1921277854
      0.3928522969
      0.2089318707
      0.6727101788
      0.2198658757
      1.0483765577
      0.5328357035
     -0.1809331820
      0.0271055197
     -0.6555884516
      1.4082483318
     -0.1559514441
      0.2725534913
     -0.5662672420
     -0.0777600770
      0.0981524500
     -0.4496931839
     -0.0541881602
     -0.1595571335
      0.2308693407
      0.0340601276
      0.0496105290
     -0.3202784958
      0.5308537663
      1.2272999146
      0.3966593099
     -0.5122919415
      0.8795046477
     -0.5097970113
     -0.1438218246
     -0.4648279124
      0.3314999717
      0.1827789456
      0.2190763643
     -0.3030377158
      0.0925429714
     -1.2285672412
     -1.0820502409
     -1.6041452864
      0.5415108667
     -1.3142342233
      0.7170909862
      0.4210013149
     -0.8145146800
     -0.4831131159
     -1.8542162096
     -1.1183877531
     -0.5759272993
      1.9066479961
     -0.0153484025
     -0.8459426841
     -0.4140002586
     -1.2635792832
     -0.6522788125
     -1.0751845508
     -1.0425811345
      0.1755448097
     -1.5326143344
     -1.5786390896
     -0.0754628601
     -0.6731639256
      0.2062753044
      0.0885118668
      0.0619044498
     -0.1235629845
      0.5741883789
      1.2350457026
      0.5712748488
     -0.6082222708
      0.1528628335
      0.5930829582
     -0.0878560207
     -1.2770547867
      0.3932620746
     -0.1291810939
      0.7178077321
      0.2538383267
      0.6451727406
      0.0306333225
      0.0105811728
      0.2114511496
     -0.1215374001
     -0.2980668781
      0.0266520154
     -0.6824486324
      1.2290155433
      1.1654069896
      0.1897690658
     -0.5807431084
      1.1901088898
      0.7126677807
     -0.3368472957
     -1.2295135584
     -0.2523957301
     -0.5461643168
      1.2391330732
      0.1608603864
      0.7403222710
     -0.2334388799
     -0.2220361512
      0.7150059896
      0.2442877774
      1.0983185686
     -0.3613189413
      0.5946474392
      0.5863309068
     -1.4746518344
     -0.4188601314
     -0.2203477264
     -0.1999952039
     -0.3536169156
     -0.4644746192
      1.3696826614
     -0.0766521867
     -0.7569526138
     -0.9595365238
     -0.4773460116
     -0.4856231001
     -0.3534361135
     -0.9415927133
     -0.5498626008
      0.4835608891
      0.6740981990
      0.3123226655
     -0.1547352140
      0.4330531293
      0.3478228122
      0.9406870644
     -1.4705073435
     -0.3379511566
     -0.4417805888
     -1.8533509760
     -1.2788885631
      0.5969782817
     -0.7925541067
     -1.2298804619
     -0.3384932464
     -1.4774205380
      0.6088011261
     -0.2655457735
     -1.0960900897
      0.3077234911
     -1.3343157332
     -0.4279257976
      1.2957752752
      0.2508965416
     -0.7981808882
     -0.8070630207
     -0.8672645004
      0.4267784992
      1.8686298853
     -2.0019574161
      0.2396221444
     -1.7887378938
     -0.0229389296
     -0.4975453452
     -1.1340080410
      1.2673634007
     -1.5845574546
      0.1481968530
      1.8147165280
     -0.7786632100
      0.1659090509
      0.5397435298
      0.6220465486
     -0.3340914973
      0.5473325992
      0.8444298662
     -1.3559110745
     -0.9631416346
     -0.4916325659
      0.1962668626
      0.4198471346
     -1.8749282694
     -0.9907171242
      0.8994958916
      1.6346879796
      0.8253363320
     -1.1073681289
     -0.1231579326
     -3.1297358040
     -1.0161282746
     -0.2883986479
     -0.3866270677
      0.9176743097
      0.5882213964
      0.1839464011
     -0.4627445854
     -0.5625987437
     -1.7781672633
      0.4094166728
     -0.0213888466
     -0.9858984465
      0.5964174531
     -0.9858540799
     -0.9387775841
     -0.3115201524
      0.9501856268
     -1.1408389715
     -0.4772880204
     -0.7600937694
      0.1796269167
      0.2799157912
      1.7649069175
     -0.2054652482
     -1.6855918721
      0.6599496138
      0.6240288185
      1.2757033867
      0.2377320675
     -0.4756966529
      2.8438028518
      0.2850780863
      2.5535692965
      1.1535281802
      0.9319905187
      0.1238418116
     -0.9670417806
     -1.0319903957
      1.2297441048
     -0.4492436746
     -0.2809439732
     -0.3959227941
     -0.6705930100
      0.7151280097
      0.3879367982
     -0.5480915630
     -1.5456934301
      0.4647800734
      0.1217372873
     -0.4286108177
     -1.8579415111
      1.4788231152
      0.3851388793
      0.4547409816
     -0.4551284682
      1.0991698731
     -1.0421599669
      0.6888808796
     -0.5956989413
      0.3284055016
      1.9732433173
      0.3982418750
     -0.7489295999
     -0.2371604250
     -1.2410277905
      1.0441184991
      0.6005470899
     -0.1525766947
      2.0053156073
     -1.2358578039
      0.2210122042
      2.2029052717
      1.2167143591
     -0.0278938881
      0.0622690845
      0.0640142233
      0.0176918742
      0.0579259633
     -0.1294433628
      0.0286041435
     -0.0735250019
      0.0955466715
      0.0056678985
      0.0211393639
