      0.3865153688
      0.0532554740
     -0.1831436869
      0.4192882562
     -0.6071645281
     -0.2134667548
      0.1602253334
     -0.7200616527
      0.9439604275
     -1.7734733286
     -0.2312916244
      0.0048344263
      1.1511776841
     -0.4003439434
      0.4026357464
      0.0151508785
      0.1817960798
     -0.1244707667
     -0.7034484814
      1.4512764190
     -0.3084614940
      0.1655854999
      0.0672686791
      0.1681781736
      0.4244665090
      0.3214174927
     -0.3471923341
      0.0293568889
     -0.1147318869
      0.2857779219
     -0.3524217791
     -0.4221673008
      0.6107189233
     -0.0639218848
      0.4664612235
      0.0672114709
      0.4102613814
     -0.3478929388
     -0.2818311312
      0.8613474262
     -0.3887155995
      0.1386247466
      0.3496183988
      0.0606816414
      0.0816347646
      0.1820490250
     -0.0803290123
     -0.2131570593
      0.0438684466
      0.2317506949
      0.3038097229
     -1.9228201484
     -3.2154368137
     -0.4505972308
     -0.8831243869
      0.0860267920
      2.7248190711
      1.5545265697
      0.3189449918
     -0.1563498568
     -0.3341148577
      0.7496257981
     -2.0927925492
      0.3005457448
      1.1658522426
     -0.6161463565
     -0.0809485349
      1.7320731413
      0.0375874628
      0.0156274209
      0.4835059283
     -0.1054576560
     -0.8553627426
     -0.7207704401
     -0.0258550142
     -0.8629283019
     -0.1332705023
      0.8607672891
     -0.3009977068
      1.6229608430
     -0.2227496459
      1.2563286865
     -0.2380162269
     -0.4226108614
     -1.1263073087
     -0.0388749252
      0.7063954188
      0.6232133274
     -0.1547374970
     -0.6914500778
      0.5506500026
     -0.6004372945
     -0.6182135640
     -0.8183504214
      0.0728521702
     -1.0042491803
      0.5794484132
     -0.2786160468
      0.6472367136
     -0.3734899266
     -0.0795503958
      1.3318680109
     -0.5508199614
     -1.1799055924
      3.3993806085
     -0.7252983612
      3.5889160035
     -1.8253673958
     -0.0769400825
      0.7527728187
     -0.3112771073
      0.7023223894
     -1.2252130197
      0.3517853509
     -1.1346670288
      0.5418958259
     -0.0009410089
      0.2111961707
      0.0046941375
      0.3064950870
     -0.1382637324
      0.9072449207
      0.2943772891
      0.4116980333
      0.2023817307
      0.1305037486
     -0.6427732418
      0.6205775481
     -0.3031165338
     -0.3670836636
      0.2440881872
     -1.7080838285
     -0.8081993048
     -0.4187267244
     -2.1752753551
      0.3744243816
     -2.3443194108
      2.2201762366
      0.3487103502
     -1.0696965772
      1.1209214934
     -0.5230441908
     -0.6179141888
     -0.0442195777
     -0.3816339008
     -0.4490581773
      0.9483446704
     -0.4919846801
      0.0691072209
      0.0478058615
     -0.1840119201
      0.9704854530
      1.5635178226
      1.1659463234
      0.6188498930
     -0.0453295695
      2.0348415894
     -0.9909964390
      0.1244858539
      0.5152122347
     -0.9271662300
      0.2438633843
      1.5227058294
      0.1941564062
      0.3142580363
      0.3963321001
     -1.2451209038
      0.3114953396
      0.3395614663
     -0.4277869021
      1.1262220743
      0.5220843083
      1.2037980045
      1.8433422344
     -0.3332920674
      0.3021069396
      0.7746541884
      2.5319118767
     -2.8914771574
      2.4239376514
     -1.0644251028
      0.0031044744
      0.5856007465
      0.9760856674
     -0.0458943366
      0.1452730226
     -0.3203102559
      0.1392640006
     -0.1937113298
     -1.3566858328
     -0.6342172790
      0.3964461640
     -1.3910557216
      0.4641631122
     -0.0876479203
      0.4433255620
     -0.8397529601
      0.5674959813
      0.3920960005
      0.1368361978
     -0.0337256308
     -0.4107643510
      0.2831750566
      0.4947804391
      1.0623336914
     -0.2362561135
     -0.6979691536
      0.2447886819
     -0.2139381938
      0.2904727309
     -0.7616578959
      0.7750301405
     -0.4051257124
     -0.2046943010
     -0.5375664188
      1.1558393617
      0.3800999734
     -0.0907690934
     -0.4808509880
      1.0675838988
      0.5968546940
     -0.4697141756
      0.1473639121
      0.0170727422
     -0.3096174600
     -0.0072903601
      0.0439621253
     -0.7373618463
     -0.0611777382
      0.2117706797
      0.1194405819
     -0.1065983163
      0.0016456796
     -0.8499944530
      0.0824101773
     -0.0275814572
      0.6474578822
     -0.1098059521
      0.0526518968
      0.6335787592
      0.2904834728
      0.0575816099
     -0.0352656684
      0.2530238827
     -0.0908235391
     -0.0982167748
     -0.6807107367
      0.1085012193
      0.5106806494
     -1.1857077155
      0.9197001937
      0.0752042005
     -0.5052974257
     -1.3987752288
      0.0009927284
     -0.3246097521
      0.4654638284
     -1.9219263303
     -0.3663993878
      0.2003739011
     -1.1668432914
     -0.6954753027
      0.4701589494
      0.2219383415
      0.7006363251
      1.1493046455
     -0.1736475599
     -1.3623751050
     -0.6460767453
      0.4554257993
     -2.2204495834
      0.2753855900
      0.1859174073
      0.3640704029
     -0.6552244392
      0.4093806591
     -1.0790503458
     -0.3469102209
      1.2079368530
     -1.6212320399
      3.1343726379
      1.3783803912
      0.4478492264
     -1.8338612961
     -1.5307516023
      0.0783830460
     -0.4936139512
     -1.4605361558
      0.1178606070
      1.3191762706
      1.9745125385
     -0.3394045477
      2.0480552673
     -0.4211318141
      0.4758101879
     -0.4965659378
     -0.4000159141
     -0.4269324100
     -0.1452207578
     -0.3851231728
      0.2436701759
     -0.2161305423
     -0.0878831619
      0.2428620411
      0.0290678750
      0.0253369559
     -1.5896759420
     -0.7297997727
      0.5855386295
     -0.5829189102
      0.6272671661
     -0.3850589976
     -0.6294454576
      0.9062168285
      0.5481948385
     -0.3793127887
     -0.2054692929
     -0.0666761623
     -0.6605160087
      0.5218746493
     -0.4586302424
      0.3262248185
     -0.4419417858
      0.0941002226
      0.6115121743
     -0.0636331339
      0.0614510198
      0.2492812646
     -0.2617383380
      0.0338459462
      0.0587664911
     -0.0670501587
     -0.0931120314
     -0.5662996259
      0.4291092849
     -0.1379593640
      0.5578342771
      1.2787693897
     -0.3971725840
      0.6411321810
      0.1655690723
      0.1573630037
     -0.8362469328
      0.2615180360
      0.0155509870
     -0.0933949080
     -0.0507872443
      0.3745559510
     -0.3877072342
     -0.2242623463
     -0.4772844336
      0.5999966696
     -0.0766662069
     -0.4121999913
      0.5589353287
      0.2632925252
      0.4767060419
     -0.2338381339
     -1.0306669580
      0.2003193392
      0.5521228437
     -0.7963012047
      0.1303381361
     -1.2446694950
      0.0036330321
      0.2168869595
     -0.2196072717
     -1.1457561331
     -0.0163535382
     -0.3427819028
     -0.6963304925
     -0.2749159575
      0.1053681955
      0.8095617010
      0.2707308996
      0.3191702603
     -0.2310263566
      0.2111838019
      0.4770111156
     -0.8069812866
      0.0463780027
      1.0813164074
      1.3351801843
      0.2886897161
      0.2095994458
     -0.0732722802
     -0.1211367228
     -0.4390672486
      0.0177412797
      0.1179716098
     -1.2248865321
     -0.0220877608
      0.1302679458
     -0.9229102990
      0.0435282269
      0.2699885569
     -0.5867473139
      0.1009588808
      0.4321727949
      0.4676972234
     -0.7384039430
      0.1041508347
      0.6981541042
     -0.4716557616
     -0.1497870230
      0.5034018553
     -0.7472843007
      0.1438099256
      0.6180082837
      0.4319350674
      0.3301852901
     -0.1522867566
     -0.4356729591
      0.5956488204
     -0.3674308815
     -0.3946866898
      0.5101454525
      1.0958488613
      0.0130422123
      0.0240794309
     -0.0698125650
      0.1694354422
     -0.5721658499
     -0.0552867673
      0.4825413095
     -0.0647386500
      0.2722205932
      0.4432033947
     -0.3088599911
     -0.3499307123
      0.5365633800
     -0.1364932264
     -0.7698476187
      0.0810531647
     -0.2618189867
     -0.0693323746
      0.6448667278
      0.0574546298
     -0.4275639371
      0.3139020433
      1.6329631181
      1.0261110874
     -0.1623350858
     -1.1168513966
      0.6921085148
     -0.5367653357
      0.9037422627
      2.0442373302
     -1.4025415994
      0.6927976565
     -2.2800151777
     -1.5388451932
      0.5113076938
      1.2449732827
      0.6294128472
     -0.0040978460
     -1.0623183999
     -0.1174470804
      1.2040657176
     -2.0847512155
     -1.3006715217
     -0.2018607953
      0.2575939588
     -0.0949481925
     -0.6414808549
      0.2716614177
      0.3998561001
     -1.0511092933
      1.0417561317
     -1.6164053321
     -0.2275956722
     -0.1678109627
      0.1543248328
     -0.3981118563
     -0.0761901389
     -0.1086464304
      0.8271376248
      1.7512246549
      0.1510662173
      0.0020800867
     -0.1343346528
      0.5271881653
      0.1064878114
     -0.2753105511
      0.1149662191
      0.0324058036
     -0.8153590921
      0.0932235750
     -0.1908178263
     -0.5320853588
      0.4127058625
     -0.1688750311
     -0.3224044294
     -0.1129762454
     -0.4882034855
     -0.0475585676
      0.6698096650
      0.0410060924
      0.0373726521
      0.1463867823
     -0.3925097552
      0.0647903820
      0.5398509223
      0.9304363263
     -0.4308254591
      0.1722544468
      0.0271533921
     -1.6179646069
      0.1300781844
     -0.0926046210
      0.0224439116
     -0.0208062623
      0.5664488541
     -0.3771036138
     -0.2066587468
     -0.0284641490
      0.1562113701
     -0.1441128155
      0.2677947495
      0.3471414275
      0.4913087717
     -0.5608952787
     -0.3920752768
      0.3023664862
     -0.4598569445
     -0.2352162602
      0.0058614927
      1.1023009537
      0.6903124327
      0.0537344128
     -0.0795553558
      0.8467616177
     -0.3044364690
      1.0361552992
      0.3400514786
     -0.3124112343
     -0.6323556735
     -0.9826435929
     -0.1841286248
     -0.0833135154
      0.8412413076
      0.4726000247
     -0.5199578659
     -0.7259661404
     -0.0958131262
     -0.5417584257
     -0.2939464732
      0.6966631815
     -0.5071269683
      0.5697875235
     -0.1073614614
     -0.5779645213
     -0.7899693989
     -0.0499750817
     -0.3589242414
      0.2832284246
     -0.4792768653
      0.0332149488
      0.0805641721
     -0.0723789227
      0.3800007512
     -0.4095197695
     -0.9046071335
     -0.4276800905
     -0.1521406830
      0.3156703250
     -1.5760811758
      1.0293635911
      0.5484537517
     -1.3094781170
      0.0675998859
      0.2566964212
     -0.8895202860
      0.1320268462
      0.8163675498
     -1.0133274243
      0.8664048129
     -1.0867118456
     -0.5081417144
      0.5205550131
      1.1912411133
     -0.3578113416
      2.3202228864
      0.4363471095
      0.9355277457
      0.1467309027
      1.2481467897
     -0.3735900037
     -1.0394760505
      0.9538537908
      0.8633387755
      0.0696912744
      0.0797239544
      0.4900736806
      0.4149128418
      0.2371295726
     -0.0249615764
      0.0986759650
     -1.9757189518
      0.6372382205
     -0.4022103667
     -0.1973378315
      1.1432464671
      0.4830325683
     -1.0237052935
     -0.3542040068
      0.4264391155
     -0.1258817315
      1.6397670965
      0.3820928314
     -0.8015063900
      0.0473237570
     -0.5680022135
      0.2329759455
      1.3359283636
     -0.1146362783
     -0.2489936475
      0.9347178925
     -0.3995858362
      2.9396092193
     -0.5084528403
      1.0627674272
     -1.1095924670
      1.0077690921
      1.3216072418
     -0.5308852004
     -0.5252936786
      0.1810928454
     -0.8449814360
     -0.0563224708
     -0.5775783251
      0.8557132614
     -0.0385319052
     -1.7106881725
      0.3006365883
     -0.4132631512
     -1.6933677281
      1.1319037266
      0.0687246955
      0.7069194202
     -0.7298228136
      0.2583937193
     -0.3371871038
      0.0190194207
      0.1703200411
     -0.2190947259
      1.0789885912
      0.1884037796
      0.2754782156
      0.2895495717
      1.6786145480
     -0.5878934560
     -0.4613092809
     -0.4576493500
      2.5424666090
     -1.1180198476
     -1.7545622144
      1.4169371815
      0.1759677247
      0.4172679372
     -0.1866201286
      1.2663370858
     -0.2725081153
      0.8715940311
      0.5830929509
     -0.7280253013
     -0.0996988007
     -0.5533412960
      0.1937449036
      1.0942038349
     -0.6478922966
      2.4045175766
      1.2405245645
      2.5146196206
      0.1793932786
     -0.5372625433
      0.3421704177
     -2.1630376017
     -2.1968529053
      0.2767844270
      0.1054934605
      0.3659622428
      0.0559078490
      0.8004746349
      0.0789419867
     -0.1752662615
      0.0395588814
      0.3021949517
     -0.0348004208
      0.1198550462
     -0.8026776925
