     -0.1078162718
      0.7000273712
      0.6148699097
     -0.5581195092
      0.3157960104
     -0.2744897060
     -0.0679078952
      0.4797513952
      0.1445283668
     -0.6338871983
     -0.6245881214
     -0.5799245011
     -0.0497348319
      0.0079713092
     -0.0104524649
      0.3942158825
      0.6086945406
     -0.3376693645
      0.2888331438
      0.2675411898
     -0.0905114537
      0.0880228546
      0.1782209813
     -0.6848740893
      0.3215206631
      0.5962235495
      0.1930522667
     -0.2793693331
      0.0477763255
      0.3982763790
      0.1342044406
     -0.0123411786
      0.0011686449
      0.2159768958
      0.0806779486
     -0.1503012128
      0.0454943417
     -0.2448174999
     -0.0201038273
     -0.2119114802
      0.1683409611
      0.6293609566
      0.3016067948
      0.0856123448
      0.7147520391
      0.2065705803
     -0.0103410114
      0.0801789648
      0.2686391495
     -0.5171807749
      1.7729362496
     -0.0910302743
     -1.1603910308
      1.9182099732
     -1.7686650416
      0.2332019623
     -1.5839538334
     -1.4556667856
     -0.1548432886
      2.1422710570
     -0.8282039689
      0.1758474021
      0.7395610109
     -4.5576027240
      1.2147992420
      0.1085946913
      1.5564717164
      1.8839474607
     -1.1044130349
     -1.1237454038
     -2.6047424864
     -0.5712843566
      0.1904879097
     -1.2386031867
     -0.4872899943
     -0.9425632943
     -0.5685004445
      1.0750504627
      1.1694241183
     -0.9187557713
     -1.3551302536
     -0.0675140028
     -0.4918192239
     -0.5782185087
      0.0509944626
     -0.1047844765
     -0.3598227515
      0.1424216976
      0.6928679223
      0.3734722352
     -1.3096177952
     -0.7311827624
     -0.3042686613
     -0.5458569363
     -0.9718264346
     -1.6366738333
     -0.8924354614
      0.0624402381
     -0.3173283631
      0.3426765260
     -0.0042642423
      0.2580740423
      0.2182860743
     -1.2104680854
      0.3309212495
      0.8684232176
     -0.5627314861
     -0.7509637805
      0.7783002910
      1.3294960167
     -2.0188152388
      0.1353840968
     -1.5038557529
     -0.4322285649
      0.1074471296
     -0.3778641193
      0.5139675437
      0.7020997272
      0.8164330920
     -0.2346263423
     -1.0535136594
     -0.0906352750
     -1.1170479503
     -0.7270995891
      0.6225848217
     -0.8064553348
      0.3291708096
      1.1511090348
      0.1584102912
     -1.0884964008
     -0.6500841503
      0.7085418604
     -1.0390756469
     -0.6218600043
      0.4636930149
     -1.1341377814
      0.5804916385
      1.2438915969
      0.8228515159
      0.0213581728
      0.7530785110
     -1.0100214049
     -0.7005889501
     -0.0085140227
      0.5770796658
      0.2585516912
      0.7499825695
     -0.7264959064
      0.7971818589
      0.7229538577
      1.0146107983
     -0.5166743447
     -0.3979426795
      0.5961147474
      0.1596879628
     -0.4966835155
      0.9653621814
      0.6342584018
      1.1459861340
      0.5613074165
      0.1143570286
     -0.4135805375
      0.0472293596
     -0.1509438729
     -0.5274312698
     -0.0397644119
      0.1059910289
     -0.2267044362
     -0.2637750271
     -0.5996711067
      0.4113644319
      1.3458241640
      0.1468143281
      1.0886686024
      0.7768788666
      0.8544071757
     -0.5427239661
     -0.6219442381
     -0.7947852442
     -0.1244362208
     -0.8631916551
      0.2045194602
      1.3472155552
     -0.3737187027
      0.7947203063
      1.7510559660
      0.0021083322
     -0.0835659145
     -2.3156769531
     -1.0858363485
     -0.6227760946
      0.5566496907
     -0.0694212439
     -0.8259875670
      1.3841426916
      0.6642693683
     -0.7417773137
      0.2073959398
      0.4043283877
      1.9774885700
     -0.0862735374
     -0.9798649407
      0.0713899946
      0.1242030180
     -0.6790731537
     -0.7494336245
      0.9974813212
      0.4878595682
      0.2040511902
      0.2170002455
     -1.7576788174
      1.3051077271
      3.1240827536
     -3.0646172895
      0.0389760111
      1.0990122102
      2.0584693282
     -0.4359988796
     -0.5738173457
      0.2226675829
     -1.7230584712
     -2.4512615368
     -2.2923723102
      1.8632674780
      0.1164248853
     -1.8591829081
     -0.7610139553
      0.1798191273
     -1.0405303226
     -0.5565035969
     -2.3677744341
      0.7315059800
     -2.0670533363
      2.8053939155
      2.9908339310
     -1.6564087892
     -3.0164741678
      1.3414846359
      2.1673738946
     -0.3475251907
      1.3362699612
      0.3907760344
      0.2404276692
      0.7797406085
     -0.8351665692
     -0.2443386909
     -0.2086064620
     -0.4830260869
     -0.5400187509
     -0.4234067785
     -0.7244327159
      0.5440274836
      0.0546479079
     -0.5219049538
     -0.9482382999
      0.2422107085
      1.4797598113
      0.3543042796
      0.4770097950
      0.1502362944
      0.5013244196
      0.1596636440
      0.2579064183
      0.8088459149
     -0.2871527320
      0.4697947526
      0.6345209160
      0.3037313132
      0.7403858513
      0.0784925537
      2.2963352962
      1.0401656523
     -0.2635572318
     -0.3779065542
     -2.8484786609
      0.5247224995
      2.0142450970
     -1.7904317429
      1.2313275550
      0.5672799523
      1.9382048594
     -0.1183413439
      0.0478907610
      1.3128875143
     -0.9589944677
      1.3619105200
      1.0214801844
     -0.1399145326
     -0.4555991469
      0.3944538622
      0.6352621141
      0.2273552447
      0.7688526985
     -0.5962570744
      1.0589595498
      0.0726484841
      0.2880087624
      0.0071477993
     -0.3075350343
     -0.8454360344
      1.4556134990
      0.1380574863
      0.1349861254
     -0.2713102347
     -1.5551520648
      0.0122220572
      0.7487155749
     -0.6252647238
     -0.7789810990
      0.3249442428
      0.2155906950
     -0.6123736170
     -0.1532384126
     -0.0846056412
     -0.2927406045
      0.4739925146
      0.4695215571
      0.1360136338
     -0.3019985993
      0.3122207241
      0.6664963276
      0.1682070735
      0.9035054223
      1.4488749603
     -0.0436076043
     -0.1853838384
     -0.1667339423
      0.3920160472
     -0.3260722333
     -1.1382374722
      0.1994349567
      0.1199069682
     -0.3175903178
      0.9718492314
      0.4104748545
     -0.5099988199
     -0.1708614400
      0.6623446945
     -0.6567078733
     -0.5601900826
     -0.0553711249
      0.0247113704
      0.5183341018
     -0.4813955796
     -1.2378233163
      0.7204219590
      1.6980607253
      1.2281481978
      0.0087317428
     -0.5263905116
      2.7383067579
     -2.1546615491
     -3.8658766037
     -1.1382841794
      0.3846230265
      0.7106531842
      0.5513482410
      1.0805978479
      1.7120347325
     -0.5411318801
      1.0126508033
      1.8298199482
      5.3767679702
      1.2966407108
     -0.1745741507
      0.0597459721
     -2.0956700772
     -0.3563212587
     -3.2544379640
     -0.7377437884
     -1.4028830096
     -1.1460597927
      3.7790802769
      1.9729130315
     -1.5749333759
      1.0295088362
      2.1839658180
     -0.8214551158
     -3.7181449838
      0.3509549885
     -1.4967007037
      0.0475889280
     -0.1431132781
     -0.9196189447
      1.6341098102
     -0.1065863017
     -0.3097987775
      0.1186557355
      0.6960759989
     -0.0563676211
      0.0747682520
     -0.2672482295
     -0.8044318082
      0.4641910018
      0.4326409292
     -0.3450275960
     -1.0109214934
     -0.1840264231
      0.0504005612
      0.6365682130
     -0.0924266353
      0.2777578782
     -0.1720693250
     -0.1828921849
     -0.1882356042
     -0.1450415562
      0.3942825003
     -0.0531875278
      0.2727946742
     -0.1056528872
      3.2174227944
     -0.9479547578
     -1.9579767102
      1.2582705541
     -0.5439010851
     -0.6410216279
     -1.5590248541
     -0.0487646311
     -0.6110573724
      1.1044858653
     -0.4848853841
     -0.3076710208
     -0.2715318754
     -0.3227433031
     -0.3145162754
     -0.1477497735
     -0.0119821246
      0.0319544151
      0.0424744959
      0.1458769183
      0.3010656429
      0.4979598377
     -0.3017407580
      1.5351898017
     -0.4210960224
     -0.5516695522
     -0.0960564737
      0.2471176339
     -0.0204258283
     -0.0626519679
     -0.0842566861
     -0.1250075162
     -0.0306136868
      0.0117710269
      0.0183022837
      0.1873149242
     -0.3561667618
     -0.2078063676
      0.2718953914
      0.1810616718
     -0.0195002768
      0.7326592408
      0.7327314151
     -0.5501210887
     -0.1780031220
     -0.6848055204
      0.0672200800
      0.8101301856
      0.1686707655
     -0.8141849949
      0.7829577031
     -0.0121015123
      0.1454209902
     -1.9800233516
      0.4242503376
      1.1920449465
     -0.6449338515
     -0.8899613704
     -0.4430499191
      0.9674633777
     -0.0085560920
     -0.3409738392
      0.0153299284
     -0.2105640043
     -0.6593551871
      0.2799996283
      0.1580213290
     -0.5305808756
      0.3007403813
      0.3368606055
      1.1836462760
      1.1943409430
      0.1932365440
      1.9382287126
      0.4518585624
      0.2076572563
      0.6043837254
     -0.5493901559
      0.4876809258
      0.2578475840
      0.6235787365
     -0.6638876438
     -0.9995564787
      0.3645080056
     -0.4432410072
     -0.3542800301
     -0.1334108080
      0.0438244755
     -0.2213999495
     -0.3092835940
      0.3140058355
      0.7433990824
      1.0251376123
      0.4386134866
      1.2463984899
      0.4521906139
     -0.0660043248
      0.4188541646
      0.0094813048
     -0.2141253100
     -0.2864867391
      0.2216212942
      0.6509035490
     -0.6952518462
     -0.0490518740
      1.2877081643
      1.3066687718
     -0.0082804098
      0.9910070717
      0.4267970289
     -0.7082499783
     -0.3997313592
      0.2327972088
     -0.3296505763
      1.1819871632
      0.3028831704
     -0.2348425810
     -0.1654662037
     -0.0479742629
      0.6011888497
     -0.5580348831
     -0.1133528953
     -0.2470084544
      0.0283687167
     -0.1172553326
     -0.5787911919
     -1.0629369372
     -0.5025586792
      0.1733090639
      0.8168878131
     -0.2365434063
     -0.4737699698
     -0.3102912743
     -1.0613592039
     -0.8687546131
      0.0516588349
      1.2556290199
     -0.4866278510
      0.4154717925
      0.1882842799
      1.8431750799
     -0.4845174554
     -0.3582139051
      1.8612035979
      0.3280181099
     -0.5816943298
     -1.1416082582
      0.1996295940
     -1.1720217075
      0.7755820186
     -1.1883431196
     -0.2748071231
     -0.0648505570
     -1.9511959125
      0.3715931146
     -0.8111571605
     -0.4639328232
      0.1428432389
      0.0481870201
     -0.5696736805
     -0.3238374771
     -0.1481032820
     -0.4905845289
      1.1333221258
     -0.0803974030
     -0.4032741371
     -0.8588061522
      0.2777905184
      0.0255445887
      0.2628597141
      0.8037073000
     -0.3663019724
     -0.2286299700
      1.8380360393
      0.2523224979
     -0.8245354900
     -1.8409233891
     -0.2241975454
     -0.4353639499
     -0.2117145087
     -0.5566353769
      0.6069360627
     -0.2328814987
      0.3314140932
     -0.1977178531
     -0.2230333689
     -0.2598689288
      0.0831836407
      0.5972565162
     -0.2996131081
      0.1687465495
     -0.0111057937
     -1.1296175942
      0.1721879694
      0.3425889757
     -0.3292531062
     -0.5884142226
      0.0369009254
      0.3232716099
      0.3437267110
      0.3400462174
      0.7276690728
      0.9301842341
     -1.6337595190
     -0.8915274692
      0.5280324775
     -0.5756299556
     -0.5623555358
      0.7817617921
      0.0122693510
     -1.4465349491
      0.9116912939
      1.2604245848
      0.1533140793
     -0.4853547474
     -0.7889977215
     -0.1336943826
      0.0578589064
     -0.2347673225
      0.0850947324
     -0.8244639827
     -1.1775734766
     -3.0608467376
      2.0516178574
      0.4935025064
     -0.2914567260
     -0.8906961463
     -0.5629291429
      2.2162327842
      0.3885183404
      0.5858897543
      0.4740012563
     -1.2433871608
     -1.4904155298
      2.1552962455
      0.1972535687
      1.0173104222
      0.6522070856
      1.0250166154
     -0.8466760616
      0.9918326228
     -0.5119247972
     -0.1582122423
      1.0113233689
     -1.1765129629
      0.1939573864
      0.2925451732
     -0.1219134624
     -0.6299622092
      0.2926039931
      0.2133351606
     -0.0110637289
      0.5720415714
      0.0846959444
     -0.8933152952
      0.5512397020
      1.2889045187
      0.6592290124
     -0.0979819873
     -0.6946457392
      0.1785927785
     -0.2938091537
      0.1860826731
      0.5300335268
      0.1995551602
     -0.0853183558
     -0.3327206639
      0.3073973497
     -0.3434374812
     -0.0468378707
     -1.9453956092
      0.7783131092
      0.4137471956
     -1.0631022610
      0.7014993106
      0.4637104177
      1.0509470614
     -0.9867019816
      0.4202966347
     -0.2588498282
     -0.0700783884
      0.6036676377
      0.3093417387
     -0.2999299712
      0.2194629562
     -0.1275896797
     -0.1855246237
      0.2000951812
      0.2512078012
     -0.0271023897
     -0.3002883514
     -0.2463784581
      0.0241709028
     -0.9381072877
      0.4660699449
     -0.1441250304
      0.1957098071
     -0.3232499076
      0.0751658617
      0.0107161742
      0.0980983597
     -0.2214885761
     -0.6461246014
      0.8638191812
     -0.8232319043
     -0.2034310449
     -0.0904544054
     -0.2654776026
      0.0366466797
      0.4298038760
      0.1437569702
      0.1578318690
      0.1459973253
     -0.3147624316
      0.1301342974
     -0.0399119981
      0.2997931969
      0.4936863074
     -0.2436059343
     -0.1930729594
     -0.0784745792
     -0.5575241829
     -0.0514783937
     -1.0479374423
      0.1224159415
      0.1323349747
     -0.3421663602
      0.0518346542
     -0.4250231503
      0.1032102846
     -0.9735887713
     -0.6469129925
     -0.8015117693
     -1.1777828088
      0.8477552342
      0.0576054667
      0.6970661733
     -0.4622837971
      0.2139045791
      0.0919370409
      0.9583809277
     -1.6021746849
      1.0993558913
      0.3318934464
     -0.6152059805
     -1.2718487722
      0.8729483779
      2.4619746747
      0.6836009179
     -0.7636278896
     -1.2259131641
      1.6388270621
      0.3511215180
     -1.3641268812
      0.9996187582
      0.3661517077
      0.2389544084
     -0.4831971774
      0.7304735674
     -1.3157427554
      0.8038614942
      0.8404034736
     -0.6130025619
      1.0818077099
      0.3991677285
      2.2745534057
     -0.2554221653
      0.1726647508
     -1.5842275759
     -0.7515994266
     -0.4351358335
      1.3735405339
     -0.7811694525
      0.5356528193
     -0.2337426389
      0.4134157928
     -1.3256076589
     -1.6746812169
     -0.8101168356
      1.0309299288
     -0.7621302265
     -0.2696088241
      0.5065694200
      0.7693635737
     -0.4210627269
     -1.3779926853
     -0.9450794984
      1.4299983104
      0.6360168704
      0.4362342449
      0.0901692377
      0.8305078820
     -0.9057361928
     -1.0508443745
      0.4829481936
      0.6200364824
      0.7494847266
     -0.5401945225
      0.2458094613
      0.9429904239
     -0.2773271090
      0.2023796853
      0.8773178901
      0.9660910357
      1.0970678040
      0.2155725021
     -1.7289530059
     -0.5033363516
      0.3663857838
      0.2484604747
      0.8548435075
      0.8586092187
      0.4185414727
     -0.2013248372
      0.1645671186
     -1.7061303216
     -0.0588125490
     -1.4374706845
      1.4946945600
      1.1644690773
      1.1910794084
     -0.8490765936
     -2.6404503197
      0.1605106023
      0.4875285278
     -0.2630830815
     -1.0743563597
      0.0911394927
     -0.9817268158
      0.3343868358
     -0.1900367164
     -0.5872861461
      0.3969262698
      0.8413689817
     -1.1735757108
      0.5612259818
     -1.9139476406
     -1.0966979665
      0.3105929163
     -0.4822488815
      0.1900986554
      1.0211637205
     -2.1388718680
     -0.5039119370
     -1.3819885772
      1.8179394342
      0.0296961644
      0.0846351669
     -1.8005995274
     -0.9577891119
      0.0822760421
      0.0474875944
     -0.0587021738
      0.0569844334
     -0.0399361305
     -0.0120143989
     -0.0654272605
     -0.0212577929
      0.0870761063
     -0.0567725237
      0.0609867905
