     -2.9148368006
      1.4836135936
     -0.5638187365
      0.1314049212
     -1.8835070986
      0.1535003865
     -0.1645757605
      0.6116592768
     -0.0279488958
      0.3801896316
     -0.0920724237
     -1.1350313293
      0.1019424692
     -0.4069802789
      0.6731744689
      1.0964582684
      0.5506171940
     -0.5622001879
      0.1438322360
      0.8698506103
      0.5590366497
      0.1567697216
      0.3825057970
     -0.0458276879
     -0.5362355794
      0.1823572356
     -0.2894784578
     -0.6872959862
      0.3955392338
     -1.0288010294
     -1.1381539941
     -0.9735938768
     -0.6923999316
      0.7383500733
     -0.4870632678
      0.3725004813
      0.3011420216
     -0.9267906376
     -0.7075658444
      1.4970317968
     -0.7116972275
     -1.2019625926
     -0.4706030827
     -0.3450926581
      0.5813094809
     -1.0249644028
     -0.3869420109
     -0.1822367818
     -0.4527035767
      1.2429020828
      1.3400422280
     -0.9106404804
      0.6806725022
      0.3673105747
     -0.2770466228
     -0.9121826500
      0.1853500635
     -0.0980330623
      0.1927129244
      0.1507183540
      0.8731987864
      1.5050630441
      0.9117323235
      0.8681927495
     -0.8067694072
     -0.7719117417
     -0.8811764650
      0.5601025556
      0.7217000094
     -0.0586036863
      0.2030868603
     -0.3138459797
     -0.5804520176
     -0.2534273728
      1.5363571521
      0.5225503804
      0.2016864640
     -0.0705690357
     -0.3131158512
      0.7231236997
      1.1037198152
      0.3755448436
      0.9814007038
     -0.5434809465
      1.6883901212
     -0.1215617833
     -0.2778056048
      0.9722851707
      2.1399392091
     -0.2699808998
      1.1038495479
      0.5665869663
      0.4329039371
      0.6168845963
     -0.5577856829
     -0.5608737458
      0.1649543040
     -0.2920667706
      0.4326238499
      0.4165756477
     -0.0514964042
      0.5961297981
     -1.3588797070
      0.3623895579
     -0.0187566428
      2.0098719422
     -0.3115049801
     -0.0495473131
      0.4218000818
     -0.0248612342
     -0.1465869974
     -0.5767367299
     -0.0647809492
     -0.9066851784
      1.3144880202
      0.7063082389
      0.3196612340
     -0.2255036345
     -0.0651372078
     -0.3152772577
     -2.0116257374
      0.3298591140
     -1.0553251230
     -0.4093903158
      0.9030917324
      0.1492758963
      0.1293069017
      0.5485432260
      0.7293331395
     -0.0424484004
      0.1437230073
     -0.2748390184
     -0.2899605166
     -0.0427539400
      0.2782326250
     -0.7380148412
     -0.0158874483
      0.5478092332
     -0.8419935064
     -0.3298757824
     -0.3804302639
      1.0542617608
     -0.5191576734
      0.3976894276
      0.2722303496
      0.0638748629
      0.3889324638
      0.9850839482
      0.2048801112
      1.4748914488
      0.7520710714
      0.0244096815
      0.7038375874
     -1.6395807313
      0.8046531067
     -0.1225456917
      1.0007059160
      0.1808210855
      0.1484299784
      0.6540263941
      0.0392127212
     -0.1197901902
     -0.6776833489
      0.8091636500
     -0.1185294966
      0.4283265683
     -0.3600431295
      0.3537658676
     -0.0807471624
     -0.1515860659
     -0.7867018009
     -0.1069491298
     -0.2110378729
     -0.4717543652
     -0.5940400152
     -1.1861632094
      0.9336226865
      0.5219382193
     -0.5573510504
     -0.4910964246
     -0.0498232898
      1.6789159853
     -1.6919425676
     -0.3380834039
     -1.9506497129
      1.3607607030
      2.1865484232
      0.1599747900
     -1.7850961427
      0.8366213049
     -0.7191488411
     -1.7956518736
      0.3289381015
     -1.3268364413
     -1.9386475242
      0.0585220150
      0.5880654442
      0.0852649543
     -0.1349668352
     -1.2166371867
      0.0362536083
     -0.3367932340
     -0.1677338692
      0.4483520474
      0.5576384823
      0.3506161880
     -1.0982580959
     -0.3532532068
     -1.0919704615
     -0.7526105180
     -0.4242381892
     -0.1987904174
     -0.0587302454
     -0.2165154366
     -0.0012112035
     -0.5549845750
     -0.1744069936
     -0.4232700448
     -1.0417247403
      0.4511266933
     -0.2658881763
      0.1527655564
     -0.9704916076
     -1.8513247031
     -0.6494549285
     -0.9143650434
     -0.9985525293
      0.0207799119
      0.4426363553
     -0.0572089950
     -0.5354919455
     -0.6602960522
      0.2174461110
      0.4846956979
      1.5181910546
      0.5904850260
     -0.2284229865
      0.1372516885
     -0.2292012419
     -0.5840446525
     -0.2355560398
     -0.0302428927
      0.2875796666
     -0.9435826731
     -1.2483694801
     -1.0032056961
      0.6160401222
     -0.1246434551
     -0.4806576616
     -0.0475387656
      1.2384285516
      0.1434306167
     -1.3277845344
     -0.4128927952
     -1.1520187016
      0.5183934856
      0.0596649921
      0.0742014457
     -1.0782297887
      0.0624358448
     -0.1703100329
      0.2220633010
      0.6070593211
      0.1502890138
      0.1144381367
      0.0487678584
     -0.6130950410
     -0.1236923093
      0.3788704060
      0.4138106334
     -1.9234393431
     -0.7157317005
      1.6008380178
      0.8679108001
     -0.3380488615
     -1.1513345428
     -1.6594628764
     -0.3235549006
      1.4369851255
      0.0320870001
     -1.0897095353
      1.8143720651
      1.0382248989
      0.8158860065
      2.6754278956
      1.7010719660
      1.4359739219
      1.9167164538
     -0.3420355265
      1.0075649882
      0.7195672276
     -0.4821180919
      0.8665154809
      1.1175606952
      1.8766772221
     -0.6473894173
     -1.1324096753
      0.1592198721
      0.3004039369
     -1.7947898718
      0.3225079441
      0.2417914660
     -0.0022747758
      0.4880697745
     -0.1917309277
     -0.0040017362
      0.1346906468
     -0.5243710152
      1.6582453754
     -0.5391987581
      0.0206033961
     -0.5765788356
      0.0747658362
     -0.2486522010
      0.2304609981
     -0.6735780997
      0.6857895784
     -0.5749548384
     -0.4529994157
     -0.0196180015
     -0.3180937498
     -0.3460468637
      1.0506786752
      1.5339580569
      0.3842305795
      0.1666673392
      0.7934879912
      0.2465224250
     -0.8423363488
      0.4142926624
      1.2915926461
     -0.1775654984
      0.1314246166
     -0.3584097253
     -0.6959008199
     -0.0100244751
      0.0733356872
     -0.9708719181
     -0.0503322486
      0.1173775835
     -0.2859978288
      1.5244319998
     -0.1366297174
      0.4414334296
      1.3666288641
     -0.0928272440
     -0.4371641092
     -0.3319588195
      0.7161536973
     -0.1403886444
     -0.6412321168
     -0.3808599184
      1.2792348758
     -0.1218513150
     -0.0138630379
     -0.4140725467
     -0.2440864157
     -0.6778119860
      0.9094085214
     -0.7979726003
      0.2861153178
      0.5981173106
     -0.0214416519
      0.8748037582
     -0.8227946803
      0.1686254097
     -0.2593767631
      0.3868279115
      0.2465376737
      0.8903094855
      1.4264467274
     -0.3084025326
     -0.3518415901
     -0.7688641689
      0.5505931012
      0.0282620078
      0.3454296687
     -0.1790564756
     -0.5939616689
     -0.4141311783
      1.4617415010
      0.3146226742
     -0.3177780277
     -0.1254154645
     -1.8583879941
     -0.9881210880
     -1.3608042497
     -0.7523853892
      0.2914122039
     -1.6671232402
      0.8305449400
      0.7925606182
     -0.2252831251
      0.0676658062
      0.3780228564
     -1.3390374011
      0.1238755393
     -0.6932441380
     -0.6666265455
     -1.1419931241
      0.7489770838
      1.3620047770
      0.1627270661
      0.1586392834
      0.5546878473
      0.8868340547
      0.0216031966
      0.1024852449
      0.9643281186
      1.0285694805
      0.2959456834
      1.2554291806
      0.8798450030
     -0.0964292650
     -0.3844488270
     -0.9822251510
      1.2198856990
      0.2549468640
      0.3960945426
      0.2740076488
     -0.8698881586
     -0.0964937557
      0.4537309970
      0.7054968874
      0.0091426761
     -0.5964106877
     -0.1586309912
     -0.7210700900
     -0.4332509965
     -0.6352391794
     -0.6825387949
     -0.8530604265
     -0.4653159316
     -0.1906467571
      0.5140587040
     -0.1138575406
      0.3025480512
      0.8876288945
      0.5517141418
     -1.1444117496
     -1.2181466164
      0.1867367666
     -0.3080242822
     -0.2997759711
      0.0282829110
     -0.9854466327
      0.0276787769
      0.6185745119
      0.1096452928
     -0.6994488664
      1.4122884930
     -0.5678789231
     -0.1509228931
     -0.8033870009
      0.5465618507
     -1.7368577668
     -1.0135002370
      1.1414525943
      0.6176738951
      0.0886568741
      1.1741535597
      0.3709042274
     -0.3805202447
     -0.7489090722
     -1.0427043095
      0.2234997344
     -0.3974314477
     -0.3292446257
      1.9652650896
     -1.0306278896
      0.4838617088
     -0.8883185918
     -0.4427610750
      0.6333517381
      0.8128707414
      1.0644522373
     -0.7009019706
      1.0546673243
     -1.0408270005
     -0.6170549558
      0.2620533600
      1.7854949750
      0.9313613142
     -0.0660889495
     -0.0308735364
      1.8762825175
      0.1959975797
     -0.2098302223
     -0.2098191690
      1.1899649161
      1.0638725734
      0.8785595721
      1.2660406151
      0.6726787964
      0.8116203967
     -0.0578679653
     -0.3857344105
      1.3639759309
     -0.2041393992
     -0.9723323722
      1.1621388464
     -0.1069897799
     -0.9004861731
      0.6409101353
     -0.4149029289
      1.3456691125
      0.5117361459
      0.3870264387
     -1.2159363036
     -0.0649591005
      0.0474472888
      0.1607166062
     -0.1374534306
     -0.1318672924
     -0.2473683566
      0.1828046992
     -0.0200356498
     -0.0432431061
     -0.1051191039
     -0.0635140105
     -0.3541139463
