      1.1123609436
      0.2047423884
     -0.0122023433
      0.7244116681
      0.5317882462
      0.1589766826
      0.5636284129
      0.7306146160
     -0.0269590323
     -0.0192486213
     -1.1007884938
     -0.4861448852
      0.3613460664
     -0.3065719355
     -1.1789039527
      0.1926881499
     -0.2804265257
     -0.3251466836
     -0.1138812676
      0.5072927079
     -0.7094015656
     -0.2622816620
     -0.2322605713
      0.0820612620
     -0.2629649872
      0.4286482948
      0.0373366383
      0.0582334669
      0.4036900036
     -0.2610373487
      0.2782712749
      0.1581158503
     -0.3139072943
     -0.4272196315
      0.0433828820
     -0.1709745430
     -0.3908291919
      0.0447843907
     -0.0090010608
      0.3725412652
     -0.3509094883
     -0.4366311546
      0.0323873743
     -0.5859483191
      0.1349360502
     -0.1608023592
     -0.6830607842
     -0.6689189509
     -0.2266640119
     -0.1461505456
      0.7518060229
      0.5058314174
     -0.3437272902
      0.8221263957
     -0.1482329541
      0.2647710492
     -0.1351373315
      0.7513259549
     -1.0791469320
     -1.8961780164
     -1.3193312818
      0.9825351993
      0.6915875275
     -1.5172721566
      0.3962903814
      0.5601552821
      0.2307157455
     -0.2393908881
      0.7264818395
     -1.9210852784
     -1.9565804321
      1.1117956005
      1.8521334015
     -2.0105426305
      0.4725349125
     -1.5553610421
      0.6943937883
     -1.4054824682
      0.0849584650
     -0.1399107082
      0.2773170148
     -0.6513000763
      0.1716174596
      0.7740531646
      0.0647213452
      0.5822418837
      1.4191567582
     -0.2809155035
      0.2076147936
     -0.7651636365
     -0.5299627947
      0.2773725101
     -0.0219446272
      0.9861537003
      1.2905095266
      0.5211862737
     -1.1682397274
      0.3537896493
     -0.1440733135
     -0.1367652735
     -0.5709526223
     -0.3096644514
      1.3418558611
     -1.1996722518
      0.0223697735
     -1.9860534688
      0.0836097181
     -0.4629657192
     -1.4211803363
     -0.6391166445
      0.7340562984
      0.3335183141
     -0.1026714778
     -1.2559788037
      0.6776804022
      0.8609514172
     -0.4053048358
      1.5922241192
      0.9433582613
     -1.1519338996
     -0.1919486675
     -0.3872531515
     -0.5192757944
      0.7913438802
     -0.9691312551
      0.8288881792
     -0.7987798603
      1.2633118488
     -0.0490018156
      0.0952413246
      0.0766627862
      1.1027608077
     -0.6494246534
      0.7754486847
     -1.9905757635
      3.5967575581
     -0.3777285140
      0.4704257624
     -1.4215910982
     -1.8908373696
      0.6421572960
     -0.1872471571
     -1.2413987345
      0.6240704890
      0.0806068294
     -0.8080625383
     -1.5607183036
      0.7838131666
     -1.8526797734
      1.5963471729
     -0.3455389449
     -1.4124276302
     -0.7799267528
     -0.7002317338
      1.2657263441
     -3.4267008330
     -0.4148531236
      0.1689769717
      0.8811455345
      2.1185004091
     -0.9778593340
     -0.2082046750
      0.7100175140
     -2.0788220144
     -1.0839215540
      0.6847699973
      0.2341387140
     -0.5608386749
      0.6357591592
     -0.2672120687
     -0.5016927055
      0.8922089071
      0.7823905735
     -1.8641764532
      2.6208819912
     -0.3180516042
     -0.9861030063
     -0.9163449701
     -0.0716395415
      1.9484833605
      0.5580915324
      0.7261350576
     -0.0056190717
     -1.1248083746
     -1.2823384133
     -0.3424016403
      2.6586422086
     -0.9165216296
     -0.5785941699
      2.4550781184
      1.2716450190
      0.4950501236
     -0.5526439555
      1.0089518122
     -0.8613581021
     -0.1047851141
      1.2758017641
      0.6043394294
     -0.2859363797
      0.8435434849
     -1.6652566535
     -0.6220058919
      0.0697318148
     -0.2946472128
     -0.3739932695
     -0.1040914553
      0.3880322303
     -0.2492206185
     -0.7476876911
     -1.3026368794
     -1.8376940816
     -1.1139601711
      0.4099709469
     -2.2288114247
     -0.7604784880
      1.0267712554
      0.4147609885
      1.1476212360
      0.1782123091
     -0.6883682429
      0.4443427971
      0.8396141531
     -0.6773386068
      0.0087255405
      0.1908153200
     -0.1017877228
     -1.4103317000
      0.8271019233
      0.2303518375
      0.5397798797
     -0.1889943792
     -0.5173096441
     -0.5734719428
     -0.4860958750
     -0.1661549922
     -0.5610451330
     -1.9714288569
     -0.7061334362
      0.8209134842
      0.1002698016
     -1.1372701906
     -0.0227092441
     -0.7191209376
      0.1973402613
     -0.5949676539
      0.5726793822
      1.5435456228
      1.1287873346
      0.5582994173
     -1.6010978269
     -1.1252422338
     -0.2454273648
     -0.7715459847
     -0.4030801893
      0.1313249605
      0.8916151519
      0.5197428685
      0.8043452339
      0.9424825850
      0.0027847474
     -1.8563536817
      0.5379335573
     -1.1877953247
     -2.1416946517
     -2.0453811055
     -0.8437372167
     -0.0754549592
      0.0360595203
     -0.3920390347
     -0.0665768367
      1.2037124017
     -0.7192879524
     -1.6158069912
      0.3446120358
     -0.0380802813
     -0.1641361358
      0.0955300030
     -0.4834527888
     -1.3344152210
     -0.8103085693
     -2.1954503147
     -2.5536256264
      0.2695360476
      1.1206855916
     -0.6957141030
     -0.1701897286
     -0.2702578502
      2.9827904162
      2.7907389038
     -0.1903668081
      0.5369882810
      0.6257867268
      0.2529410727
      0.9054229310
      1.3960625963
      0.5995082043
     -0.1995656909
      0.8318798960
      0.8047445566
      1.0980163822
      0.7932229132
      0.8357209597
     -0.2524143641
     -0.5118800241
      0.2725289935
     -0.5865594474
     -0.5107648073
     -0.0155867248
      0.1512827393
      1.4178839451
      0.9745194076
     -0.3249252679
     -1.4608039227
      1.1214101372
     -1.1847419573
     -0.9974858554
     -0.7958649703
     -0.6631269041
     -0.5304065146
      0.1975551802
     -0.3573470563
     -0.8671561649
     -0.0788802176
     -0.6198772370
      0.1059712638
      0.1435067991
     -1.7267389085
     -1.7039536001
     -0.1772304854
     -0.6632770894
      1.1541162348
     -0.3582065917
     -0.2158420228
      0.7091559838
      1.2517153738
     -0.7050398426
      0.1018410330
     -0.2080490529
     -0.9831927562
      0.0102617322
      0.5166466889
      0.0657894360
      0.0947765493
      0.0016718507
      1.1040404156
      0.0674901123
      0.4570071727
      0.0020265833
     -0.1859962666
     -0.3005492971
      0.3819800809
      0.7485161954
     -0.0725735195
      0.1148154286
     -0.1517888400
      0.1577074204
     -0.0169313046
      0.5135762548
      0.5426553827
     -0.3582908925
     -0.2529667470
     -0.9197082162
     -0.9138514748
     -0.0469711886
      0.5488720313
     -0.1353873686
      0.7438434514
     -0.1512463615
      0.9381224036
     -0.4274952900
      0.1127681822
      0.4980026873
      0.9451893116
      0.6303331250
     -1.1078786538
      0.0808307565
     -0.0733832794
     -0.1752003024
     -1.0232038763
     -0.6763655034
     -0.9112307683
      0.8236107667
      0.7824312400
      1.4934198954
     -0.7326688583
     -0.3000204965
      0.9085228414
      2.0820935441
      0.6416818303
      1.4327924278
     -0.2462516528
     -1.0614330598
     -0.3361685048
      0.3335900886
     -1.2098718985
      0.4864025467
      1.1986748982
     -0.2755169308
      0.4698437955
     -1.3524602517
      0.5620856110
     -0.4121361112
      0.0934119404
      0.5846233044
      0.2014272032
     -0.2514017198
     -0.3443769275
      0.5041822754
      0.0286511315
      0.0651340428
      0.2363107850
      0.6353137865
      0.1983843479
     -0.1495256925
      0.0157981171
      0.2976408768
     -1.4751548013
      0.5964612311
     -0.5193704936
      0.5251658737
     -0.4196328079
     -0.8339098536
      0.2869329303
     -0.3625103472
     -0.1214472679
      0.3109226467
      0.7157705929
     -0.6256557132
     -0.6188536582
     -0.9140079897
      0.8681150962
      0.5496059031
      0.3636513667
     -0.0919592261
      0.6910607685
      0.2083936027
      0.7896842931
      0.4570689498
     -0.3614080579
      0.6160328729
     -0.5528178873
      0.6148083853
      0.6313606899
     -0.9083624518
     -0.1692936181
     -0.6603984161
     -0.3558925582
      0.9730620545
     -0.5338542965
      1.4705581933
      1.0347961489
      1.9037604663
     -0.0996563062
      1.1709981032
     -0.5383724358
      0.8189676538
     -0.1862176360
     -2.2279548187
     -0.4598740515
      0.3437954057
      1.1918961825
     -1.8186376557
     -0.4483997862
      1.3115089888
     -1.9599982692
      1.3082735372
     -1.3248508043
     -0.3004828304
     -0.2894213303
     -0.7286438791
     -0.2497013039
     -0.4385728330
     -0.4734257696
      0.4041604927
      0.0716561499
      0.0956292445
     -0.5642661830
      0.0588327731
     -0.1619357251
     -0.4730650220
      0.4843335580
      0.5525265228
      0.9526775592
      0.1021477723
      0.5455263722
      0.5809886263
     -1.5036066525
      1.1064142467
     -0.0506420175
      0.0399747334
      0.9900175265
      0.9900213027
     -0.3498208649
      0.0881109035
     -0.7596047956
      0.0861495656
     -0.4752849668
      1.1804002458
      0.2354030635
      1.0299492628
     -1.4098821213
      0.1972169264
     -0.0552854215
     -0.9812119805
     -1.3259567640
      0.9585974884
     -0.4966102141
      0.3199789516
      0.9511996404
     -0.9573017561
     -0.4934839402
     -0.4041901434
     -0.4599361741
      0.6821942176
     -0.6137083933
     -0.0099490920
     -0.5493412040
      0.4433913963
      0.2940861229
     -0.4520490969
     -0.2534111279
     -0.3188375743
     -0.3993220364
      0.0492833564
     -0.3986788923
      0.2425385654
     -1.5013976761
      0.0662876902
      0.3286233690
     -1.7838626255
      0.8456333223
      1.1823235484
      0.7847412757
      0.6184838342
     -1.2046332294
      0.7422593515
     -0.8238370062
      0.6644238045
     -0.3554799389
      0.0380795448
      0.5003195556
     -0.3033125008
     -0.6841368312
     -0.2938114253
      1.0772024213
     -0.2759744061
     -0.2354656438
      0.2279274294
      0.5823094880
      0.3975223240
      1.6186166779
      0.3285796014
     -0.3596998801
     -0.1449788257
      0.7454291459
     -0.0328503613
      1.1488311489
     -0.4361086801
      0.3899177454
     -0.6552291628
     -0.1009774862
      0.3947051875
     -0.3085154883
     -0.5745358558
      1.0235061109
     -0.0520137911
     -1.1628060459
     -0.1803260735
     -1.1411745446
     -0.5704880933
      0.3436171281
      0.3486439172
      0.0118675733
     -0.4998053756
     -0.8643927545
      0.8835352297
     -0.6422411898
     -0.6354549145
     -2.4591701391
      0.7092211286
     -0.2951915386
      1.8705699089
     -0.3747604099
      1.5072575097
     -0.5417778568
     -0.7435397002
     -1.3145891040
      0.0698598424
     -1.1012324742
     -1.7032992292
      0.0180045601
      0.2856588643
      0.1486813527
     -1.7345628886
      1.1889472114
      0.0584379497
      0.6580927422
      0.8659834103
      0.6549160081
      0.9148492195
     -0.4289434163
     -1.0748524863
      1.6420877880
      1.1397722997
      0.8410079588
     -0.5197294450
      1.7658215113
     -0.6889389541
     -0.4621829351
      0.4937928736
      1.0365062681
     -0.5332505333
     -0.1665011853
     -0.5206232151
      1.6365293164
      0.1922106124
     -1.3406933316
     -0.1988675769
      0.5499469115
     -0.5772851262
      2.1700247961
     -1.6086587916
      0.3436276001
      0.0387827031
      0.7882178323
      0.2872883973
     -0.9193856210
     -1.2383281146
     -0.3434761750
      0.5190345018
     -0.4305671682
     -2.6033148944
     -0.0138694907
      0.5855448787
     -1.3472806314
      0.3395164895
     -0.4307747532
     -0.7018266887
      1.6704909660
      0.1935550193
     -0.3617018316
      0.2348023566
     -1.7060281449
     -1.5120821755
      0.4316384614
     -0.5317753864
     -0.2588779039
     -0.4123501288
     -0.5908241023
      0.4150354977
     -1.2165105855
     -0.2965212592
      0.4875877494
     -0.6387030184
      0.8827496313
     -1.4148677783
     -0.6318406201
     -0.4383198595
     -1.7476573176
     -0.5716580090
      0.3755805560
     -1.8809796605
     -0.0475000058
      0.4238724737
      1.6194181757
     -0.4523108041
     -0.0746829930
     -0.3973766366
      1.0963699445
     -0.0131411950
     -2.0280593448
     -2.7620753518
     -2.7677252648
      0.8852369527
     -0.2404041951
     -1.9146444702
      2.3581188261
      3.2047769493
     -1.5108043231
      1.8669901432
     -0.0864421847
     -0.0414204753
      0.4497691043
     -0.0496656910
      0.0321267685
     -0.0829403565
     -0.0155653355
      0.9661839088
     -0.0122735386
      0.0814580823
     -0.5952896108
