     -2.2591115184
      0.2714043020
     -0.1902048994
      0.3070744414
     -2.7835252373
     -0.1067838595
      0.9163427842
      1.1800625566
      0.5242284712
     -0.3716951991
      0.2614237627
     -0.4587293947
     -1.4672270977
     -0.2639294574
      1.6796709562
      0.2569475600
     -0.0692790607
      0.5969917925
     -0.9903692324
     -0.2278793316
      0.1934336785
      0.4695974203
     -0.0338279982
      0.2129796318
     -1.7279470708
      0.1110508357
      0.4585518722
      1.0982256076
      0.5788363434
      1.4085103767
     -0.1273845186
     -0.3843373266
     -0.0562729930
      0.0845917172
      0.8592302095
      0.5643603598
      0.2368286887
     -1.9859396661
      0.3392779465
      0.6246564508
      0.3288021257
     -1.2681565143
      1.9403594983
     -1.3916471766
     -1.6714169449
     -2.0044236685
     -0.7184098139
     -0.8870691341
      0.1814094215
     -1.5255021800
      1.0121702222
      1.0291363634
      0.2758059501
     -0.5205547045
     -0.8365740393
     -0.5806943710
     -1.1591633241
      1.5006215885
     -0.1773526255
      1.3692658964
     -0.7411152844
     -0.1902101198
     -0.0296922752
     -0.3217761853
     -0.9068779007
     -0.2436911791
      0.4409081915
      0.0372259062
      0.4313105481
      0.3126762223
      0.5491498054
     -0.6344060830
      0.0162364296
     -0.2575952924
      2.0588993576
      0.7977752230
     -0.8895328457
     -0.1216686546
     -0.5611105146
     -0.7820075200
      0.6662513828
     -0.1354080076
     -0.0503820245
      0.3617510906
     -1.8059808572
     -0.4629394701
      0.1089882244
      2.0547709380
     -1.0917050441
     -0.5320658975
     -1.2576612810
      2.9918413143
     -0.2744392307
      1.1418175438
      0.6303681145
      0.1406050683
      0.4248242709
      1.5680903104
     -0.4734201910
      2.7071869301
     -0.1202897504
     -0.9448796123
      0.2202082977
      1.5657201798
      0.6452009900
     -0.3131146146
      0.9213570993
     -0.2137726434
      0.2064634515
      0.2997586696
     -0.7108822758
      0.7053788340
      0.9067050971
     -0.3511449949
     -0.3378263011
     -0.3813755451
     -1.8019767815
      0.8120040973
      0.3544298193
     -1.3221816151
      0.7239862848
     -0.0554806952
      1.8407786520
     -0.1361338770
     -1.5545863534
     -1.1315291228
     -0.1814143035
     -0.5232333169
     -0.2092144938
     -0.2208051643
      0.3684645466
     -0.9627639218
     -0.8524761259
      0.7089062068
     -2.8244465426
      0.3404349749
      1.6105483909
      0.7092412039
     -0.4248482674
      0.3361426924
      0.5115187613
      0.4020995727
      0.7776469370
      0.0573876557
     -0.7234171618
     -0.8376935006
     -0.1375226616
      1.0747420343
     -0.8950846895
      1.0485666783
      1.3689771598
     -0.3080353104
     -1.2099121877
     -0.7624888681
     -0.6196589919
      0.3918210214
      1.4027392981
      0.1028753802
     -0.7115590970
     -0.8404584318
     -0.0947268735
      0.1279697815
     -0.3786175696
     -0.4991070194
     -0.7722064579
      1.6986252033
     -0.2450501449
     -1.5985868371
      0.6238031823
     -0.0102564137
     -0.2584965919
      0.8871371892
     -1.6564248778
     -0.4092550707
     -0.4676145097
      1.5325746664
      1.3483170929
      0.4907239572
      0.4274242794
      0.1515301392
     -1.1021810407
     -1.2591464650
     -0.4910758113
      0.9044278826
      0.3799954862
     -1.6454344338
      1.0718683604
     -0.6623940954
      1.7015356821
     -1.2227976746
     -0.3356324298
     -0.2197665614
      0.4717551351
     -0.0084429468
     -0.2029937827
     -0.5215530094
     -0.3350582553
      1.0538456198
      0.5621872161
     -0.2746144821
     -0.2023166734
      0.6832219302
     -0.0500830996
      0.3726385186
     -0.1704773385
     -0.3347366328
     -0.4677720902
      0.7142885103
      0.8179822804
      0.8999273549
     -0.2268097870
     -0.6158362563
      0.1324662641
      0.6818499121
      0.0072633187
     -0.0378853227
     -0.5154985520
      0.8506237765
     -0.1423736607
      1.1507625175
      1.9627440981
      1.3801328127
      0.3855561882
     -0.3548323455
     -0.2610515158
      0.8389076357
     -2.4980078202
      1.1363686554
      1.4227069013
      0.9168579699
      0.1883051500
     -0.3548162759
     -0.2226902909
      0.1738406186
      0.0575041466
     -0.7702056318
      0.8522182950
      0.0671001830
     -0.1641101642
      0.3765910912
     -0.0981192345
     -1.0046073043
      1.1825298111
     -0.5346432653
     -0.8777021601
      0.1567158912
     -0.0916729059
     -0.7302383448
     -0.0909231576
      0.2052043693
     -0.1640328684
     -1.0106613146
      0.0639310096
     -0.0380768100
      0.5457807293
     -0.5104801679
      0.4830344598
      0.3185977739
     -0.5558350048
      1.0616898093
      0.1524211583
      0.1720102578
      1.3834327857
     -0.7531935040
      0.2265534406
      0.8842557841
      0.8396629092
      0.0460606114
      0.1100658763
     -1.0486297747
      0.5665623523
     -0.4192208175
     -1.0297994741
     -0.3128290816
     -1.4370171686
     -0.6398573858
      0.8851918240
      0.1314369752
      0.9294655200
     -1.5654618091
     -1.6543692562
     -1.8674851920
      0.1354836728
     -0.3776577104
      0.6126607998
     -0.6115667885
      0.7843610397
      1.3533701989
     -1.6020305314
     -0.6077872269
     -0.3476627626
      0.3620411814
      1.1254092014
      1.1919615634
     -0.2043188687
     -0.5467844275
      0.4590161587
     -0.6976464986
     -0.5748067343
     -0.0962434427
     -1.4388755940
      0.2483312269
     -0.3492683004
     -0.1151180280
      0.3449690149
      0.2693838976
      0.2658842777
     -1.1836157278
      0.8467436382
     -0.8769881934
     -0.6541145762
      0.4854813858
      0.5915229758
      0.8211988257
      0.8619445105
     -1.1682078410
     -1.2577866559
     -0.0522365058
      1.6337366848
     -0.5517535006
      1.6774482593
      0.5966149054
      1.4183025106
     -1.8383584088
      0.6809794687
      2.1483795922
      0.1941915599
     -0.7717489075
     -1.6165619668
     -0.2761612380
      0.7668778667
      0.2377990805
     -0.8051943265
     -0.3180123908
      0.7661885124
      1.3367731614
      0.1756213504
      0.2276612197
     -1.1971334475
      0.9934478767
      1.8630631737
     -0.3350929928
     -0.4690661653
      0.2686034825
      0.1553908287
      1.3019031865
      0.4421820420
      0.0096353701
     -0.6527752720
     -0.2359174385
      0.1385296636
      0.5755682516
      0.5987428707
     -0.6246478429
      0.6447148321
     -0.1519928896
      0.1445692814
     -0.3998750499
      0.1774296653
      0.0930051424
     -1.1730801452
     -0.9793554952
     -0.0765040680
      0.8718184410
      0.8868124779
     -1.4642907394
      0.8998649383
      0.0442285862
     -0.8445957168
     -1.6722520294
     -0.4402411729
      0.1619366249
     -0.4651426829
      0.1762468488
      0.2208408045
      0.6264157351
     -0.6205677588
      1.4385301421
     -1.2948123442
      0.0115172655
     -1.1991969949
      2.1173457376
     -1.0678121563
     -0.3763613147
     -0.1357592803
     -0.5890824874
     -0.6631332338
      0.4849340283
     -1.4401452729
     -0.4039813519
      0.2453206826
      1.7248326265
     -1.7700652224
      2.6515228508
     -2.1641873427
      1.8645182073
      0.9222549787
      1.7101318916
      1.2277555780
      0.4212361017
     -0.3563972514
     -0.7618430287
      0.5695463004
     -0.1705309023
      0.2804149737
     -0.2833770869
      0.4477293609
     -1.5404949362
     -1.2483035654
      0.3442807442
     -1.9822815553
     -1.6679474952
     -3.9758274170
      1.4333282745
      0.4453355222
     -0.8282309850
     -2.3751766552
      0.1491332128
      0.2828905633
      1.1909846167
     -1.2393840950
     -0.6972405949
      1.0998363282
      0.3707167180
      1.0390321386
      0.8228133296
     -0.7560972506
      0.2632852562
     -2.4465359820
      1.3272671340
     -2.0488089438
     -0.7727351422
     -0.2845283877
     -1.2787858563
     -0.9973860100
      0.2298199840
      0.9718599318
     -0.0072133481
      0.9839004130
     -1.5724932403
      0.5074582461
      0.4287131494
     -0.5327185177
      0.6287760677
      0.0988471191
      0.4365079549
     -0.0593124861
      0.8294806912
     -0.1657925791
      0.3689548503
      1.4874738850
     -0.0900126360
     -1.1526844004
     -0.8265570662
      0.7278891217
     -0.6768246705
      0.1750674063
      0.7206660967
     -0.2768096222
     -0.3344530110
      0.0334905346
     -0.1753453407
      0.1823099208
      0.1875272939
      0.5752367474
     -0.3919872793
     -0.0296254385
     -1.7843376005
      0.0678816433
     -0.5222477807
      2.6820061351
      0.8783968485
      0.1815573201
     -1.1965635439
      0.8698560228
      0.1439751939
     -1.2974118243
      0.0850905418
      0.4530603846
      0.2129750480
     -0.7379671598
     -0.5399665968
     -0.2220037472
     -0.1860067467
      0.5094223712
      1.6961721636
     -0.3217845507
     -1.6921213017
      0.8924670375
     -0.5408024650
     -0.1387894640
      1.2413436971
      0.5418316946
      1.0321090397
      0.0086864715
     -1.2162842331
     -0.1771753708
     -0.7165315481
      1.1472261439
     -0.4852712042
      1.1130770156
     -0.8893118995
     -1.3769745422
      0.4124946538
      0.9839485097
      0.5759832106
      1.1464902530
     -0.4392537229
     -1.3410012415
      0.1671794532
      0.2416096233
     -0.0266227659
     -0.4188483500
      0.8555267581
     -0.5085776084
     -1.8545027469
     -1.5157903415
      0.9732503205
      0.2532538167
     -0.3820036661
     -1.0716274051
     -0.2393948790
      0.6984892128
      0.3220055194
     -0.3330086518
     -1.2375427491
     -0.7216125077
      0.2611236995
      0.5837985773
     -0.5594145862
     -1.6960462465
      0.0620901796
      0.6304274358
     -0.0879345781
     -0.2959913293
     -1.1423064026
     -0.0802457912
      0.6878140656
     -0.1955898078
      0.6306636108
     -0.3008302237
     -0.1983494082
     -0.0007058590
      0.2727063820
     -0.0609210086
     -0.4646371095
     -0.4720581994
     -0.5469585121
     -0.4180715559
     -0.8367417335
      0.1480370474
     -0.0447943862
      0.4612686261
      0.5162924747
     -1.5601623634
     -0.6972890899
      0.9277789834
     -0.5788312808
     -0.2333225208
     -1.6942014718
      0.9581924236
     -1.8614170477
      0.9057078959
      0.4562724485
      0.5766774417
      0.1352887519
      0.1883272138
      0.7946687784
      1.0045933047
      0.5177900052
      2.4102346673
      2.1194893705
      2.2711729940
     -0.8854797148
      0.0410688539
      0.2834462711
      1.2892019880
      0.6654528530
      1.2613413299
     -1.2768650545
     -0.6712991139
      0.5925994131
     -0.0618027006
     -0.7975364340
     -1.0414323924
     -0.5486409476
      0.3636383453
     -1.0817438816
      0.2308773015
     -1.4051568910
      0.2350144788
     -0.5206423591
     -0.1371476237
     -0.2385335482
     -1.0324911470
      0.4839689827
      2.3096770925
      0.6820157374
      0.2154971023
      1.4342902272
     -0.1615663926
     -0.4637538560
     -1.1787248805
      0.6081775738
     -1.1951615782
      0.0498056265
     -0.8499379610
     -2.0234596890
     -1.2463985353
      0.5698765901
     -0.0873426497
      0.9088779583
     -0.0587658204
     -0.5678208656
      1.3639359722
      1.1619498243
      0.3491358995
     -1.0983139277
      0.4120898486
     -0.2663488832
      1.7044936564
      1.7824255345
      0.1536444496
      1.2935792725
     -0.1439602411
      0.5091475081
      0.4931890645
      0.1189030253
      0.6593954551
      0.7403307324
     -0.7238638028
     -0.2433320331
      0.2440983661
     -1.2363641376
      1.3230731061
     -0.1551936418
     -0.4860277332
     -1.3051349984
     -0.8576544279
     -1.2208475662
     -0.0112508704
      0.9906615606
     -0.7313918717
     -1.6516503597
      0.5098835678
      0.5346073979
     -0.9545734296
      0.0638990475
     -0.1635198190
     -0.0902755076
     -0.6958247397
     -0.5211712197
      0.9681028203
     -0.4426564297
     -0.9093963555
      0.2726648715
     -0.1004455053
     -1.5520367864
     -0.1708530444
     -0.6917837519
     -0.2916726192
      0.3232126641
      0.1425862541
      0.3226148681
     -0.6292947854
      0.0493046318
     -1.0454894508
     -0.2949916668
      0.4078720223
     -0.1610228883
      0.7703015414
     -0.1782148854
     -0.0875904863
     -0.4776493207
     -0.3735321137
     -0.0378080133
      0.6633520470
      0.2169134697
      0.6451613807
     -0.9158113691
     -0.1636333120
     -0.3750570387
     -1.3515324345
      1.2957835564
     -2.1508724744
     -1.7389445727
      1.0168254601
     -0.5856449565
     -0.6837558798
      0.6501777274
      1.3516604734
      2.7337128899
      1.8146026012
      1.1192902452
      0.8470814737
      0.3876969653
     -2.6228587571
      1.2379754311
     -1.7625671109
     -0.0980117158
      0.0081078883
     -0.0273230333
      0.0432491522
     -0.0231077288
     -0.0010071461
      0.0363962556
     -0.1282341094
     -0.0345510978
      0.1680064073
      0.0320247588
     -0.1163536036
