      0.3730146844
      2.1780048269
     -0.1229569065
     -0.1995594827
      1.5414286912
     -0.9528654571
     -0.0367024151
      1.2413794065
     -0.4506971276
      1.1308609850
     -0.4434261575
      0.1149629146
     -0.1010093216
      0.0187328121
      0.0337939449
      0.3300898126
      0.7410661174
     -1.3753277135
      0.8156883649
     -0.7623225535
     -0.2945092713
     -0.7564466065
      0.4924173518
     -0.1139947398
      0.0877089957
     -0.1708546943
     -0.1203888352
     -0.3317704714
     -0.2323385594
     -0.6805519314
      0.7373946650
      1.2146474901
      0.1547864152
      0.7529234124
      0.2878107604
     -0.4828084291
      0.8885117017
     -1.4395648597
      1.3731923075
      1.2423784978
     -0.5459588385
     -0.1071448888
     -1.1775713005
      0.6377372243
     -0.1949416543
      0.1928066104
     -0.0446017053
     -1.9527275992
     -0.7330482413
     -0.2931633966
      0.4113517853
     -2.9008202777
      1.5585094349
      1.2016123762
     -1.9068086985
     -0.0638836050
     -0.5999810738
      0.5815308540
      1.1963605554
     -2.9922678823
      1.1607596025
     -0.3949437641
     -0.3031413377
      0.3998715722
      0.4554436275
     -1.0378452024
     -1.1598462736
     -0.9965663762
     -0.0859988764
     -0.7135200877
     -0.1530611774
      2.4179587356
     -0.4596181911
     -0.1396135698
     -2.3293384021
      0.2250812441
      0.3310124910
     -0.3075925316
     -0.5304265692
     -0.0710333639
      1.6261407221
     -2.1104301794
     -1.1298922780
     -0.7074608946
     -0.9609810527
      0.9978273131
     -2.2663610868
      0.2448594600
      0.7046678798
     -0.9152868635
      0.0829703729
     -1.0519658136
      1.3179816499
     -0.6629251617
      0.1582388783
     -0.2813071470
      0.6932255292
      1.1588815451
      0.9613600499
      1.9910873176
      0.6917306643
     -0.7636328117
      1.0611463978
      0.2461844541
      0.9343409625
     -0.0910689421
      0.8901024848
      1.3513524122
     -0.5829557873
      2.0453838584
      0.6110447124
      0.1477100589
     -0.1744432381
     -0.0347975211
     -0.3880585593
      1.0211357302
     -0.3288407621
      0.2094029457
     -0.5474230026
     -1.2615451436
      1.2872905292
      0.5201497647
     -1.6254270611
      0.7754357392
     -0.7879147001
     -0.0801297574
     -2.0951342056
     -0.9469394859
      0.0575601053
      1.7739744547
     -0.1625964669
     -1.0398276589
     -0.7232551036
     -0.8450840512
      1.1835732876
     -1.1085632394
      0.8440183979
      1.4412820671
      0.4872522504
      0.0333796155
     -0.1170190501
      1.4657728902
      0.3126940574
      0.3379844971
      0.2533261753
     -0.7036603133
     -1.4010203651
     -0.2459304301
      0.0874371699
     -0.3410164487
      1.6799958288
      0.8825028554
      0.7552296495
     -0.3892333774
     -1.0552886557
      1.5518104047
      0.7262017546
     -0.6854334683
      0.5211941139
      0.1653174696
      0.2490210230
     -0.8676957746
      0.7786481592
      0.4455897067
     -0.8667909565
     -0.1336552070
     -0.1136382660
      0.9618953006
     -0.8725291080
     -0.9931048607
      0.8623853500
      1.0429440218
      0.6995482908
     -2.4315759565
      0.7143284404
     -1.3245703173
      0.6874698639
      0.4561381457
      1.0831302347
      1.7888908345
     -1.5485175399
      1.7233581569
      5.0521840262
      0.9547244508
     -0.2163843223
     -0.1292806703
      0.9799479972
      2.1285921781
      2.1902544478
      0.3987274506
     -1.0922364705
      1.3757728707
      1.3670472510
      0.7008526228
      0.9974894788
     -3.1412752432
     -0.5807066700
     -1.1358771451
     -0.2273855727
      1.2159388616
     -1.0033592559
      0.4535122536
     -0.7325907768
     -0.6523598950
     -0.7555323669
      0.9839538337
      0.9017204906
      0.3420329384
     -0.2881988670
      0.8316997730
     -0.2448106042
      1.0444317878
      0.5346776410
      0.4814833137
      0.4227930039
      0.5163176510
      0.0978790994
      0.4958727340
      0.5811170335
      0.7344138495
     -0.6385489558
      0.4515087021
      0.0001971261
     -0.3418810432
      0.6485278750
      1.0939615531
     -0.1823234346
      0.8798034631
     -0.3291881702
      0.7710323229
      0.5759030690
      0.0036127240
     -1.8335516566
     -0.1526224267
      0.4749712238
     -2.0892711991
      1.5007647359
      0.0263478652
     -0.8323927206
      0.2352212405
     -0.3429535209
     -0.1017711407
      1.1458689810
     -1.0708160244
     -0.8132951483
      0.6426671398
      1.4841461946
     -0.4189040306
      1.5758000128
     -0.4520004886
     -0.3092190896
      0.0149954397
      1.8507087207
      0.6288028062
      0.5243727431
      1.0916842492
      0.5652446502
      1.0083700476
     -0.1176032148
      0.1513166652
      0.6013843195
     -0.2073228605
     -1.4528844695
      1.0122972142
      1.5770673388
     -0.2304675175
      0.4129056449
     -0.0135502173
     -0.3071146540
     -0.2460736173
      1.9055479391
      0.4587718296
     -3.3768338341
     -0.5240423112
      0.2397738552
     -0.3082972520
     -1.0879003030
      0.3938447433
     -0.1993119181
     -1.6362782584
     -0.1504622800
      0.5335735300
     -3.0188292230
     -1.3146856771
     -2.8286774629
      3.1642660858
      1.5897493904
      1.4043530889
      0.8738891080
      0.1291285804
      0.1646181476
     -2.1275201001
     -3.9498936283
     -0.2251631072
      0.0269064016
     -0.5419101100
      1.8509639366
     -1.2852153919
     -1.8887597245
      0.1038378574
     -0.7207130479
     -0.1989836550
     -1.0606997830
     -0.3297439503
     -0.8076211521
      0.2443641161
     -0.3921746731
     -1.0210019959
     -1.1790547426
      0.2906011802
      0.3193083987
      0.4592828545
      0.1061245906
      0.0594522482
     -0.6568639782
     -0.2705470238
     -0.0469780448
      0.5044700546
      0.4004617719
      0.7698621385
     -1.1632226864
     -1.3323741274
     -0.8934733511
      2.0503034166
      1.5571058748
     -0.5968284902
     -1.2596892747
      0.5266375099
      0.3267952787
      0.4014706185
     -1.1024750214
      0.9293580407
      0.7613273806
     -0.9554582885
      1.0318224580
      1.7845619866
     -0.4532045671
     -0.3839597114
     -0.0363085824
      0.8378580863
      0.3784084351
     -0.6122718692
     -0.6311399237
      0.2092436914
      1.1199062267
     -0.3013421041
     -0.6684612092
      0.0500704411
     -1.6019853043
     -0.8727108443
      0.2837862150
     -0.2460396366
     -1.1853869195
     -1.1209867780
      0.2228862397
     -0.7769188988
     -0.3611874859
      0.5147479307
      0.1366623236
      0.2841793102
     -0.2431635551
     -1.4666403786
     -0.1897865966
     -0.1761544136
      0.0151287493
      1.4281325040
     -0.8670109629
     -0.5732886360
      0.0441676964
      0.9249080116
     -1.3043117075
     -0.6533765908
      0.7939320730
     -0.2220597137
     -0.1264766955
      0.2581576413
      0.6866342533
      0.0650074759
     -1.1237788522
      1.0158175047
      1.2411766202
     -1.3525621557
      1.8377435335
      0.1712841911
      1.8399161018
     -0.7757229956
     -0.6527092404
     -0.4513613492
     -2.2566553874
     -0.4958825916
     -0.1377595638
     -0.9048293016
     -0.8788466883
     -0.8732485827
      0.6850224890
     -0.9234043889
      0.4532357405
      0.4916585658
      1.4970594044
      1.5938490646
     -0.0157869326
     -1.5310143497
     -1.6564301548
     -0.5123404607
     -0.1221947388
     -0.3119555077
     -0.3202475310
     -0.4705933090
     -0.0515741102
      0.3572301714
      0.6036675229
      0.9065481586
      0.0249044888
      1.8355637701
     -1.2541714739
     -0.2779812164
      1.0538025255
     -1.1823776282
      0.3944417530
      0.2850563150
      0.1382824731
     -0.2951470767
     -3.2185189833
      1.1567825077
      0.2020419819
     -1.4373384948
     -0.4598677440
     -0.0752602225
      0.8297042885
      2.2185760307
      0.1162403617
      0.8462700041
      0.7677410455
      0.9903379461
     -1.6154609245
      1.0196900562
      1.7407084196
     -0.7631172526
     -0.5786720831
      0.0462166914
     -0.5083738700
      1.1127129909
     -0.7529802944
     -1.2994568276
      0.1323963372
      0.1295526472
     -0.4092557117
     -0.0365474401
     -1.0762853816
      0.9020916404
     -1.0998858882
      1.0027568999
      0.3257841419
      2.0330285982
      0.1608616020
     -1.2334719985
      1.0753492636
     -1.8334667720
      0.7269449367
      0.9797185034
     -0.5994379539
      0.8060159157
     -0.4532298362
      0.5269923260
     -0.7229375955
     -1.3457031698
      0.8275497976
      0.2189261300
     -0.4577114693
      1.5255959957
      0.1595324388
      0.0012221109
      0.9135244904
     -0.4312357585
      1.0335675048
      0.2482670021
      0.1352788921
     -0.0028564696
     -0.2220454284
     -0.2589607471
     -0.2310637690
      1.0470330574
      0.1915337814
     -0.1431281533
      2.1410438282
     -0.3545233622
     -0.0016649436
     -0.5922543957
     -0.3137952538
      1.2254926615
      0.3142171071
      0.8402361536
     -0.3563588012
      1.9328407260
     -2.1835197526
     -0.7651580001
      0.9409126960
      0.8125226710
      0.2946426893
      2.2470206900
      0.2928004527
      2.2259727785
     -1.9698519263
      0.5242078828
     -2.5959508079
      2.3283444282
      1.1675435834
     -2.1977088661
      2.4630789760
     -1.3896731959
      0.0295602376
     -0.1127376761
      0.0118882510
      0.9855301002
     -0.0264311400
      0.5143599741
     -0.0928426968
      0.0570052808
      0.1219415827
      0.0052292769
      0.1839367909
