     -0.1739938879
      1.0349940290
     -0.1777125885
     -0.0823824117
      0.6853881932
      0.1605086145
      0.0667721315
     -0.6091014103
     -0.2367144630
      0.0306287954
      0.5899616748
     -0.2614080567
     -0.4848931632
      0.1559730663
     -0.3174575957
      0.0813155860
     -0.0015144649
      0.2055533107
     -0.7961995086
     -0.0399116529
     -1.1827053280
     -0.8739310191
     -0.2891866392
      0.3970652893
     -1.3715652105
     -0.1345747175
     -0.2328965163
      0.9293678627
      0.5473628812
      0.4758217469
     -1.2794405241
     -0.0542858334
      0.9794288543
     -0.3974820155
      0.5748307464
      0.2896208146
     -0.7370687506
      0.1261360777
      0.4967671286
      0.4185222217
      0.1156640029
     -0.7071168171
     -0.5335191562
      0.2659502681
     -0.0953870332
      0.3670032648
     -0.0610406790
     -0.3766167054
     -0.5050637957
      0.2985894851
      1.7247689488
     -1.6041561145
      0.9994738177
      0.6496959205
      1.2675136600
     -1.0169243941
     -1.6815452787
     -0.9185033186
     -0.4589096429
     -1.3895453445
     -1.2600346837
      0.6065346729
      0.6551547965
     -0.6560009152
      0.3204678297
     -0.5774713390
      1.1380374366
      0.2464132251
      0.8854308531
     -0.0893406545
     -0.4363259043
     -1.4721024188
      2.0573316554
     -0.6894321344
     -0.7662453409
     -0.3834518076
      4.2587099461
     -1.8685064398
     -2.8410250271
     -1.2157597991
      0.1310999159
      0.1487526688
      0.2014948377
      0.0387261631
     -0.2755901449
     -0.4780096098
      2.0916077256
     -0.2636116700
     -1.1917426066
     -0.5428477044
     -0.8634421346
     -0.5162707532
      1.6003340995
     -1.9428322628
     -0.6355766429
     -1.1038732622
     -1.2035882687
      0.9655336757
     -0.2944554137
     -1.0883812246
     -0.1310502974
      1.5245346948
      0.3605229324
      0.0664099257
     -0.8321418527
      0.4713992120
      0.7156006404
      0.6584090791
     -1.2857719205
      0.6824244344
     -0.8099515492
     -0.0719963791
     -0.9282954537
     -0.0813417083
      0.4622164629
     -0.4546179212
     -0.3477819740
     -0.4675182650
     -0.1377291272
     -0.2684069985
     -1.7257168053
     -1.1615394487
      0.4778429223
     -0.3416691525
      0.8780834391
     -0.5515216859
     -2.0888539655
     -1.0617216945
      0.7220481490
     -1.6628818663
     -0.2469281898
      0.2969659660
      0.7877459825
     -0.0004452398
      0.5338125430
      0.5341021003
      0.4201655857
      0.3980806595
      0.4949630454
     -0.2454950648
     -0.6747807841
      0.4610657428
     -0.2735009330
      0.9087402633
     -1.1252616781
     -0.5756638374
      0.5344106017
     -0.7451726571
      0.8122716435
      1.9913275971
     -0.3847229912
     -0.0595598901
      2.3055221819
      0.1659417700
      1.4340002100
     -1.1841812309
      1.0295867282
     -1.0679516461
      1.6892762955
     -1.3562645462
     -0.1376567525
     -0.0623718095
     -0.4390039724
      1.3092534492
     -0.3900855357
      0.5018590543
     -0.2380809118
      0.1040978230
      2.7954074850
      0.6857973974
      0.4114193923
     -1.1271448296
     -1.8375066621
     -0.1769813564
     -0.8433835927
      1.1034403132
     -0.7195310778
      0.2296110343
     -2.4363551397
      0.7507613071
      0.6321321565
     -0.8748583848
     -0.0114642187
      0.0790509913
     -0.2047839911
     -0.0451445345
      1.2531706739
      0.5726020885
     -0.2811071002
     -0.1277755846
     -1.2142913789
      0.6151633495
     -0.2431102309
      0.8274329859
     -1.2999642880
     -0.2084896291
      0.0260210677
     -0.3371520860
      1.2939110534
     -0.2569562469
     -0.5873348801
     -0.5911687155
     -1.1269232110
      0.5978895516
     -0.3494919368
      0.0968097179
      0.0204159765
      0.1377011977
     -0.5021889274
      0.6800614913
      2.6167497446
      1.6473205735
     -1.5521610255
      1.4286891732
     -0.3040808006
      0.5566011357
     -1.8442815357
      1.2494628937
     -0.9268792640
      0.4024197580
     -0.6435582164
      0.0830939860
     -0.4903510573
      1.3191160713
      0.3057483400
     -0.6228602888
      0.7512194959
     -0.3090418624
      0.1629630703
      0.3865841883
      0.3906146962
     -0.6648859437
     -0.0805802598
     -0.5339867731
     -0.5759950672
      1.3213240061
      0.8670314389
     -1.3034106487
      1.2939554239
     -0.3348138926
      1.3507338061
     -0.3738237627
      0.4036306633
     -0.4513682081
      1.1907073804
      0.2963532271
      0.3343664049
     -0.9649762970
      0.6466762775
     -0.3840695500
      1.7717134294
     -0.7819080749
      1.0657297737
      0.2778763555
     -0.2738143594
      0.5167862918
      0.4228973724
     -0.1638001181
      1.4723521522
      0.1471120317
      0.0978235176
     -0.0425450539
     -0.4499423570
      0.8403595995
      0.3709791479
      0.0980489531
      0.4561273229
      0.2320415485
      0.5502157674
      0.1772811101
      0.6172062821
      0.8377673953
     -0.4914864452
     -0.2632213055
     -0.0578503812
      1.2905789579
     -0.0936729736
      0.9269544246
      0.2399749632
      0.3084643793
      0.8165447783
     -0.4012580418
     -0.5555623393
     -0.5839185120
      1.3961193223
      0.7410776218
      0.0278200673
     -0.3413194040
     -0.0824175143
     -0.8794254509
     -0.9547595175
     -0.7377690056
      0.3996984791
      0.5520128781
      0.6283050999
      0.0312356887
     -0.6314514822
     -0.5211390779
     -0.1600099641
      0.0633617252
     -0.7380563744
      0.9155062495
     -0.0317517570
      1.1326237356
     -0.1958007305
      0.3120751164
      0.2177510313
      1.0696849232
      0.8353530800
      0.7585892630
     -0.8883405010
     -0.4218071107
     -0.1423350111
     -2.4879053338
     -0.4376737249
      0.3847695800
     -0.9438952152
      0.3234347342
      0.3205486083
     -0.4039645538
      0.2584670237
      0.3791095925
      0.7077118474
      1.6059611781
      0.2413313096
     -0.2744994179
      0.8953210374
     -1.4262742641
     -1.4466430985
     -0.2851407120
     -0.4475135014
      0.6433631682
     -0.3558299326
     -1.0940209732
      1.3811638357
      1.3362994178
      0.9860473151
      1.3898884964
      1.6296915546
      3.8254323620
      0.6184117560
     -0.4687953096
     -0.0050230571
     -1.3560481146
     -0.1553532343
      0.5698390426
     -1.4811147797
      0.1897957683
     -0.6333098448
     -0.5405178282
     -0.1255700910
     -0.3029142996
     -0.2306208717
      1.9132919818
      1.2807537456
     -1.5689009290
      0.5371454244
     -0.9784801727
      1.0575223191
      0.2414869176
     -1.6404200599
      0.1091028486
     -0.0517552600
     -0.6715602147
     -1.3301684529
      0.4285079362
     -0.4879308553
      0.9352764833
     -0.2029835926
      0.0837575461
     -2.2328000640
      0.7464089382
     -1.0665474541
     -0.6228790138
      0.1861220890
     -0.4296464500
     -0.9840142565
      0.6431275042
     -1.5627419623
      0.2283013859
     -0.0599998817
     -0.6106982574
      0.6254936126
     -0.2686649649
     -1.3168848063
      0.9038580681
      0.1060653702
      0.2519338250
      0.0381508724
     -0.7462883237
     -0.9725659794
      0.1816984113
      0.6621147265
      0.0110287607
      0.4811906681
     -0.3856418347
      0.2244139431
     -0.7254811001
     -0.0770918016
      0.0056337822
     -0.5222478002
      1.8975740306
     -1.4235424571
     -0.3959919299
     -0.1380270111
     -0.5526134056
      0.7228264571
     -0.2877188759
      0.0767505188
      0.3356831341
      1.7349169124
      0.4010129400
     -0.3538060158
     -0.6866928809
     -0.5670478821
      0.1750576570
      0.3791230855
      0.3969430123
     -0.0879236788
     -0.1898191866
      0.4459350735
      0.6518101474
      0.0676190894
     -0.1416529734
      1.0958547527
     -1.5499826845
     -0.6227470094
      0.3146065153
      1.0736518753
     -0.0391602811
      0.3713313561
     -1.1917736280
     -0.1174127220
     -0.4848337243
      0.5292886475
     -0.1153994457
      0.2565502049
     -0.9121463197
     -1.1149863609
     -0.5931940939
     -0.3495069655
      0.3309793862
     -0.0220417191
     -0.5742110933
     -0.5540486522
      0.2252606778
     -0.8671596557
      0.7609582917
      0.0362050806
      0.2224824855
     -0.4536991136
     -0.7589735201
      0.0664798078
     -1.7298466773
      0.0172184052
      0.4281216036
     -0.0780772566
     -0.1663444836
      0.2072885498
      0.2721081686
      0.4193609761
     -0.1016361771
     -0.0616480042
     -0.2756361700
     -0.2428624170
      0.1320608954
     -0.3768672453
      0.0041527522
      0.3937466223
     -0.0386485519
      0.8410477767
      0.3278370841
     -0.2866135062
     -0.4718956283
     -0.7287723654
      0.4211392740
      0.3904290316
      0.7455754212
     -1.1563605911
      0.3065142095
     -0.2383005813
     -0.0318155304
     -0.2822780666
     -0.2032689436
     -0.7414427778
      0.1026328621
     -0.1406465853
      0.3909855800
     -0.0514623528
     -0.3659359856
     -0.7874654569
      0.2806713376
      0.0111885906
     -0.7524745381
     -0.2612700467
      0.4079152500
     -0.2992944562
      0.1986022422
     -0.6989136589
     -0.0783149860
     -0.7280543903
     -0.2706800149
     -0.5588958226
     -0.0893140807
     -0.1568066559
     -0.4654902461
     -0.3951750513
     -0.2909254465
      0.0894129851
     -0.2158259291
     -0.8184748488
      0.2771679084
     -0.5999954230
     -0.5135293676
     -0.0879499114
     -0.3031517848
      0.0754951979
     -0.4921237563
     -1.5221235012
     -0.3799127583
     -0.1109710205
      0.0512824973
     -0.2256269964
      0.7760687375
     -0.9659592101
      0.0448268332
      1.4597740123
     -0.1022461369
      0.7057037567
      0.4685812711
     -0.5602945950
      0.0913880068
      0.0298978894
     -0.1954097769
      0.0177019905
      0.5902289280
     -1.7492342181
      1.1241264873
      0.1304620134
      0.7389604496
      0.4420859014
      0.9646969148
     -0.2996978017
      0.8128600488
      0.8408309121
     -1.6812119813
     -1.9883196548
     -0.3973461442
     -0.5475102634
     -1.2689094320
     -0.2835221624
     -0.2834522029
     -0.2376093568
      0.5204363497
     -0.2577887578
     -0.1937193765
      0.6571471541
      0.0255266426
      0.5601033994
      0.2936785716
     -0.4095163462
      0.9003006365
     -0.3141282692
     -0.5339560781
     -0.0805375668
      0.7751481172
      0.1322796207
     -0.0173959610
     -0.9494567566
     -0.0716327230
      0.2367470039
      0.2286594499
      1.0250440725
      0.3993366285
      1.8234065426
     -0.3510911498
     -0.0489932787
     -0.7256507763
      0.8892794830
     -0.2286776981
      0.9587968446
      0.1070053938
      0.5192396753
      0.4668706780
      0.0455889244
      0.3149453783
      0.5773032856
     -0.3118249898
      0.6285340947
     -0.2000244527
      0.3585412002
      0.4440439365
     -0.3109731186
     -0.3147623141
      0.0645632897
      0.5022650627
     -0.0597058718
      0.3101869824
      0.2910033594
      0.4269229596
     -0.5196198229
      0.1888987984
      0.4013768224
      0.3235476317
      0.4256868657
      0.1852965101
     -0.1209230922
      0.0512203382
      0.0381581294
      0.2620558682
      1.3988412915
      0.2914582517
     -0.0733757506
      0.3149413678
     -0.0071026248
      1.0305546590
      0.8657053257
     -0.5154601240
      0.5712157905
      0.2407296165
     -1.2854055672
     -0.4521640197
      1.5140100902
     -1.2593653050
      1.0468401163
      0.1988058008
      0.9622690847
     -0.7372302260
      0.3685499972
      0.1715519450
     -0.2366859851
      0.6576814076
     -0.1240891969
     -0.2539490859
     -0.1450417466
     -0.5156398762
      0.5291774668
     -1.1627840471
     -1.2211693535
      0.5622196813
      0.1775295377
      0.0569199696
      0.3950777990
      1.9158672474
     -1.0234898527
     -0.3171753339
     -0.0502711221
     -0.5075339869
     -0.2179392262
     -0.1364521382
      0.0137009772
      0.1907258570
     -0.4848480708
      0.2229559849
      0.1343564824
     -0.8275234948
     -0.3836414767
     -0.3907686628
      0.2067836407
      1.4387901683
     -0.3069392191
      0.3689643467
      1.8504656231
     -0.7391824701
     -1.9512332558
     -0.4893573371
     -1.0382794345
     -0.0994034975
     -0.2176161544
      0.1664855676
     -0.1221239310
      0.0632092334
     -0.6927268594
      0.3601323540
     -0.2359668340
      0.6029164757
      0.9991263377
      1.1210940842
     -0.1253492949
      0.3215143572
      1.1208677515
     -0.9508753989
      0.8099235085
     -1.0042188995
      0.9871895497
      0.2747301186
     -0.6921817378
      0.9528150420
      0.3258228063
     -0.8791876228
      0.3298351298
     -0.7566623451
      0.7073727537
      0.2613465222
     -0.3812143586
      0.0672038502
      0.5930836668
     -0.0662295708
      1.2066238551
      0.0119947669
     -0.7021381627
     -0.0977214116
      0.1063405547
      0.0897736964
     -0.5864760112
      0.9916629273
      0.5506222089
      0.7835022939
      0.1412066729
      1.2552677328
     -0.4216869178
      0.1430823267
      0.4626797570
      0.0566837226
     -0.1281489973
      0.2655686508
     -0.0857613321
      0.1053566888
      0.8635355452
     -0.3681281081
     -1.4215161778
      1.4139459317
     -1.9632130975
     -0.1921010544
      2.3295024149
     -0.4138678710
      0.3573410671
     -0.0938263536
      1.0729231820
     -0.5070070994
     -0.6919977990
      0.8916769170
      2.6880302058
      2.2086606477
      0.5935768137
      1.0737122359
     -1.7153383505
     -1.9293482221
      1.7174589191
     -0.7260019179
     -0.0528190276
     -0.1100682337
     -0.0562149575
     -0.3874683096
      0.3740517901
     -0.2179515066
      0.2054027935
      0.0806052583
     -0.4413553182
     -0.1614709545
      0.5913884945
