      0.7647932060
     -0.7075285823
     -0.1144243875
      0.6023172984
      0.2452787945
      0.4431198064
      1.0355611475
     -0.4084324502
      0.5305750742
      1.0154172704
     -0.5846209699
      0.5479750319
      1.0005152458
      0.0287322899
     -0.5501944758
      0.1021628676
      0.2390218876
      0.3900063515
      0.0260495990
     -0.4919992735
      0.0062212292
      0.7119303267
     -0.5009836536
      0.2639874206
     -0.6789902457
     -0.1294732124
     -0.1238330615
     -0.4620443963
      0.6259546247
     -0.2688779246
      0.2775642736
     -0.2855472516
     -0.8054024686
     -0.3921597498
      0.4319735561
     -0.3690840352
      0.0496857674
     -0.4565154200
      0.1366406860
      0.3941371152
      0.0571822689
     -0.4376132132
     -1.3590792797
     -0.0857362200
     -0.6400370954
      0.7051962112
     -0.0711653619
      0.1364733501
      0.6727520448
     -0.1457402051
     -1.2632489715
      0.1692547751
     -4.1444085455
     -2.9128441944
      0.6917312771
     -1.3943781588
     -1.2954111709
     -0.7587990313
     -0.5066481583
     -1.2774304560
      0.8351924596
      0.4366063978
      1.5742144139
     -0.1384082324
      1.1051983990
     -0.0520210031
      1.5702130062
      2.7335902166
     -1.8519553762
      1.8603034726
      0.9227454052
     -2.4643729744
      3.0006616465
     -0.4321126088
      2.3598138337
      0.2911159378
      0.5649032675
     -0.6046123890
     -1.9322870643
      2.9019237468
     -0.4467088135
      0.2179459424
      0.7313629690
      0.2096502553
     -0.9256415594
      0.7826382125
     -0.1307211206
      0.7587774587
     -0.1787364588
     -0.3775226138
      0.4798676201
      1.1112367037
      0.8552432555
      0.1421539529
      1.1189941477
     -1.9944796865
      0.9358517198
     -1.1716376443
     -0.5859208717
     -0.2381851148
     -0.7065630634
     -0.5416495144
     -0.7966226560
     -0.3913344107
     -0.2714003318
      0.8340725256
      1.6401172908
      0.8888035415
      1.1328751793
      1.1533910281
      1.0135039357
      1.0634730178
      1.3443340537
     -1.2928801250
     -1.0078198403
     -2.8302349038
     -1.5999930438
     -0.4719793213
      0.3292920932
     -1.5780843052
      0.6407346250
      0.7931709976
     -2.2911088015
      0.3117137412
     -1.2487860627
      1.1703255849
     -1.7724648919
      0.2101944555
     -1.6577744725
     -1.2189953907
     -0.2749944056
      0.0989237135
      0.5437622781
     -0.8750797248
     -0.9830496069
      0.7871407692
      2.0277731990
      1.8173818062
     -0.2337566334
      0.1869381150
     -1.1353509690
      0.2083685991
     -2.5314763950
      0.3207594000
     -0.0670237376
      1.9077127258
      0.4212591904
     -0.2053871077
      0.8521950705
      1.5734118952
     -0.2553449520
      1.5141135645
      2.3901254751
     -1.5424877094
      2.6418395170
      3.5410039378
     -2.6095647827
      0.6553312710
     -2.0414080716
     -2.2421083190
     -0.6982667132
     -0.3037717920
     -2.5811690294
     -3.1251383576
     -0.0422803880
      1.7184495634
      0.5861432213
     -0.6430754675
     -1.9014284854
      2.7954399498
     -1.6673692937
      0.0056345394
      2.2392784403
     -0.0019455673
      0.0648297231
     -0.4191816431
      2.2693597384
      0.0809209831
     -1.5214867439
      0.8513060702
     -0.1361887430
     -0.6757285057
     -0.7818400045
      1.0600129965
     -2.9799386410
     -2.7848066714
      1.3656746903
     -0.7244604129
     -0.3944513705
      0.9566006197
      3.1530638425
      0.9068084816
      1.0187183924
      2.7283649153
     -0.5924827455
     -0.1361929836
     -0.0928848699
      0.7683491576
      0.2416409989
     -1.0509177111
     -0.7762601134
     -0.3243695790
     -1.8214946417
     -0.0685067518
      0.6415155847
      0.8955728795
     -3.1707328051
     -0.0620545851
      1.0037101232
     -1.3963221013
     -1.0240499976
      2.0279454493
      1.2917800812
      0.0495107979
      0.3415200561
      1.4388231963
      8.6304452718
     -0.3303726208
      2.0000762300
      1.0072728691
      2.3115318190
     -1.5256079043
      0.0347570159
     -1.9114952038
     -2.1664201364
     -1.7068475865
     -6.4928166224
      2.7676864917
      1.1386289720
     -0.9447401405
      0.5079152845
      2.0589058704
      0.8134702146
      2.2100501816
     -2.4804393161
      1.8522026149
     -3.3749992935
      0.5844451039
     -0.4675928385
     -1.2315793317
      0.2269653766
      0.3561962875
      0.1596738301
     -0.0984126755
      0.4452707883
      0.4092358380
      0.1528461394
     -0.0828323201
     -0.1261482216
      0.6426561760
      0.1680045805
      0.4312474659
      2.5798435787
     -0.7237081182
      0.1059829002
      0.1652313142
      0.3464603642
      1.3101825802
      0.5604850173
      0.1724464139
     -1.8242038049
      1.0707011313
      0.3959185751
     -0.0821902708
      0.7282410073
      0.0252568200
      1.7110293805
     -1.5371386529
      1.0127328423
      0.1291019118
     -0.2132561527
     -1.0658662742
      0.4335250698
      0.0856772294
     -0.4515019642
      2.8340222028
     -3.1778146610
      0.5655142267
      1.2879555794
      1.0804804738
     -0.6664191394
     -0.9988597519
      0.1280184111
      1.6897934442
      0.2121226187
      0.5777807755
      0.2755569877
      0.0885612082
     -0.3696108050
      1.1204161354
     -0.6142591313
     -0.3273836093
      0.8678752704
      0.5468368467
     -0.0571813182
     -1.2331463767
      0.4737432199
     -0.1247153691
     -0.4655607787
      1.4118994880
      0.6205582677
     -0.2030263675
     -1.1276414645
     -0.5108111793
      0.5178834677
     -1.3484891321
      0.3343064699
     -0.9486113922
      0.5239159652
     -0.4642938233
      0.4830236904
      0.9537554717
      2.6551364130
     -0.2547930707
      0.0075118587
     -1.2645454538
      0.2016003548
      0.4489400951
      0.7578043273
     -0.9527841462
     -0.4891940581
     -1.5428783962
     -0.4015684964
      2.2916692106
     -1.0027994404
     -0.0322254251
      1.2718920598
     -0.8941871723
     -0.0111081201
      0.6394784960
     -1.4480702282
      1.5947310451
      0.2477836079
     -0.2797709340
      0.3292176936
     -0.0411052143
      0.1322775067
     -0.5366667187
     -0.5609771456
     -1.4642465261
      0.6988637649
     -1.6897771112
     -1.5439703683
     -1.3586643574
      2.4345497225
      1.7493845001
      0.1508052913
      1.5194893419
     -0.3498246169
      1.3809002267
      1.1673381396
     -0.5170987060
      2.2407922638
      0.8095597022
      0.7369977040
      1.3067517027
    -11.4846101566
     -0.1843298263
     -3.7566091764
     -0.4308474981
     -2.7329137880
     -0.3589244856
     -1.8168757171
      4.1643027881
     -0.4144291731
      2.8734586694
     10.0819184610
     -0.2492498690
      0.0469225780
      3.7147862574
     -0.1681604342
     -4.1612190932
     -0.1034196474
     -1.3942097075
      1.8493945089
     -9.1971648342
      9.9418346436
      0.2135750922
      1.0189728165
     -0.0339035182
     -0.5822453245
     -0.1762518869
      0.1554401501
      0.0995669235
     -0.8433426047
     -0.6517990448
     -0.6393156144
      0.1522949761
     -0.1523061904
     -0.8855871060
      0.5897514482
     -0.7167071458
     -0.9614012878
     -0.5920987422
     -0.0320177732
      1.4885249952
     -0.6717523345
     -0.3096091888
     -0.1381346319
      0.2070506246
      0.4419268402
     -0.2579193139
     -0.3816768484
     -0.5847462642
      0.0478821273
     -0.2606735836
     -0.0987085374
     -0.1513368742
      0.1273404410
     -0.4091658240
     -0.0111053186
      0.8226250476
     -3.4587500993
     -0.0874030476
      1.3236753945
     -2.1324763889
     -4.1172568207
     -1.5645334134
     -0.9362073235
     -1.8771311379
      0.3229528454
      0.4826896891
     -0.3133963811
     -0.4980558995
      0.3018280673
     -0.6131938868
      0.0659846098
     -0.7742378251
      0.0145386779
      0.2869180292
     -0.0212488522
      0.6728184417
     -0.4678307836
     -0.5538832611
     -1.2889541414
      0.6331435459
      0.6177664580
     -0.1985271576
      0.8142268684
     -1.5996692191
     -0.2204187556
      1.1240462017
     -3.1640907163
      0.2469624214
     -0.1200560288
      2.3428036113
      0.4490624315
     -1.0810420244
     -0.0195837900
      0.5915933917
      0.2584451660
      0.1180698853
     -0.5558591255
     -0.0261053139
      0.9632618711
      0.6554879332
      0.0246171399
     -0.3992961478
     -0.0979741033
      0.8673208178
     -0.9700891199
     -1.0810550486
      0.7044782809
     -0.5066830372
      0.7580775819
     -1.0065557310
     -2.8022436710
      1.1576146149
     -1.0510024416
      0.2590061391
      0.8592653786
     -0.9044434462
      0.5336509989
     -0.1971094687
     -0.5392120454
      0.0599140313
      0.5583986044
      0.9384009244
      0.6585958162
      0.7298234843
     -0.0639984205
     -0.0059024047
     -1.0147548857
      0.7361719859
     -1.4187770153
      1.9509013932
     -0.7608462239
     -0.4197561490
     -0.4141095347
     -1.1971286545
      0.4413285925
     -0.3747845238
     -0.9860558564
      0.6073522302
      0.9438680867
     -1.2125763246
     -2.2817464674
     -0.9443245448
     -1.7056133143
     -0.0135321601
     -0.6217561339
      0.5449330153
      1.3624118669
     -0.1584523366
     -1.3974469795
      1.6313331160
      1.9793842267
      0.2244655561
      0.9605038141
      0.9947124717
     -0.2590257269
     -1.5313577425
      0.6789730583
      0.2805667299
     -0.0047282752
      0.4741077821
     -0.7180361307
      0.9553407594
      0.0099153320
      0.2005558967
     -0.1348267080
     -0.7000217705
     -1.1756738820
     -0.4777905861
      0.2504696182
      0.4034694042
      0.2318611835
     -0.3234491615
     -0.0304631424
      0.1534380503
      0.3392089591
      0.3764493888
     -2.0612382786
      0.2054592674
     -0.1079107922
     -0.8543536233
      1.2605606068
     -1.5284241056
     -0.0174588412
      0.6467971313
      0.0911826459
     -1.0248919671
     -0.5948340337
     -0.3329301637
      0.7950460145
     -0.8706751415
     -1.4674236991
      0.9681978435
     -0.9711725776
     -0.4465312856
     -0.2091207782
      1.3291628056
     -1.1170316173
     -0.6816455531
      1.7093270397
     -1.7706002590
      2.2449532169
     -1.2099488825
     -2.9832635880
     -2.5620697499
      0.7488649190
      1.1796256966
      0.4863683040
     -0.6232829085
      0.3395993993
     -1.5247724899
     -0.3947761670
     -0.6662150146
      0.8463567090
      0.3477293925
      0.0706108940
     -0.0653043159
     -0.1153974440
     -1.0165492485
      0.2384153581
      0.5774754407
     -0.6294061301
      0.1513728276
      0.0617484791
      0.0855816288
     -0.0051895224
     -0.5659678706
      1.0627284152
     -0.2762972471
     -0.9283335395
      0.6796629847
      0.6753307699
     -0.4497072435
      1.1361800423
      0.0693844099
      0.2870596999
      0.1929431176
     -1.3819806126
      0.2532436377
     -0.7033622549
      1.0498732341
     -0.5946984889
     -0.1286174827
     -0.0614259022
     -0.3131319713
     -0.3863761829
     -0.5017014063
     -1.2369848035
     -1.2042507179
      0.0767638112
      0.5089629655
     -2.0534174191
      1.1374852901
      0.1232378348
      0.1781353993
      1.4014889275
     -0.2922559375
      0.0354231537
      0.0568858697
      1.2249001195
     -1.8900564806
     -0.7016585344
     -1.1590946374
      0.8473910531
      1.9420738316
     -0.7718601007
     -0.9084174761
     -1.1538580700
     -0.8414239350
      0.3949955083
      0.4844722780
      2.9461872068
      0.7502728579
      0.8991687546
      0.2693797977
      2.1702191535
      1.4300445762
      2.9279634656
     -2.1849449346
     -0.7463273958
     -2.3498659811
     -3.9866524561
     -2.0333622869
      2.3262185949
     -3.3646857996
     -0.5783398091
      3.1287278416
      0.7432558647
      1.7769181883
     -1.7798843849
      5.0955310946
     -3.2147658937
      3.0026087054
     -0.5970146625
     -0.6181685736
      0.1850891144
      0.2054338958
      0.3242783503
     -0.0808339756
      0.6691654245
     -0.0871313803
     -0.0600863265
     -0.1362474607
     -0.2983471072
      0.3590718296
     -0.4846401322
      0.9318916224
      0.9632081085
      0.6992376038
      0.8394767520
     -1.9914078008
     -0.3016337205
      0.3582945624
      0.4718240924
      0.4029222050
     -0.1520699907
     -0.2795026768
      0.1722629309
     -0.3774245553
     -0.3268379511
      0.5620930865
     -0.2839065273
      0.6081179957
      0.5823902525
      0.6083154032
      0.1219170309
      0.4129397128
      2.7894892518
     -0.4748846871
     -1.7165354832
      1.8945066446
      1.2456310695
      0.6641698837
      1.2863234117
      1.0866524234
      0.0113822806
     -0.3767228967
     -0.5095218990
      0.8893701247
      0.0593262771
      0.9379225574
      0.4330252737
      0.5655411718
     -0.2730146158
      0.1967380552
     -0.2180093523
     -0.4809736049
      1.1304747654
      0.6303856301
     -0.2270585961
      0.6300258105
      0.5461013863
      0.1464052398
      0.3764215960
      1.2186843555
     -0.0896410432
     -0.2122580144
      0.7185148291
     -0.1757588822
     -0.2542890256
      0.0077740454
      0.6206105195
      0.2737647277
      0.2166124859
      0.1039052967
     -0.4172566039
      0.5320949149
     -0.1231966636
      0.1670559308
      0.2136791350
      0.1403042987
     -0.0026091757
     -0.4741588888
     -0.1797466709
     -0.4529944044
     -0.3266524362
      0.5421452109
      0.3929610616
     -0.0854550038
      0.7143893459
     -0.8426643795
      0.4303207545
     -0.0054077029
     -0.0959291433
      0.1202102487
      0.8389194871
     -1.0533908952
     -1.0564786304
     -1.4487616644
      0.2200505656
      1.2364718905
     -1.4567995526
      0.2415514465
      0.4098108039
      0.9425270005
      0.4172955156
      0.1084234749
     -0.3341566031
     -0.7913956546
      1.8311204500
      0.0840941008
     -1.0398582755
     -1.1218213431
     -0.1801659720
      1.7602120338
     -0.9330546158
     -0.1051216934
      1.4922389721
     -0.9486962783
      0.4958028474
     -0.9028160626
      0.4932575776
     -1.2053687062
     -0.1082707245
     -1.4202526946
     -1.3732602532
     -0.2743851131
      0.0797979203
     -0.5748962099
     -1.2017780271
     -1.4573480335
      0.3616289863
      0.1824342128
     -0.7321079701
      0.4745440127
     -1.2622390605
      1.0435175129
      1.4473412050
      1.6359149495
      0.5737287973
      0.6257032281
      1.2080311237
      0.5053971659
     -2.0573119784
      0.8842061871
      0.2625626735
      1.7844563788
     -0.1797226381
      0.2601970253
      0.7720227210
     -0.4402563479
      0.4576500870
     -0.0014141699
     -0.0217166126
     -0.9360966262
      0.6567468127
      0.4165292446
     -0.8255338424
     -1.2167126307
     -0.0911384754
      0.6403206256
      0.6631703060
      0.1657474259
     -0.3141599884
     -0.3986573499
     -0.2156853494
     -0.1066625263
     -1.1837812421
     -0.5738729174
      1.2656586767
     -1.0928982019
     -1.6224400865
      0.2398933246
      0.2890105592
      0.2738864715
      0.3206344607
      0.8173294567
      2.7718357000
      0.7570668711
      2.1732324039
     -1.5222764265
     -0.4712911576
     -0.6483821566
     -0.3086494839
     -0.8627186874
     -1.6676442551
      0.6008432773
     -0.4494311900
     -0.0585358181
     -0.2682099773
      0.3311770917
      1.0339720489
      0.6712839901
      0.8103344461
     -0.1266509049
      0.6293564287
     -0.2394426454
      1.0723998925
     -0.2909932980
     -2.2334732177
      1.0161740154
      1.5259269532
     -0.4080028242
     -0.5322465850
     -0.4473872615
      2.2854132456
     -2.8136651969
      1.8605897176
      0.7749585511
     -2.4226773188
      1.7880523640
     -0.9042909957
     -0.5898962518
      0.9124424234
     -0.3823869433
      1.3014202743
      0.3857709374
      0.0064521002
     -0.0387408308
      0.3117486250
     -0.3746742630
     -0.0267586072
      0.1251425184
      0.0533093255
     -0.0293874843
     -0.0564901814
