      0.7424330377
      0.1161770216
      0.1942663667
      0.3790521836
      0.5335790861
      0.4057044401
     -0.1798294887
     -0.1024248353
      0.0828473674
      0.4395997988
     -1.5661650160
     -0.7656401998
     -0.6096074029
      0.0031008912
      0.0903739727
     -0.2523052833
     -0.3001749637
      0.0715436032
      0.1774863255
     -0.4964775595
     -0.1798410449
     -0.0193197407
     -0.1864052802
      0.4082250424
     -0.1496036324
     -0.0415140285
     -0.0437423312
      0.1223178939
      0.2048618188
     -0.0073384792
     -0.3275242353
     -0.1662503120
      0.1486929874
      0.1406891512
      0.2291648133
     -0.0783882138
     -0.2014277395
      0.2548457125
      0.0367198987
     -0.0126851539
     -0.3874346720
     -0.8124857258
     -0.9192841157
      0.1155204846
      0.3541982218
     -0.0817772234
     -0.2929410006
     -0.1984387229
      0.3377001200
     -0.1778183138
     -1.0759559370
     -0.8786717753
     -0.0524745374
     -0.9314965322
     -0.4561947037
     -0.6383069242
     -0.4254586876
     -0.2031001829
      1.0166216066
     -2.4045681757
      0.2383124034
      4.2256800271
      0.3759100142
      0.3442126207
     -0.2651165779
      1.4337547934
      0.6236988902
     -0.3229043075
     -0.3700393584
      0.7594766951
     -1.0698160185
     -0.8033423680
      0.0335129836
     -1.5089451458
      0.3923696686
      0.3356012050
     -0.2338594008
     -0.2945615404
     -1.1663563062
     -1.2841171869
      0.3861271971
      0.4365361370
     -0.5380420358
     -0.2554861049
      0.0871870970
      0.1615850202
     -0.1389451259
     -0.6208328563
     -0.0563965086
     -0.3141323260
     -0.3435089741
      0.8009352733
      1.5662262726
     -0.3255166136
      0.5559121148
      0.2897179205
      0.5401671336
     -0.2420588883
      0.4652531631
      0.4090447095
      1.5886393451
     -1.1208576822
      0.2179647311
     -0.3806610870
      0.2158343086
      0.6093103310
     -0.2730183740
      0.3029418236
     -0.1176940686
     -0.4475155456
     -0.1611818979
      0.2750929522
      0.7977821503
     -0.0908964853
      0.9336196156
     -0.1061794271
     -0.7138392668
     -1.9920602158
      0.3857961421
      0.5340768987
      0.3385490671
      0.6416971528
      0.6649523951
     -0.4501493666
     -0.2248210434
      0.5343488690
      0.2140811844
     -1.0681630117
     -0.9948430096
      0.7533519834
     -0.0379650743
     -0.0878768458
      0.3136746377
     -0.9582923584
      1.7572297509
      0.0058128125
     -0.5657190560
     -0.9835660347
      0.3275426329
      0.3296377993
     -2.0094052725
     -1.0540715258
      0.3987468101
     -1.0884912082
      2.2169821091
      1.2993889953
     -0.1923302711
     -1.1027253378
     -0.1932539847
     -0.0112103906
     -0.9643738720
      0.9306360180
      0.2619456086
     -1.6540464466
      1.1407799236
      1.6955365260
      0.6719245029
      0.1329634312
     -0.5881164250
      1.3398027289
     -1.4614580575
      2.7605535389
      0.1121886081
      1.0430733657
      0.0551899964
      0.4212581849
     -0.7486357368
     -0.9070007051
     -1.1714681808
      0.2239211450
      0.0726241018
      1.7925185057
     -0.6596663379
      1.9949183399
     -1.0749303570
     -1.2638141780
     -0.2428488198
     -1.2441712552
     -0.3021027443
      0.6603062310
      0.4193832622
     -1.3672030666
      2.2458561445
      3.1266669384
     -2.7334294092
     -2.4345195551
     -2.2626197209
     -0.2954917161
      0.2384702749
     -2.6954186607
      1.1771546005
     -0.8534398529
      0.2847299747
     -0.6384717308
     -0.6008609755
     -0.3089678198
     -0.0561788474
     -0.0161710898
      0.6429170846
     -0.7143900532
     -0.6641369781
     -2.5565580786
     -0.2192692363
     -1.7161801264
      0.5505399819
      0.7109313761
     -0.1660584971
      1.0114204594
      0.6852807691
     -0.3433151619
     -2.1287797891
     -0.8731267927
     -1.0321722161
      1.5325387137
     -2.5878130052
      2.0668885303
      0.8734556872
      0.2438696741
      0.9521215698
     -0.5425576961
     -2.3164981346
      3.3552247061
     -1.3296002544
      1.9480126611
      1.4227804481
     -1.6982354916
      1.9411225739
     -2.1851828258
      0.6772185815
      3.9952465651
      0.4486087964
     -0.9879495185
      0.2004457573
     -1.4213954220
      2.3317467466
     -1.1038358873
     -1.7739189835
     -1.8377178454
     -1.0266462461
     -0.5196881016
      0.8820613063
      0.2119157127
     -0.9207315096
     -0.1608663866
     -0.4759423519
      0.0722431178
      0.1531272079
     -0.0879215373
      0.3072510013
     -0.5126252477
      0.1926424908
      0.3782308874
      0.3287282719
      0.0094495710
     -0.1628614257
      0.6649102803
      0.1149953248
      0.1767969935
      0.2129598605
      0.4080923711
     -0.0451859733
     -0.9049028920
      2.3721066649
     -1.1657288697
     -0.8646201876
      0.9336933075
     -0.9120231383
      1.3073332665
     -0.7109446559
     -1.8834228479
     -0.5575916688
     -1.3337400202
      0.3181831011
     -0.5029562702
      1.0554194272
      2.2143515614
     -0.8243010974
      1.4249273353
     -1.2179769233
      0.0205804052
      1.0370850398
     -1.3814146447
      0.0624448736
     -0.3028816094
     -0.6181116426
      0.0043288762
      0.1956660805
      0.7594967538
     -0.3442015654
      0.0610580411
      0.1973282229
     -0.1087468576
     -0.8552814859
      0.8389696512
      0.1513167153
     -0.1416223232
     -0.0124111350
      0.4827225836
      0.6684129800
      0.0849105170
      0.1966471987
      0.2986902529
     -1.3632354275
      0.5347107895
     -1.5867284269
     -0.6781123361
      0.2194079138
      1.0168058987
      0.2268527697
     -0.7447941334
     -0.0856429741
     -0.4600587150
     -0.3508925860
      0.4340336621
      0.0825915660
     -1.0200562841
     -0.0874128569
      0.4729226426
      1.0061686635
      0.0655425197
      1.3510507108
     -0.4640522388
      0.8571502867
      0.5475643983
      0.1248190685
     -0.6845581436
     -0.0126653105
     -0.1740482714
     -1.3256897663
      0.6033863610
      0.1514143968
     -1.2761372236
     -1.3869004019
     -0.4139712851
      0.1009696238
     -0.0784816966
      0.3786777960
     -0.1019436954
     -0.0332993850
      0.5197039538
      0.7445119884
      0.9924587908
      0.4552768065
      0.0851568133
     -1.4563251908
     -0.6057489161
      0.6083918758
      0.4978836197
     -0.3376348785
     -0.5900812588
      1.2695899375
      2.4986781367
      3.1088576698
     -4.3970183404
      3.2300048416
     -1.4591733185
     -1.1780825076
      0.2793518198
     -4.1899456476
      1.6790712817
      4.4497029842
     -7.3278083852
     -0.8937362489
      1.9534978773
     -3.8676438136
      0.4001583788
     -0.8442022479
      3.1387275229
      3.1025214973
     -5.2864893637
      1.8436287348
      1.8861289567
     -1.3656486584
      5.2408360827
     -3.5717958124
     -0.0850046969
      5.7074780707
      0.7552636210
      4.7490636725
      3.1856783504
     -0.2633224862
      0.1668550947
      1.2644038588
      0.1473218115
      0.6474341943
      0.4016336909
     -0.1503724556
      0.1336318530
     -0.7221720085
      0.8283876573
      0.1276035584
      0.6616626828
      0.3474881383
      0.3615299100
     -0.8721440130
      0.1865970264
      1.1630947064
      0.5449876725
     -0.7001423812
      0.8771299959
     -0.0970039146
      0.4060734279
     -0.7620720767
      0.2756349787
      0.3956129948
     -0.4448019476
      0.1257920322
     -0.4046526988
      0.0429980247
      0.7120336026
     -0.4120751308
      1.6624254490
      0.6275253321
     -0.9958881879
      0.1209737131
     -2.3596782127
     -1.0554337642
      0.2090937753
      1.3256905736
     -1.4590327199
      0.5686186033
      0.7323988302
      0.5036894801
      0.0797191637
     -0.1053624825
     -0.2353244003
      0.2681313441
     -0.0880318782
     -0.2191238619
      0.6628163019
      1.9683898404
     -0.3312205968
      0.6346819132
     -1.0622108066
      0.3269638340
     -0.2378827105
     -0.3692320217
     -1.6292480906
     -0.3800405173
      0.4911830695
      1.6908788425
     -0.2531580202
      1.7315626198
     -0.8769210408
     -0.0061421649
      0.7852126273
     -0.3231598415
     -0.4604668903
     -0.9322862380
     -0.1004962866
      0.3540741420
     -0.1990646556
      0.2876825887
     -0.0390843730
      0.2112472503
      0.0720754553
     -0.0611503778
      0.1144851523
     -0.2896244480
      0.2774254394
      0.7149547040
     -0.1498366145
     -0.5051459597
      0.5435140831
      1.3670466042
      0.0257574273
     -0.3580920837
     -0.1508409020
      0.0558321810
      0.2763099950
      0.1994433536
      0.8422890649
      0.8563496268
     -0.0015592410
     -0.3652054964
     -0.1909932786
      0.0011872163
      0.1019472905
      0.0147250307
     -0.3941653584
     -0.5109294541
     -0.4791124361
     -0.6152889770
      0.8875998830
      0.8946872666
      0.4526059946
     -1.0284384249
     -0.0391202971
      0.1142790307
      0.2717699922
     -0.2907049276
      0.3508938575
      1.2954379371
     -0.7256251586
      0.7806824935
     -0.6799518033
     -0.6796098096
      0.3510297922
     -0.6303083372
      0.0609646045
      0.1575909516
     -1.3153188632
      0.9439388811
     -0.0561190691
     -0.3880408640
      0.4959971628
     -0.2824182470
      0.5945301505
     -0.1830713776
     -0.8682278706
      0.2183706020
      0.9129216078
     -0.6393623162
      0.9134295935
     -0.7958036549
      0.7501408039
      1.2707966125
      0.0952175331
     -0.0112731007
      1.1139041178
     -0.7971404262
      0.2713624553
      0.4042364232
      0.2300598171
      0.1051406160
      0.5097783744
     -0.1798577255
      0.0084285601
      0.0934286561
      0.0019524551
     -0.6061078271
     -0.3491973443
     -0.4479412639
      0.1040571509
     -0.8347253474
     -1.0137473204
     -0.4691284171
     -0.0471402736
     -0.0826965454
     -1.0575126383
     -0.8953842468
      0.3982005876
     -2.3148010871
      0.6142749357
      0.3863479808
     -0.6492654943
      0.1588434285
     -1.1476576278
      0.8177487268
      0.1912893566
     -1.0720678759
      0.9278930027
      0.5831779164
     -0.4555793807
     -1.0043714042
     -1.1834270155
      0.1270993494
     -0.4047053315
      1.5637945013
     -1.7348193064
     -1.4198704893
      0.8188973987
      0.7184031116
      0.3496413689
     -0.0573092502
     -0.1910158875
      0.2863294094
     -0.1445648107
     -0.1534887827
      0.6096270172
     -0.4465599417
     -0.3843124417
      0.5930891431
     -0.8112038822
     -0.2794904087
     -0.0137072192
      0.3083582228
     -0.3372733076
     -0.5913074316
     -0.0269986131
     -0.1580852960
     -0.0008739441
      1.9868993150
     -0.1249484366
     -0.0033432340
      0.6819667315
      0.6452763751
      0.0989518363
     -0.4276454353
      0.5560677371
     -0.1652714069
     -0.4895837288
      0.2630136162
     -0.1385308381
      0.3947310268
      0.0340825709
     -0.0215318732
     -0.4592271545
     -0.5721470990
      0.4505056120
     -0.2364067892
      0.4819993516
      0.0466134513
     -0.1444061782
      0.9309532138
      1.0010700068
      0.0189126662
      0.0276590903
     -0.3089337870
      0.6845100813
     -0.3623510720
      0.8202734611
      1.7211149348
      0.9058822071
      1.0093824760
     -0.4653650460
     -0.2693295732
      0.3009551008
      0.8189479460
      0.1475811056
     -1.0159011607
     -0.8707395665
     -0.9782949297
      1.6137074978
     -1.8547401549
      1.2142456000
      0.6079223567
     -0.0594693059
      1.3463024002
     -0.8370845170
     -0.7525413068
      2.3517473231
      0.8200321581
     -1.1994173193
      3.2098671070
     -0.5370782252
      1.3613405580
     -1.7124851445
     -2.3851826532
      4.9641572765
      0.3802314365
     -0.4795615958
     -0.0582402697
     -1.6704160672
      3.0738039688
     -0.5865450675
     -2.8319179425
     -0.7701181727
     -1.7370740969
      0.6681159694
     -0.4740407526
     -0.0087292476
     -0.9237058754
     -0.1402945948
     -0.4489311902
     -0.4215697497
      0.2258217636
     -0.0341215042
      0.3930935932
     -0.4763825449
     -0.2674242687
     -0.8133381433
     -0.3489663678
     -0.4252461866
      1.3532787754
     -0.7548602590
     -0.8070339116
     -0.3890503270
      0.6934490325
     -0.4489258690
     -0.2760757929
     -0.0872977714
      0.6775097169
     -0.1516289794
     -0.4399460776
      0.1267218386
     -0.1938258126
      0.3176938934
      0.1845184812
     -0.7629965177
     -0.0479715236
     -0.8537390470
     -0.2369158469
      0.3737761598
     -0.2664770117
      2.2900379043
      0.0170030623
     -0.2452354464
     -1.5825263370
      0.4870256395
     -0.0975416607
     -0.2519094553
     -0.1612945308
     -0.0493873022
     -0.5723168222
      0.2775000865
     -0.3115754437
     -0.1447173363
      0.0249228325
     -0.7942764620
     -2.0112449130
      1.2071219926
     -0.4534191192
      0.6168761940
     -0.1244949742
      1.0217444869
     -0.0927902559
      0.7326948654
      0.3438727808
     -0.3349077441
      0.2340112147
      0.0664117619
      0.2711730974
      0.3374906689
      0.1607088748
      0.3024455536
      0.0633224659
      0.0449397201
      0.1995765620
      0.5959332605
     -0.3140360837
     -0.4152832124
     -0.4485899399
      0.0195609619
      0.2107941490
      0.2815658484
     -0.0548922412
     -0.1370022518
      0.1509169496
      0.0915162727
      0.0292831238
      0.6162467543
      0.6306865572
     -0.1180758876
     -0.2932202966
     -0.0305512907
      0.2790288750
      0.1385713431
     -0.2516432588
      0.0249819073
      1.0670699969
      1.1229906941
      0.7546006515
      0.1168011329
      0.1537115393
      0.3227995742
      0.2058050511
     -1.1098752806
     -0.0926813578
     -0.2777455517
     -0.1024766338
      1.3158908679
      0.2585499785
     -0.1711576432
     -0.2658677270
      0.5923570691
     -0.2022953372
     -0.4984325205
     -0.2313502368
     -0.1821884983
      2.5586270055
     -2.3370602870
      0.2699472730
     -0.5215870290
     -0.5195142617
      0.4621554027
      0.0792481959
     -1.0560330158
      0.5225578328
      0.2463952784
     -0.0984051172
     -0.5350381482
     -0.1124736679
     -1.3806722476
      0.9810253917
     -1.8375100364
     -0.5117695442
     -1.1291708516
     -0.8588092501
      0.2647300009
     -1.2692195262
      1.3687949045
      0.7356088979
      0.4455829598
     -0.2487865428
      0.0751119544
      0.0650869934
      0.2777194400
      0.3133026577
     -0.7551903747
      1.2823664151
      1.0988886483
     -0.3216541263
      0.2398487901
      0.1475759663
      0.3263417484
      1.1590565661
      0.4193274307
      0.8094464661
     -0.5283395959
     -0.4735526430
     -0.1843787610
     -1.0523600541
      0.8281018075
     -0.9165174494
      0.0096657255
      0.4054334239
     -0.3805770093
     -0.9943351139
     -0.3236529681
      1.0269074819
     -0.3980780618
     -0.3538808406
      0.9869893252
     -0.2712544084
     -0.6080750316
      0.3317808958
      1.4096517380
      1.1762833524
     -0.8674535843
      1.6439763571
     -0.7338450851
      0.9176069115
      0.2731632489
     -0.1835678978
      0.3328265660
      0.5016588659
      1.3437505033
     -1.2110863784
     -1.2260957801
     -0.0983914246
     -0.2762478822
      0.3721348099
     -0.0659305398
      2.5847006407
     -1.4766923538
     -0.0560002209
     -0.2368034794
     -1.0643264601
      0.2773243612
     -0.5131363232
     -0.3074635506
      0.5350992457
      0.0638979697
      0.2961467365
      0.5150155029
      0.6214999332
      0.4234524563
     -0.1405351393
      0.7471730616
     -1.6285155617
      1.1052916035
     -0.0367763942
      1.1815794715
      3.0028373215
     -0.7355667881
     -0.5460678434
      0.1542222090
     -0.5670662463
     -1.4024488274
      0.0508814075
      0.0150277691
     -0.0125038998
      0.0754100293
      0.0623760136
     -0.0722567924
     -0.0451310697
      0.1276732127
     -0.0597108591
      0.1837700167
      0.1889053942
