     -0.5793715031
     -0.5046535868
      0.7934154319
      0.2437009390
      0.4885672695
      0.6070422201
     -1.7098690033
     -1.5353525521
     -0.0692467640
     -0.7551451190
     -0.0997818530
      0.2356402132
     -0.6968523106
     -0.5087913012
     -1.3319329192
     -0.9851028922
      1.2770089488
      0.8970023885
     -0.1023986904
      0.0926438984
     -0.0937966079
     -0.0458834812
      0.0137063012
      0.2824994260
     -0.3227655964
     -0.0421206132
      0.3824347723
      0.5148288377
     -0.3969349796
      0.2699712804
     -0.4420941259
      0.2689405017
     -0.4471227911
      0.0000738122
      0.1267346053
     -0.5349350933
      0.1040358602
      0.0049850710
      0.3805488504
      0.2662292809
     -0.6260386133
     -0.0289127295
      0.1331008367
     -0.3682391214
     -0.4071423143
      0.1440152796
     -0.0115155290
      0.0748718371
      0.1672418393
      0.2413338992
      1.0806733514
     -0.5383775164
     -0.1821357120
      1.2233977155
      0.0063669493
      0.1355273179
      0.7723637766
      0.1037684669
     -2.0006865958
      1.8986522439
     -0.2729123372
     -1.4434759892
      1.9777736013
      1.0264614853
     -0.5389018230
      1.3794313585
      0.6419464807
      0.7283897480
     -1.1368411363
      0.3206288745
     -0.2376543779
      0.3361257962
     -0.4645373694
     -1.0215811915
     -0.4536707241
     -0.6944844638
      0.8093241739
      0.3371827912
      1.2342560982
      1.1237319307
      0.0799197596
     -0.0675046208
      0.2250235731
      0.2851353907
     -0.5920061242
      0.5363278681
      0.4978229920
      0.6949654486
     -0.0908995459
     -0.1489150112
      0.7393986783
      0.1502823831
     -1.2957702670
      1.2755334349
     -0.1149871524
     -0.9616006707
      0.6110354308
     -0.1559332564
      0.0352039689
     -0.4530016044
     -1.4955114673
      0.1416115618
     -0.6764013492
     -1.7098107856
     -0.9244855760
     -0.3156908341
      1.4094884004
      1.1957926925
      0.7072464836
      0.9315407935
     -0.2419461768
     -0.2334585025
      1.4297044955
      0.3062757966
     -1.9443304420
      0.8365596721
     -0.7488361218
     -0.6496718537
     -0.2707540872
      0.9783440812
     -0.2334575168
     -0.2315487581
      0.0459017647
     -0.1790542535
     -0.0364795705
     -0.9156978622
      0.0054025175
      0.1776331604
      0.3025119338
     -0.2414118633
      0.8207119271
      0.1685834244
      0.2105700507
      0.9665596104
     -0.4693434936
     -1.1812557285
     -1.3770224937
     -0.9141708510
     -1.4584490914
     -0.3679063340
     -0.3091988272
     -0.4415377353
     -0.2026311099
     -0.6157670060
      0.5918029138
     -0.8321798965
      0.3595984851
      0.5399301852
      0.0311970888
      0.2530698591
      0.1707869854
     -0.3618993105
     -0.0682653694
     -0.6226841391
      0.8502211658
      0.3281083511
      0.4034556736
      0.5018986727
      0.5252540921
     -0.1149972855
      0.1943151267
     -0.1078791764
      0.4624481538
     -0.1349945528
     -0.5793539598
      0.2827339759
     -0.0817797986
     -0.0040994773
      0.1801518648
      0.6906735042
     -0.1023687909
      0.6302155321
      0.1561222102
      1.0562163250
     -1.5996335336
     -1.2626982986
     -0.1146374713
      0.0838343058
      0.2690577648
      0.2830074381
      0.9614528091
      1.3735031802
     -0.8008938809
     -2.1831505390
      2.2833255240
      0.4943735647
     -0.1463675961
     -0.1465374347
      0.1083535599
     -0.9390551507
     -1.2389676755
      0.4642436279
     -0.1249616975
     -1.0214986988
     -0.1277505841
     -0.1068263757
     -0.7349379308
      0.3132682620
     -1.5734027884
      1.1118609122
      0.6705014267
     -0.6075587575
      0.5062805262
     -1.2536146510
     -0.5150596726
     -0.9889419263
      0.9540170771
      0.6863518359
      0.0514203782
     -0.5905008871
     -0.6011081586
     -0.3455090168
     -0.7371075880
     -0.0346372359
      0.9086227063
     -1.6694312940
     -0.0444841924
     -0.2312169330
      1.0717180671
     -0.1464849351
     -0.2958010070
      0.2311974513
     -0.7977656529
     -0.2371158264
      0.1000455855
     -0.4752199768
      0.5843403409
      0.3128007436
      0.2178813887
     -0.3330835756
      0.2916307557
      0.3679458764
     -0.5984566449
      0.3931897093
      0.3286592646
      0.1156236676
      0.2847455461
      0.5690581797
     -0.0435214284
      0.2714827213
      0.2148081340
      0.0474083966
      0.5187745484
     -0.2036432150
     -0.3157692447
      1.0908018734
      0.6093121866
      0.5498026011
     -0.3610153861
      0.1101909255
     -0.3714408430
      0.2259130283
      0.3244100408
     -0.0067327172
      0.0460576762
      0.4996919040
     -0.6348480865
     -0.7916370380
      0.5794696056
     -0.3590400845
     -0.9033111007
      0.4177578085
      0.2145872803
      1.4772220615
      0.2822125985
     -0.2386180024
      0.2453063938
     -0.9536084962
     -0.0521082663
     -0.3374944338
     -0.0296932354
      1.1745967294
      1.4060436983
      2.3180602418
     -0.2306389888
      1.6237808873
      0.0996430345
      0.7123584883
     -0.2000034741
     -1.4825209508
     -0.1845156716
     -1.3702370242
     -2.6457327415
     -0.0247848064
      1.9079559869
     -1.2912311422
     -1.8224935310
     -1.0989070374
      1.4784788644
      2.2052972305
      0.3120724194
     -0.0263273551
     -1.1898799835
     -1.3303681595
      0.1298810996
      0.8300834975
     -0.6750909965
      0.4017388315
      0.0438621297
     -1.0262128245
     -0.3720100460
     -0.0862510666
     -0.3743138464
      0.2631108398
     -0.0147420022
     -0.1769378084
     -0.3900248032
     -0.2298704038
     -0.3540527789
      0.3100403534
      0.4911761582
     -0.5864130577
      0.6252214511
     -1.7073131906
      1.2606862302
     -0.9018222141
     -0.2903246670
      0.1747674319
     -1.5577405310
      0.4616078811
     -0.4103115839
      0.2020346690
      0.7945813475
      0.1618791662
     -0.9337449671
      0.1745764771
     -0.1824770459
     -0.0014494193
      0.4820270772
      0.7572021324
     -0.1292594049
      0.0941769143
      0.1104488007
      0.5772144616
      0.2236190326
     -0.4696440685
      0.2451477805
      0.4621596115
     -0.2515770509
     -0.0189021308
      0.0899814836
     -0.2223304990
      0.6176199464
      0.4214275868
     -0.0006193636
      0.5697661314
     -0.7314955602
     -0.6648446780
     -0.5089494030
      0.3048070439
      0.2763258127
      0.3382260670
      0.4349239592
     -1.0911501514
     -0.2903049046
      0.4663754640
     -0.0742152789
      0.4800310304
     -0.6199498925
     -0.4810431090
     -0.3012170864
      0.1868416086
     -0.7163885223
     -0.2368810430
      0.5279195707
     -1.0163302473
     -0.5467236249
     -0.4274712094
      0.2592652776
     -0.9416685898
      0.0225644671
      0.1184770040
     -0.4811196478
      0.1530248572
      0.3398508007
     -0.0684054777
     -0.0903453293
     -0.0419999277
     -0.4681069747
      0.1151860895
      0.4623824676
     -0.4781013713
     -0.4421149710
      1.2903480142
      0.4517170242
     -0.0395197746
     -0.2191918303
      0.2382955410
     -0.0500644139
     -0.9111256530
      0.4829913297
      0.1478494370
     -0.1015800082
      0.9346027255
      0.5444250300
      0.4082207693
      0.4607550819
      0.5295183274
     -0.2391463733
     -0.5087219866
     -0.0335023756
     -0.4775047971
      0.0203699880
      1.9434477361
     -0.0392604442
     -0.1219653496
     -0.2749601926
     -0.0521466027
      0.3140651746
      0.3102479611
     -0.0103839300
      0.2178721356
     -0.0937202198
     -0.2147010867
      0.6621356014
      0.1396550874
     -0.3027892338
     -0.3364536942
      0.3772235948
      0.1995817517
     -0.8407796706
      0.0865184045
      0.2941756616
     -0.3392337834
     -0.6802956767
     -0.3617880304
     -0.0749184779
      0.3255625344
     -0.5891337179
      0.8733319448
     -0.3113214275
     -0.1830731050
      0.2353531838
      0.5001406935
      0.5514036315
      0.1413118235
     -1.2095611960
     -0.9242065896
     -0.7289133875
      0.3383906515
     -0.9818050526
     -0.3577703819
     -0.3303444058
     -2.1483758558
     -1.3391789213
     -0.7007241681
     -0.2640812803
      0.0062796554
     -0.5024795089
      0.7629349991
      0.6637026127
      0.9661632863
      0.7738301786
     -0.7150127420
      0.5006578204
      0.3432611763
      0.3363534225
      0.0862889830
     -0.3953094251
     -1.5688033932
      1.5807171513
     -0.6924062565
      0.8515936433
      1.5879657043
      0.7064460745
      0.2360284769
      0.3781430895
     -0.8060448066
      0.5089843248
     -1.0491575493
     -0.1774872520
     -0.0057948511
      0.3514527477
     -0.3398838068
     -0.5984467788
     -0.5609450587
      0.0285259544
      0.0370211371
     -0.0459667074
     -0.1119208339
     -1.3647378832
      0.0525916514
      0.0039453427
     -0.1409240519
     -1.4722837242
     -0.3757123123
     -0.3465528321
     -0.2863765785
      1.0444706695
     -0.6472217092
      0.0675297919
     -0.1291646239
      0.0073589004
      0.2038485209
      0.5583586832
     -0.0220176628
     -0.2038403442
     -0.2219304298
     -0.3513720503
     -0.1665860947
      0.5774290910
     -0.3851529866
      0.2303869647
     -0.1040873232
     -0.7038217004
      0.0951775219
      0.0863238563
     -0.3708572749
      0.4150358229
      0.0294924990
      0.2618388719
      0.2299215829
      0.4080666907
     -0.6369204015
      0.2685249893
      0.1567119713
      0.0715822198
      0.4376081378
      0.4904267145
     -0.6825915032
     -0.3302725821
      0.3021060877
      0.4666729837
      1.5924657483
      1.7991102761
     -0.6169502901
     -0.8154742032
     -0.6494615828
      0.6932964431
     -0.3081682916
      0.6664948536
      0.1588271372
     -0.0925434025
      1.0396141746
     -0.4089883860
      0.3307478613
      1.0590540637
      0.6785023385
     -0.3294477771
      0.5714830471
     -0.1439463681
     -0.2603584647
      0.5739298434
     -0.3260287143
     -0.2601349582
      0.2596697015
     -0.2888244186
     -0.1866607922
      0.2574374821
     -0.0931343197
      0.8046427799
      0.0386883244
      0.6788598291
      0.1322303169
     -0.1011655172
      0.8614035616
      0.2964545581
     -0.0707769839
      0.1543677590
      0.6554867906
     -0.2568608366
      0.1086156149
     -0.4007679392
      1.2784394268
      0.6612076612
     -1.1326393022
      0.0496625573
      0.1887574847
     -0.6245037772
      1.1733050128
      0.1059306649
     -0.8802005489
     -0.3790745941
     -0.1568576196
     -0.6041227601
      0.6609548442
     -0.0744401653
      0.1029673463
     -0.0127887788
      0.4596091633
     -1.1277154181
     -0.2066957146
     -0.1581313409
     -0.4060268376
      0.0369711384
      0.4138554235
      0.2287064950
      0.0317312974
      1.0752608642
     -1.2172469642
     -1.0609823255
     -0.7598229146
     -0.0778518729
     -0.5294433979
     -0.6456884530
     -0.1998160637
     -0.5910639137
      0.4892203728
      0.7095808614
     -0.6946273955
     -0.2056234475
      1.2942388581
     -0.7600601551
     -1.0703326702
     -0.0774837472
     -0.6445784118
     -0.5828324643
     -1.0151192630
     -0.4890576939
     -0.0900874810
     -0.9433116525
      0.0859468418
      0.5588176157
      0.5421249033
     -0.3031423153
     -0.5466142303
     -0.7376205358
      0.2484597744
     -0.3394745737
     -0.3414631255
     -0.4876664801
     -0.0598800184
     -1.6811205204
     -1.0094708726
     -0.1114985559
     -0.8676801107
      1.0207885878
     -0.7466368482
     -0.1821281450
      0.3232065460
      0.4025488566
     -0.2725200183
      0.7265745820
     -0.3496080800
     -0.5214803535
     -0.5074228619
      0.2208264995
      1.1283155553
      0.1824069227
     -0.6217993853
     -0.8095987826
     -0.4099296415
      0.0196305086
      0.3787670632
     -0.2582496215
     -0.0560691160
      1.5577318804
     -1.3720529873
     -1.5615778695
      0.2293037465
      0.2139447459
      0.0733481539
      0.2759958850
     -0.6568552868
     -0.0626273659
     -0.3903254915
      0.6509056254
      0.2823318750
     -1.2598150435
      1.1242148671
     -0.4402439991
      0.2723827735
      0.5136430285
     -0.4433250818
      0.6115256507
      0.4523430538
     -0.1952251238
      0.3598370519
     -0.6288233996
     -0.0819553843
      1.6701770039
     -1.5967420740
      0.9996960888
     -0.3181463566
     -2.2573166020
     -1.3224764393
      0.2311757576
     -0.1906574407
      2.9138309007
      0.8610182388
      0.1161092235
     -0.0282491400
     -0.2051046986
      0.1147449059
      0.0881118510
     -0.4009732649
      0.0431976809
     -0.1779135141
     -0.1243330123
      0.1354903869
     -0.0242563841
