      0.0758902644
      1.4737872910
     -1.4133911390
      0.6354565608
     -1.1192582327
      0.1564583799
      0.3386582555
     -0.1510279717
     -0.2628528247
      0.0184191322
      0.2340152656
     -0.5338906692
      0.4307646701
     -0.4346677023
      0.1948698754
     -0.4006736283
      0.2861804259
     -0.1901505860
      0.0223920340
     -0.5402578883
      0.4496942150
     -0.8868185192
      0.0783786483
     -0.3891614206
      0.6335532142
     -0.4106692090
      0.0300247400
     -0.0895313895
     -0.0067867329
     -0.4612876310
     -0.1846841832
     -0.3104869670
      0.4200801547
     -0.4159773191
      0.7611819758
     -0.0441328541
      0.2922077167
     -0.0489504514
      0.4836256945
      0.1818503016
      0.1857099343
      0.2545254234
     -0.3045974100
      0.8087561114
     -0.2812508586
     -0.0337674978
     -0.1951388400
     -0.0408794166
     -0.2496213837
      0.2085253069
     -0.7323327371
      1.0952666065
      2.7755700334
      0.1252466336
      1.5609624792
      0.4899618183
     -1.1492429389
      0.1690018254
      1.6034008421
     -0.2259149603
     -1.2102808001
      0.1741238120
      0.3425215004
      1.4013837049
      0.2391940629
      1.0036177304
     -0.8840543478
      0.9395473253
      0.2580891525
      0.2085811403
      0.0088503855
      1.3963228474
      0.0734718035
     -0.5982316973
     -1.1712953334
      0.9316556773
      0.4025600749
     -0.3966885526
     -0.2139621691
      1.1892252408
      0.8158626469
     -0.4076444363
     -0.2924857693
      1.0116325570
     -1.1020796653
      0.4599531954
     -1.1770884330
      0.0274799078
     -1.4425794493
      0.5955575712
      0.3975993718
     -0.0071489803
      1.3018457079
     -2.7783029761
      0.2724598036
      0.7007724542
      0.1356594142
     -0.7696537304
      0.3209654833
     -1.1560047013
      0.3030893318
      0.2218804627
      0.2547846942
      0.8095931827
      0.2290583402
      0.3106257211
     -0.3874148880
      0.5117385596
     -0.8612543460
     -0.6527868708
     -0.3608741716
      0.5875391984
      0.5321599658
      0.6805083301
      0.0176789093
     -0.8095605062
      0.2782195014
     -0.1527962662
      0.6453757027
      0.0334258439
      0.4157143346
     -0.1213774215
      0.0361045314
      0.8836700373
      0.7183363411
     -0.0116185380
     -0.1351789521
     -0.2698245465
      0.6252301098
      0.9224102077
     -0.0895237612
     -0.7848289704
     -0.1396340077
      0.6577416949
      0.2337230249
      0.3622641104
      0.1811885917
      0.2173924838
      0.3958783999
     -1.2122676926
     -0.4210503351
      0.7131175162
     -0.0321243548
      0.4402569970
     -1.2031437434
     -0.4431600572
      0.6283899066
     -0.6082251056
      0.1430912086
     -0.8067166814
     -0.0347711089
     -0.8478907270
      0.2880005229
     -1.3717895932
     -0.2331937633
      0.9194941271
      0.3890556709
     -0.1758432930
      0.3854470391
      0.5416299583
     -0.5894280633
      0.5956825256
     -0.4068735426
     -0.2146207301
     -0.7341383373
     -0.2138547538
      0.9842724926
      0.1055877055
      0.3360517836
     -1.1309348374
      0.7971690676
      0.0945015710
      0.2468400872
      1.9444948419
      0.0609437363
     -1.0190432121
     -0.3631538990
      0.1315986444
     -0.4218958678
     -0.3294032379
      0.1393893480
      0.0468592325
     -0.2271197534
     -0.2355479913
      0.1035590511
     -0.2119416150
     -0.6002018294
     -0.4533989907
      0.0287450130
      0.0378986319
      0.0272328659
     -0.4100215729
     -0.7785357127
     -0.6143236649
      1.0262561034
      0.4795762946
      2.3195059989
     -0.2154090551
      1.0619234866
     -1.1249147088
      0.3656519682
      0.7980666218
     -0.8538424575
     -0.9095052057
     -1.4633600828
      1.0217011822
     -0.5462524549
      0.5108230470
     -0.3285016095
      0.4949419201
     -1.4782194109
     -0.7733686445
     -2.0194383518
      1.0197968271
     -2.1329379541
      0.8737950931
      0.2202505946
     -0.5631685664
      0.0911062959
     -0.5126722830
     -0.5085781166
      0.1981087745
     -0.0281183142
     -0.5765573879
     -0.0535176049
     -0.0250398816
      0.7822169506
      0.3039954300
      0.3220806876
      0.7143103629
     -0.5178111062
      0.1797911184
     -0.2634569145
      0.7525514477
     -0.3606057527
     -0.1663571805
      0.0477983605
     -0.2682684189
      0.2866171725
      1.2014174260
      0.3856085184
      0.8627299670
     -0.1558048506
      0.1676307703
     -0.1555924704
     -0.1297048989
     -0.0166276838
      0.6899723493
      0.4526579423
      0.2615684023
     -0.3797057785
      0.6835342835
      0.0891154184
      0.2939671396
     -0.6992284669
     -0.2232520145
      0.6964048906
      0.1021491891
      0.3626939758
     -0.5069584565
     -0.5490718739
      0.0804444214
     -0.4198491745
      0.2328321887
     -0.0995323036
     -0.0777087556
      0.5620578485
      0.1125320590
      0.4643393747
      0.2901147723
     -0.4703932217
     -0.1008847069
     -0.5154511846
      0.0527216285
     -0.1723585680
     -0.6522018658
     -0.6676157940
      0.4301213747
      0.1426294503
      0.0570104107
      0.3288181754
      0.7089677320
      0.5108273811
     -1.4626413946
     -1.2523096536
     -0.3837854773
     -0.5983658546
     -0.3133609304
      0.9911897748
      0.2710751732
     -0.2712896965
     -0.5939826775
      0.2032768757
     -0.2368350958
      0.0693629721
      0.0655830147
      0.1660276097
      0.0935364497
     -0.0927587457
     -0.9582975346
      0.6422358807
     -0.5670320427
      0.1415853414
     -0.9957066319
     -0.1297012981
     -1.1603660017
      0.9636279505
      0.0469438852
      0.8518655986
      0.5564354794
      0.6270908427
     -0.1503325496
     -0.3419979089
      0.6786523892
      0.0157165294
     -0.6934146048
     -1.0126261988
     -0.7581052299
     -0.7185114660
     -0.3015119635
      0.1789026306
     -0.3429478845
     -1.1383305970
     -1.2906072906
     -0.1955544165
      0.1525134700
      0.8519609684
     -0.1831861597
     -0.4242277369
     -0.9360110913
      1.4326822217
     -0.7351370274
      1.5709066868
     -1.2734713851
      0.0346567072
     -1.9229192707
     -1.5451031466
      1.6849196240
     -0.4014670681
      1.9684993270
      0.2594278803
      0.1179105709
      0.6525748547
     -0.2442296825
      0.2284020574
     -0.6203858587
      0.0315731575
     -0.0788536087
      0.6112790616
     -2.0024061222
      0.6411657494
     -0.5900300059
     -0.7642489535
      1.1488292215
      0.4595348947
      0.4770991020
     -0.1585496234
      1.1701957954
     -0.1620234640
      0.4985719212
     -0.7253866370
     -0.7184644792
      0.2957583608
     -0.1325043046
      1.2768065389
      0.2612795015
     -0.3992097441
     -0.5655443995
      0.4240041625
     -1.0605356059
      0.1856550623
     -0.8876545217
      0.5866847715
      0.5698928480
      0.5598339707
      0.1738558631
     -0.9325588868
      0.1203463089
     -0.5724100683
      0.4918931765
      0.2579169101
      0.2900777507
     -0.3657335947
     -1.3512442402
      0.7762820775
      0.4053821439
     -0.1584485982
     -0.2491362512
     -0.3196835330
      0.3047832833
     -0.0656511407
     -0.6263003927
      0.3831930116
     -0.3734135439
      0.7949309318
      0.4986982633
      0.1833534661
     -0.3406207045
     -0.5375245167
     -0.1429029531
     -0.1077216764
     -0.6840333191
     -0.7437588945
      0.4535276868
      0.9615627258
      0.1829212302
     -0.3267863431
      0.2428936723
      0.7024618666
      0.2988107104
     -0.2249486667
      0.3887994295
      0.3468616060
      0.6096045359
      0.2161039986
     -0.1222106065
     -0.1420140025
     -0.0863059034
      0.4311357979
      0.6747312040
     -0.1316792133
      0.3450673943
      0.5605811327
     -0.2451608385
     -0.3339756048
     -0.5647538608
     -0.7079361456
     -1.5635102048
     -0.1440471226
     -0.0041353726
      0.3665163192
      0.1355579724
      0.6194071700
     -0.0171473391
     -0.3104568543
     -0.1784986404
     -0.3928646350
      0.0295209527
     -0.6530778424
      0.5767897363
      0.0277179549
     -0.3288373672
      0.2774587767
     -0.1930158588
      0.2603751721
     -0.5369785378
     -0.1371032847
     -0.6368777171
     -0.1351264508
     -0.3623003771
      0.6601630180
      0.5714882624
      1.2214884691
     -0.1776867307
      0.4646649622
     -0.9002857256
     -1.1666642813
      0.0567659979
     -0.1888375939
      0.8351065831
     -0.0585857368
      0.4772906493
     -0.3686365675
      0.0960498544
      0.1621074270
     -0.1524752344
      0.0280568698
     -0.2972090387
      0.3840428355
     -0.1068351346
     -0.4843508085
      0.4346694597
     -1.1089513103
      1.1687815316
      0.2381405087
      0.7150565020
     -0.2545829719
      0.2171768636
     -0.6373662563
     -0.3509387860
      0.0524211472
     -0.6811454022
     -0.1211119122
     -0.3401258850
      0.5303612166
     -0.4374267235
      0.1994988268
     -0.5155229204
      0.1672748781
     -0.4814829410
     -0.0966705804
      0.1666671728
      0.3951891008
     -0.2218254578
      0.4553717755
      0.0604347711
     -0.1342305858
     -0.0000024218
      0.0695076173
     -0.6261096842
     -0.6587521290
     -0.3763867439
     -0.1219986455
      0.2261299628
     -0.0721129112
      0.2171684637
     -0.1475958490
      0.1012959944
     -0.3257342390
      0.7644007788
     -1.1797016258
     -1.6608824125
     -2.1145755918
      1.6511443822
      1.0329826816
     -0.7195310230
      0.4392053562
      0.1185333255
     -0.5323535963
     -0.0714789728
     -0.0341171989
     -0.3456047469
      0.0520708494
      0.4250659419
     -0.2072987534
      0.6969445653
     -0.2343167648
      0.8041135170
      0.4106384287
      0.3001771806
      0.6913901085
     -0.2835088170
     -0.2604490108
     -0.7473236557
      0.7883207795
     -0.8893509009
      0.1632996460
     -0.7526303542
      0.3131973806
      0.8596030040
     -2.1631949701
     -1.2197635458
     -1.0704230094
      1.2292107419
      0.1678876047
      0.2743620321
      1.2030506581
     -0.7847497374
     -0.2102770486
     -0.7726077616
     -0.4421552520
     -0.0123764563
     -0.0548207899
     -0.2558943228
      0.1373576167
      0.2465327105
      0.2024043043
      0.0228594942
      0.2615262733
      0.4142097623
     -0.3999641747
     -0.0357585187
      0.5952645524
      0.2383871045
     -0.3057144223
     -0.4636011057
      0.1174523258
     -0.2041031205
     -0.1476298860
     -0.7800839013
      0.5189625850
      1.1786699275
      0.1477486154
      0.4879684464
     -1.5247572563
     -0.2222991267
      0.7411821963
      0.3555121374
     -0.5112848484
      0.8121645821
     -0.1007685851
      0.5254377799
     -0.7612673509
     -0.6893768810
     -0.2156426052
     -0.1709637793
      0.5677496567
     -0.2390893582
      0.1002130942
      0.2811303556
     -0.1655885738
      0.4008149596
     -0.4079083742
      0.5668805894
     -0.0925659762
     -0.4275570277
     -0.3701555316
      0.2581848408
      0.4747467264
      0.2422394759
      0.5107498649
     -0.3964911876
     -0.3088399139
     -0.3634827579
     -0.1978334157
     -0.0564355550
      0.2403715506
     -0.2757440535
     -0.5615672911
     -0.3680208201
      0.0471942984
      0.3150858808
     -1.0521482383
      0.5423089679
      0.1901247107
      0.5785875959
      0.3150693189
      1.1733069823
      0.0724457358
      0.0113948236
     -0.9268093433
     -0.0224080771
     -0.0014622319
      0.9233510744
      0.2499606222
      0.4377310771
     -0.4184449552
      0.1917567360
      0.7247110642
      1.3478074554
     -0.3236934312
      0.8993669991
      0.8578385404
     -0.1232970167
     -0.8549532582
     -0.6709771179
     -0.6875068807
      0.1558004076
     -0.3496417405
     -0.3176574975
      0.9785523913
      0.5030751633
     -1.0885651274
     -0.3253063255
     -0.9515565539
      1.0589750655
      0.2972500434
      0.1074728843
      0.7307126677
     -0.2795357204
      1.9970048907
      0.9496832041
     -0.9178916994
     -0.8337246239
     -0.6009864860
     -0.0349334891
      0.1223377080
      0.8821664527
     -0.9184873115
      1.1251514029
      0.3333296855
     -1.2257828985
      0.1511495613
      0.6671270914
     -0.7407012485
      1.4178899449
      0.2331222555
      0.2807603079
     -0.4047805006
     -1.2368058479
     -0.3071701251
     -0.2426155983
      0.3092043355
      0.6724138187
      1.0041580499
      1.1850704103
      1.0379503766
      0.5637541322
      1.2122268612
      1.5941984141
     -0.9465229662
     -0.6464084661
      0.6865051722
     -0.0189173684
     -0.3241141605
      0.3950319607
      0.6622669032
      0.7960306689
     -0.6295383733
     -0.8726731506
     -1.2470580279
      0.6141794549
     -0.3252860777
     -0.5961536699
     -0.6760341517
      0.7755524297
      0.8016392946
      0.6069157541
      0.0723357455
      0.7067555566
     -1.0147272951
      1.2337407852
      1.6239924200
      0.8767948908
      0.1461913448
      1.0809870479
     -0.3469730007
      0.2095849183
     -0.8068446022
      0.4654537781
      1.6980039337
      0.8281453080
      1.0889833043
     -0.9559481565
     -0.8782807915
     -2.0161708533
     -1.5797306982
      1.1345419502
      0.1610421651
      0.3876751285
      1.5580596105
      1.3119272862
     -0.5527305031
     -1.1674506263
      0.5364611330
      0.2983160243
      0.0448279845
      1.2481462967
      1.1823865542
      1.8018844028
     -1.2198514697
      0.0454959960
     -1.0767981558
      0.2063691256
     -0.3218644159
     -0.2920178886
      0.7869896134
     -0.4381078029
      1.1284069003
      0.0421892490
      0.0224712190
      0.1015697524
     -0.0359658168
      0.1823597439
     -0.0060210105
     -0.0424188796
     -0.0706938568
     -0.1112439064
      0.0948936328
     -0.0055901455
     -0.0690848052
