      0.1378935059
     -0.0071290964
      0.0086742058
      0.8747108330
      0.1586590370
     -0.2724428392
      0.0387320482
     -0.7701697918
      0.4801921515
     -1.0728298357
      0.8375338637
     -0.3677016991
     -0.1310408261
     -0.6335634348
     -0.2555250189
      0.0856467179
      0.5460746378
      0.0886947739
     -0.1174108468
     -0.8311656791
     -1.1275235043
     -0.1727585736
     -0.0337404891
     -0.2166905652
      0.4745030482
      0.0795793306
      0.1462044325
      0.3545479079
     -0.6397520387
      0.6992586554
      0.7581318718
     -0.3850323203
     -0.2504769154
      0.1953795611
      0.7491897691
     -0.9004481541
      0.0438560849
     -0.5841298121
     -0.4750561844
     -0.9433020391
     -0.5346140417
     -0.4310919590
      0.9792597589
      0.0614518018
      0.6865130044
      0.0940248938
     -0.1543959708
      0.1200417376
     -0.4197941962
      0.2981016313
      0.2979372807
     -0.6058488095
      0.3540143449
      0.2197481633
      0.9590950189
      0.3740158073
     -0.1844398850
      0.5732072141
      0.9022956495
      0.3802246500
     -1.3314327327
     -0.3450836742
      0.4683726457
     -1.1608526865
     -0.9681461351
      1.5182064897
     -0.0957651135
      0.5935900632
      0.2206747468
      1.0792453279
      1.3961086894
      0.1708910537
     -0.5008480627
     -0.1293287739
     -0.3126272665
     -0.7488545081
     -0.7039620547
     -0.8513613841
      0.7260557084
     -0.2760487276
     -0.7135618433
      1.0528252760
      0.0676924025
     -1.0765417897
     -2.4930649665
      1.7500828376
      0.3182953595
      1.8464331464
      1.6481087724
      0.7721856472
      0.3687236226
     -0.0162114973
     -0.4810351414
      0.2145848378
     -1.0476234622
     -0.4071252673
      0.1155286438
     -0.0197030754
      0.3752444810
     -0.5356397785
     -0.8536858109
      0.3974051384
      0.3395527108
      0.0870808732
      0.4137505725
     -0.1146566567
      0.5832987541
      0.0807717540
     -0.1598203514
     -0.7499927242
      0.4012203184
      0.0512363952
      0.0718374263
     -0.2955224523
     -0.6611420185
      0.6264876012
     -0.0934833428
     -0.0630466839
      0.0739837186
      0.2204886324
      0.4422141277
     -0.4601760830
      0.2607566195
     -1.0473811695
     -0.6372581316
     -0.8690509977
      0.5070931096
     -0.3511036274
      0.7944431118
     -1.3497493408
     -0.0586653483
      0.7600191998
     -0.4360639699
      0.1376753625
     -0.1204164707
      0.6184240034
      0.7517658441
     -0.4619595685
      0.0691962187
     -1.2668090432
      0.5096332206
      0.8436306498
     -0.4881204708
     -0.0616055948
     -2.0374413873
     -0.3510248294
     -0.7604011948
     -0.1496074657
      0.1560988297
      0.3701632518
      1.1285222004
     -0.1948905343
      1.1372254041
     -0.6618323669
     -0.3480017009
     -0.0509229779
     -0.0993227025
     -0.9966621583
     -0.6382394732
      0.4843705001
     -0.7547808485
     -0.2824890503
     -1.0628670721
      0.3907061623
      0.3719056357
      0.1106650665
     -0.4550395514
     -0.5439557035
      0.7248654803
     -0.2257179136
     -0.3893611753
      1.3344549234
      1.2162399337
     -0.4558495850
      0.1175711167
      0.2562743943
      0.6048100337
     -0.0641035667
     -0.3579084798
      0.4171504130
      3.1486497277
     -1.8251021312
     -0.1899316122
      1.1157838076
      0.8207427269
     -0.3414423755
      2.6261752539
     -0.4176874463
      0.1170358343
      0.5952777809
      0.5776350483
     -0.0396341804
      1.4600811770
      0.6277059189
      1.0147674371
     -1.4359120634
     -0.3476014094
     -0.7783050040
      0.0393251730
      0.4944684197
     -0.0750437073
     -0.4617700888
      0.3011473629
      0.3302113390
      0.9420036004
     -0.1125179183
     -0.5772405439
      0.6169217491
     -0.1215772217
     -0.7255227804
      0.5563937956
     -0.0211321266
      0.0760956193
      1.0172065856
      0.2045225858
     -0.5349861482
      0.1186429615
     -0.2173078493
     -0.9717291440
     -0.0011685097
     -0.4589836818
      0.1339852773
      0.0577147919
     -0.2725706949
     -0.8235922181
      0.2744728187
      1.3689510773
     -0.5556245217
     -0.1064843978
      0.3399957414
     -0.1277374464
     -0.5478518405
     -0.0488111493
     -0.4326118698
     -2.3387991173
     -1.6315986908
     -0.5214343921
      0.7679519992
     -1.8701732328
      0.2714545008
      0.4671769146
      0.2135415839
     -0.5944485839
      0.0112081833
      0.3298474807
     -0.2499318700
      0.2930648853
     -0.5392374471
      0.1172361141
      0.0980963724
     -0.8192118090
      0.4721448875
     -0.5010951405
      0.6430942375
      1.6146702172
      0.0287138962
      1.0830198032
     -1.0811182683
      0.1175551448
     -0.3210081582
      0.0687518646
     -1.2086527059
     -0.9611579942
      0.0841865146
      0.0812530415
     -0.0265615241
      0.1450717161
      0.8279856742
      0.2677631000
     -1.5141610712
     -1.5211228112
      2.1678807392
      0.5689300746
     -0.5343186235
      0.1086350925
      0.3303804681
     -1.6117505076
      0.5401356551
      0.1863412905
     -2.7374966457
      1.1761611829
      1.1158024424
     -2.2761814189
     -0.9560824561
     -0.6407834451
      1.1152640526
      0.9637266479
      2.3380872640
     -0.0805166973
     -0.8378019396
     -1.5984489894
     -0.1534816249
      0.1807729505
      0.0183925064
     -0.2267805000
     -0.8138249546
     -2.3813011723
      0.8549100215
     -0.9141774732
     -0.0844122800
      0.0995354270
      0.0090489139
      0.4511685404
     -0.5757861170
     -1.1409524806
      0.4051780535
     -0.0381718118
      0.0223046628
      1.0055912733
     -0.2084174628
      0.0592047244
      0.1968329742
      0.1038064420
      1.1847008100
      1.2414839627
     -0.7170354169
      0.3704263014
      0.2258644851
     -0.4002607435
     -0.7054364110
      0.8718607600
     -0.1949389119
     -0.3142140118
      0.8115594577
      0.1762456849
      0.3090768587
     -0.5774792559
      0.7606334930
      0.9939124333
     -0.5285397336
     -0.3492507010
      1.0707550699
     -0.5290313287
      0.0737399088
      1.3400649090
      0.4141646613
      0.2251186183
     -0.4156042960
      0.8171061839
      0.7010085670
      0.4954770954
     -0.5337054296
      0.6465813185
     -0.9329763941
     -0.2618363461
      0.1955696761
     -0.6009589256
     -0.4912169198
     -0.3802823060
      0.0694969085
     -0.0393877244
      0.8048876144
      0.1820958326
     -0.0220139722
     -1.1827734874
     -0.0905056741
     -0.7164064671
      1.0130890591
     -0.1686377594
      0.4469719838
      0.1715856931
      0.6552527162
      0.1647092034
      0.1738720309
     -0.1345369974
     -0.1087187249
     -0.4322985264
     -0.9097691825
      0.8987285509
      0.9877357052
     -0.2055893177
     -0.8368590513
     -0.1922552299
      0.2086882039
     -0.0104847105
     -0.2476390265
      0.0851685907
     -0.2605294195
     -0.7732145371
      2.0223007698
     -0.7053558388
     -0.6138294629
      0.6262365706
      0.3708721127
     -0.0929763967
     -0.1858095711
     -0.7452317127
     -1.9116517012
      0.3194664073
      0.3618688414
      0.2652137584
      0.9918907737
      1.0042090612
     -0.6376016638
      0.3600677836
     -0.7621747861
     -0.0429447321
      1.1146382888
     -1.0387759775
      0.4629377717
      0.4823462936
     -0.0376932906
     -0.5448383567
      1.4055791377
      0.3048305995
      0.7237194039
     -0.6138234878
      0.9383239671
     -0.0930753520
      1.4890449168
      1.5471868655
      0.3097554468
      0.8549782190
     -0.2935655866
     -0.9909000853
     -0.6024914081
      1.0906759326
     -1.5861463317
     -0.6336731037
      0.2980504897
      0.3650673528
     -1.2890280065
      0.2326774739
     -0.0941678459
      2.3652068414
      1.2825223835
     -0.5710753461
     -0.4329785269
      0.6297553823
      0.2368827528
      0.0835863895
     -0.4700880034
      0.5197913410
      1.4763357891
     -1.5522026120
     -1.7844622377
      1.0848566712
      0.2476607151
      0.6249977058
      1.6754418471
     -0.3789100473
     -0.3471145275
      0.0582577935
     -0.1414458403
     -0.1539440030
      0.2333706298
      0.6079522971
     -0.5602971814
     -0.9746886038
     -0.0061258106
      0.1158149315
     -1.9108978454
      1.0595720680
      0.5394992567
      0.6999823974
      0.3502605308
     -1.0993905666
      0.1515072100
      0.0512861565
      0.7347845901
      0.6407103756
      1.8193480716
      0.1923714958
      1.6087533595
     -1.7868700532
      0.0480673972
     -0.7681902764
      0.8651913429
      0.3386820389
     -0.6472516123
     -0.7708286291
     -2.7321404452
      0.2201807976
     -0.7890706659
     -0.1514272013
     -0.6650093989
     -0.2084398316
      0.5526793133
      0.2460210871
      0.8800414639
     -0.1118484407
     -1.1732521273
     -0.3757818494
     -0.4042040988
     -0.1282216219
      0.4124509005
     -0.3219978264
     -1.2210018476
     -0.5804649600
     -1.0266929520
      0.8218488495
     -0.1183557899
     -0.3348594916
      1.0728195423
     -0.3774572993
      0.4771108401
     -0.6680545703
      0.8306482191
      0.4248626674
      1.0555517898
      1.0301119431
      2.4442566147
     -2.0919668842
     -0.4788120428
     -0.3041300996
     -0.5791292846
      1.8383719927
      0.4655177547
      0.7515278230
      1.9702596620
      0.2927060673
      0.1368522387
     -0.4251493610
      0.1260946142
     -0.1230019567
      0.1416061982
     -0.0682512202
     -0.1864319583
      0.3087892083
     -0.2517768064
     -0.1023761433
