     -0.0422730324
     -1.6256592690
      1.7884214071
      1.6504745947
     -1.0174093189
      0.6846797416
     -0.9843383821
      0.7873466324
     -0.0769452108
      1.1318683475
     -0.4116770281
      0.0134702048
     -1.3997302733
     -0.7252973703
     -0.7282667221
     -0.2096882246
     -0.1975649479
      0.3233891623
      0.1529164062
     -1.0065933336
      0.9903742350
      0.3902148358
     -1.2806168134
      0.1981631841
     -0.1087575539
      0.1088194023
     -0.5481459534
      0.1801457362
     -0.3272594564
     -0.8123256548
     -0.6431348383
      0.6971584046
      1.1207573469
     -0.1284321413
     -0.8879238967
      1.2190025906
      1.1382617694
     -0.1151359585
     -1.3190499343
      0.4003508837
      2.4516556401
     -2.1415832784
     -0.5617500877
      0.5008100870
      2.3481734970
      1.2005994385
     -1.0731804663
      0.0294233558
      1.5141247101
      0.3465574083
      0.9965223183
      0.2979778179
     -1.7497897378
     -0.4617689449
      2.8220690849
     -0.2334048041
     -0.4257084323
     -1.0995478116
     -0.1709134693
     -0.6156506260
     -0.5626605351
     -0.1428049050
      1.6136825341
      0.7023709503
     -1.3420770425
      0.5916402257
      0.4647472621
     -2.0534545781
     -0.6712072855
      0.3058994857
     -0.8341649262
      0.4818654412
      0.7451851160
     -1.1937725598
      1.0855260060
     -0.0484531895
      1.6356696164
     -1.3001411595
      1.5313760886
      0.4573375538
      1.7286103002
     -1.0525040052
     -1.1572527772
     -0.0510904252
      2.1516907497
     -2.1929488246
     -2.1175421454
     -0.2136418927
      2.2905883736
     -0.3231793394
     -3.8315468572
      0.0885929099
     -0.9965712917
      0.8268666643
     -0.6280322483
     -1.6992262573
      0.8204491552
      1.0522625334
     -0.8769425279
     -0.7333718000
     -1.5939618476
     -0.2411687737
      0.5070830105
      0.3156262352
     -0.5424611666
      0.1488120500
     -0.0978170914
     -0.6353980078
     -1.4942910687
      0.6356953890
      0.7925548825
     -1.2707722401
     -0.9703123574
     -0.0494774031
      0.1619142741
      0.2175372738
     -0.8229733587
      0.6397261960
      0.7079027137
      0.2563654131
      1.0339747843
      0.3982155736
      0.1670828699
      0.3470541605
      1.2828881513
      0.9405973612
     -1.3152375142
      0.7581890643
      0.1356173092
     -0.3254335510
      1.8683718936
     -1.4725640491
     -0.9068392524
      0.8411965791
     -1.0268729560
      1.0584724575
      0.4836066603
     -0.4151282465
     -0.5285267949
      1.1991878955
      0.0746786299
      1.1443450596
     -0.5591754456
     -0.0211383524
      0.1925699328
     -0.2678753543
      0.6893317667
     -0.1122071382
      0.6151421560
      0.1246561775
      0.2476048675
     -1.1379233738
     -1.3074842818
     -0.7571457956
     -1.3217462623
     -1.3846889447
      0.5360337996
      0.6381168436
     -0.4565243710
     -0.5027188913
      0.4850164943
     -0.4798836449
      1.2629026644
     -0.1520917996
     -0.5030969585
     -0.0304925443
     -1.1645163144
      0.4250649112
     -0.7429334795
     -0.3720834784
     -0.4967501087
     -1.0608304714
     -0.0634288683
     -0.0134788633
     -2.2765380983
      0.1967116132
      1.9948431541
      0.6054112574
      0.2372399013
      0.5104956896
     -0.7474700328
      1.2510979838
      1.7244731184
      1.4024383257
     -2.0495893081
      0.3805493999
     -2.1666114531
      0.1062808961
     -0.4496222739
      0.0524474278
     -0.5969297019
     -0.9227776518
      0.1944269392
      0.7071853372
      0.1743027099
      1.2457283412
      0.0499945130
      0.9303284237
      0.2202436174
      0.5222462991
     -0.1096927483
      0.5700422837
     -0.5823953547
      0.0098176685
     -0.1167237665
     -0.2241349641
     -0.5441555431
      0.3128463310
      0.4644256148
     -0.0229289663
      0.6444906497
      0.0328581388
      0.4639941801
     -0.5838617190
     -0.1641599321
     -0.4388493423
      0.0200963801
     -0.0925767819
     -0.5464984563
      0.7430958108
      0.6291040809
      0.2671186517
      1.1657386291
     -2.5472851498
      0.2642494457
     -1.0558339148
      0.3905805307
     -0.9190236801
     -0.1476036649
     -0.5884317024
     -0.8445808979
      0.5127629715
     -0.6382192114
     -0.2380171896
      0.0506066723
     -0.8852320521
      0.4047839476
     -0.0276952840
     -0.0957768988
      0.2645831498
      0.0426738675
      1.3653019881
     -0.3037221301
     -0.2373195046
      0.6169607146
      0.5342285551
      0.4831169234
      0.1108814219
      0.3361974910
      0.4250650349
      1.4617488612
     -1.6186814590
     -1.3031168335
     -0.2814416891
     -0.9397092999
      0.1743859505
      0.5663601360
     -0.9094012715
     -0.4233930866
     -1.0149943522
     -1.1038232963
     -1.6440235928
     -0.5779453045
      0.0475717045
     -0.4137082683
      0.0602746012
      0.6049944954
      0.2359372378
     -1.3469048870
      1.3984807664
      1.4664950518
     -0.0459939733
      0.7544530148
      0.6557507416
      1.0131326183
      1.1716853683
     -0.6335935249
      0.2593581536
      0.0467425766
      0.1967640289
     -2.3518078857
     -0.9559656205
     -1.4199473149
      0.7699487955
      0.3352947136
      1.4076817616
     -0.2352837104
     -1.0948879876
      0.9351643383
      0.8348219374
      0.1654011667
      0.4443697060
     -0.5442175816
      1.5490023095
      1.4259446512
     -0.1930084625
     -0.2014969472
      0.9587102830
     -0.9540700420
      0.9553998888
      0.8362390295
     -0.3519007494
      1.1807012673
     -0.1637564081
     -0.7279546691
      0.6757192445
     -0.5339492358
      0.7576991983
      0.4279799987
     -0.3225474557
      0.3487825990
      0.7865728382
      0.3972579847
      0.2454270130
      0.2795036057
      0.0700690215
     -1.2185482530
     -0.2844207039
     -0.7153170589
     -1.9011692355
     -0.1889292755
     -0.7692461113
     -0.0734424577
     -0.6173535002
      0.1007191139
     -0.5944634447
      0.3043266265
      0.3772066415
     -0.4197192466
     -0.8727889608
      0.6349195535
      2.2203253349
     -0.4144773832
     -0.7838067600
     -1.0090009921
     -0.2822596614
     -0.6904882581
     -0.7418998176
     -0.5958791962
     -0.8451012187
      1.6493899198
     -0.4845428908
     -0.2608012054
     -0.6188322367
     -0.0543803957
     -0.3524580322
      0.9799981761
     -1.4591413892
     -0.4499753632
      0.3899278024
     -1.3623427908
      0.8316274159
     -0.9226315005
      0.7827131989
      1.2828735235
     -0.0945409242
     -1.2959803191
      0.2409377966
     -0.2622938849
     -0.3837781169
      0.3403104308
      0.8247546083
     -1.1125935568
      2.2409057028
      0.6875357264
     -0.9453538822
      0.3099115288
     -0.1864999768
      0.6454012025
      0.8187770540
      0.4868875648
     -0.8530873605
      0.5799864898
      0.4379283708
      0.2521519512
      0.3632645851
     -0.1231743979
     -0.6789446391
      0.0201457408
      0.2273782346
      0.6392283775
     -0.6877401404
      1.0696253288
      0.6897442898
      1.3996907348
      0.2313392982
     -0.5379425258
      0.2664966350
     -0.6456765926
     -0.7522540613
     -0.6234613057
      1.5991317514
     -0.3997622181
     -0.1677367267
      0.3889544441
     -0.5980321948
     -0.5220207749
      1.6487405355
      0.9491733358
      0.6101649181
     -0.5934384084
     -0.4961875591
     -0.1881710389
      0.1773313878
     -0.4808950937
      0.1086780091
      0.0119199729
      0.0571279525
     -0.0258376876
     -0.4040250244
      1.7860718289
      3.3121570369
      2.2350916677
     -0.7167036394
     -1.9084309175
      0.7597329865
     -0.2702379310
     -0.5481429125
      2.7774123586
     -3.4733540495
     -0.5597416382
      0.2598258019
     -0.4667869878
     -0.2979671800
     -1.0875522980
     -0.4434958707
     -0.1789731360
     -0.4062427316
     -0.3517955110
     -0.4577237169
      0.0399863567
     -0.2297286248
      0.3437616822
      0.3989696562
      1.6032583533
      1.2555243974
     -0.6584466539
      0.5532757272
     -0.0466087530
     -0.8013369720
      0.0457451206
      0.2610412130
      0.0063999881
      0.0152835681
     -0.5859591353
     -0.0004975068
     -0.2319605316
      0.1971951566
      0.1988334795
     -0.2754054826
     -0.5328283576
     -0.1715820936
     -0.5272657489
     -0.0715766352
     -0.5828966431
     -0.7915008404
      1.0245102177
     -0.1347792251
      0.0465970138
      0.2001450179
     -0.4552637410
      0.5863692364
     -0.0598162798
      0.0746230271
      0.4932005744
     -0.1944716270
     -0.2146449046
     -0.0770154802
      0.3782440397
     -0.0955029646
      1.0627674997
      1.0196675365
      1.3308008357
     -0.9713168300
      0.2561983023
     -1.1157427332
      0.1480393436
     -0.8974775822
     -0.3988124515
     -0.7348999853
      1.1744698845
      0.2811232898
      1.6333708158
     -1.3031235871
      0.6357987966
      1.2817876035
      0.9559738126
      2.2643549824
      0.9497048932
      0.2060038661
     -0.5800055673
      0.2097736941
     -0.3883955936
      1.5025884955
     -0.4608815884
     -0.6284933946
      0.0922238867
      1.8072817914
     -0.9193177138
     -0.1802930652
     -0.7902030629
      0.3567957032
     -0.8287790583
     -0.5358588979
     -1.4481037478
     -0.0367010409
      0.7804303703
      0.1853460600
     -0.0230260830
      0.2373186587
     -0.8379768549
      0.2883639282
     -0.6261498968
     -0.0486900032
      0.0059877002
     -0.3861174905
     -0.0107471751
      0.7702017996
      1.4792210062
      0.3467616866
     -0.2924184504
     -1.1991933446
      0.4805847295
      0.4552744621
      0.3690807427
     -0.2510047930
      0.4157016157
      0.3148650087
     -0.1007869724
      0.5992430574
     -1.2532178456
      0.4059703160
     -0.3315269204
      0.5338107662
      0.2181057094
      0.3375319877
     -0.1767044001
      0.7813286081
      0.2368782057
      0.1161850115
      0.7770908414
     -0.9819235051
      0.5180712373
     -0.2586292336
      0.1989209734
     -0.2858302688
      0.8814501588
     -0.0304468059
      0.9695588878
      0.8967343345
     -0.0343569121
      0.2586308360
      0.9371376797
     -1.1667787932
      0.5383074685
      1.5521814078
     -0.7814988941
      0.9302654487
     -0.1461230811
     -0.6349846854
     -0.1671152091
     -1.2433883286
     -0.9408772214
     -0.1712092107
     -0.8546963696
      0.2286656234
     -0.2448287553
      0.2476522069
      0.7004483955
      1.4982284442
     -1.0722620297
     -1.3860672250
     -1.2655958026
      0.2140237249
      1.6862966221
     -1.1387937015
     -0.5376044802
     -0.1171855466
     -1.9213892339
      2.1078387348
      1.4648237963
     -1.1672983723
      0.9852819474
     -0.0997270392
      1.2296439728
     -0.5857769250
      0.6753310235
      0.4511508620
     -0.1384731914
     -0.6811527489
      0.7833434247
      1.3942421120
      0.5380496166
     -0.0245851927
      0.2196101719
      1.1079189225
     -0.1261575107
     -0.7224449554
      0.4453135785
     -0.6242081365
      0.2350733259
      0.4223004037
     -0.0449504243
      0.1831663822
     -0.1910948225
      0.5072666150
      0.7050971422
      2.2680136302
     -0.9819363982
     -0.0187856080
     -1.2080108326
      0.8969690322
      1.0848130508
     -0.3803836846
     -0.0356973358
     -1.5835021258
     -0.7030802887
      1.4890709579
      0.5812781552
      0.5238008688
     -1.1129718674
     -0.5357633108
     -0.5905633554
      1.3245219775
      0.7124707486
      0.5455338135
      0.9965348402
      0.5990463595
      0.2570844092
     -1.6067689549
     -0.3793488045
     -1.2723655396
      0.4807414042
     -0.5143970724
     -0.0156093028
      0.4723909741
      0.3748334978
     -0.3113827302
      0.4627689331
     -0.7128654995
      0.5136623666
     -0.2001398839
     -0.8760415813
     -0.3601622084
      1.2077186157
      0.5060977682
      0.1285820695
      0.2638713032
     -0.1562679078
      0.4700819328
     -1.3940237787
      0.2332264074
      0.5162327956
     -0.0094579492
      1.2498825823
     -0.7010536611
      0.0747207436
      0.0856702100
      0.1572605726
     -0.4769953371
     -1.4412756843
     -0.5125965879
      0.9521434295
     -0.1352651915
      1.0771927238
     -1.9760554113
      1.1503902174
      0.7370532695
     -0.9035190776
     -0.2500507849
     -0.3143033498
      0.8893218198
      0.6123612204
      0.4561838182
      1.0167685599
     -0.1254202486
      0.8307766912
      0.1703961670
      0.5128195972
      0.0970614243
      1.0021769356
      0.3651858253
     -0.3759649950
      1.0395638259
      1.0131473449
     -0.6136795472
     -0.1218894654
      0.3556168145
     -0.1231796695
      0.2851591327
      2.6118811092
     -0.1904333185
      0.4529328423
      0.0311414827
     -0.5198502531
      1.2513875372
      1.4564021281
      1.8069807898
     -1.0655474978
     -0.0548612994
      0.0247346009
     -0.0364931388
     -0.3890234534
      0.0572180117
     -0.0107309316
     -0.0229874609
      0.0193866259
     -0.0105055701
      0.0048950365
      0.1234097361
      0.3283840632
